-0.143162 -0.608058 -0.322428 0.853114 1.77879 1.60327 -0.31492 0.233406 -0.225318 0.906491 -0.838191 0.640355 0.626514 -0.388256 0.100677 -0.522141 0.386748 0.603534 -2.50574 1.02407 0.974242 -0.661184 -0.827418 -0.0748314 0.5244 0.992032 -0.439017 -0.833784 -0.866756 -0.494162 -0.0705588 0.21548 0.704413 0.40498 -0.471206 -0.292154 0.802515 -0.49418 1.96939 -0.103702 -0.280536 0.503523 1.76143 -0.878048 -0.0177454 0.863369 0.647128 -0.354167 -0.209906 -0.737907 -0.159093 -0.807123 0.790277 -1.26763 -1.92682 0.730229 0.328288 0.518784 0.779199 0.220405 -0.115502 0.772463 0.73806 -2.05391 0.139134 0.241967 0.0645466 -0.860378 0.0768453 -0.997375 -0.653512 -0.930113 -1.07793 -1.21776 -0.164133 -0.733573 0.387158 0.809687 0.304571 0.848798 -0.028901 -0.303446 -0.752262 0.943144 0.0640889 -0.577795 -0.173681 0.851375 0.256447 -0.979217 0.43492 0.641237 0.886288 0.205518 0.161351 -1.28758 0.735893 0.383312 0.255287 0.268186 0.165807 0.768548 -0.907807 0.56372 0.643147 -0.106784 -0.309889 -1.65044 1.60105 -0.141881 -0.915804 0.296264 0.227149 -0.509384 -0.380749 0.376385 -0.706774 0.817255 -0.07416 -0.132908 -0.764977 -1.54274 -0.274331 0.0202643 0.814383 0.317202 1.59392 1.55299 -0.736107 0.578967 0.427686 -0.98999 0.30723 0.920743 0.94803 -0.923338 0.316477 -0.944446 -0.0681478 0.552591 0.208655 -1.79712 -0.967221 0.924345 -0.506211 -0.119541 0.0953093 0.556383 0.0407228 0.150273 0.891751 2.37611 0.408612 -0.0279653 0.190607 0.351153 -0.225105 -0.057908 -0.512619 0.731376 -0.337094 2.00156 -0.812211 0.0860622 0.846919 -1.2053 0.618732 0.425671 1.71671 0.298126 -0.809473 -0.343028 0.978912 1.23363 0.968871 0.160375 -0.31055 -1.09564 -0.0193182 0.0458388 -0.947087 0.731048 -0.556047 -0.224891 -0.816944 0.894101 -0.485389 1.47113 0.103732 -0.897275 -0.0889615 0.381237 1.05543 1.24521 0.0489796 -0.415074 -1.01754 -0.417615 0.660531 0.537248 -0.505106 -0.174636 0.100126 0.968688 -0.0889265 0.944426 0.10242 0.74752 0.146001 -1.92834 0.659139 1.27926 -0.27238 -0.66213 0.7575 -0.500015 -0.225151 0.0596317 -0.562059 0.216651 -0.999329 0.801174 0.154652 -0.84051 -0.872957 -0.107913 -0.379406 0.80932 0.351024 -0.545671 -0.254799 0.89227 -0.15984 -0.752866 0.575118 1.81196 0.944399 -0.740219 -0.508988 0.811731 -0.889224 0.125095 -0.876461 0.973296 0.301248 -0.0624714 -0.276925 -0.716666 -0.720267 -0.830409 0.879604 0.528825 0.103 -0.851988 -0.986572 0.201514 1.79652 0.774755 -0.473739 0.50734 -0.0210883 0.767235 0.851522 0.191046 -0.132725 -0.598071 -0.310038 -0.621143 -0.693617 0.745781 -0.864406 -0.829149 -0.793329 -0.0451905 -0.383292 -0.249092 -0.34248 0.539034 -1.39789 0.438856 -0.47972 -0.688742 -0.321512 0.0983612 0.855617 0.544633 0.0572832 -1.53106 1.17713 -0.937596 -0.907318 -0.980651 -0.431867 0.743522 -0.902405 0.646535 -0.935168 0.127812 0.542314 -0.797906 -1.42248 0.0498062 -0.136723 0.131932 -0.915006 -0.724784 -0.421461 0.639781 0.0607929 0.269996 -0.0772849 0.802515 0.582406 0.619831 -0.525498 0.910385 0.626449 -1.80057 -0.703848 -0.0926497 0.824 1.70245 0.153258 -0.824499 -0.530106 1.95589 -0.00485244 0.342967 -0.00324143 0.551125 -0.242073 -0.383254 0.588305 0.978332 -0.349864 -0.759636 -0.841517 -0.735252 -0.539076 0.749962 -1.62346 -0.660496 -0.409619 0.596659 0.959682 0.149241 0.167394 -0.0539841 0.037019 0.925406 -0.705557 0.702841 0.433302 -0.193253 -0.887875 -0.700156 -0.281655 0.361064 0.702537 0.54239 -0.919812 0.389874 -0.946409 -0.0336314 -0.538194 0.332072 0.576952 1.11734 -1.29001 -0.396496 -0.820215 -0.0995819 -0.846531 -1.51216 -0.344672 0.166326 1.13719 -0.414197 -0.119194 -1.89478 -0.357215 0.151738 -0.272683 -0.566362 -0.933073 -1.2978 0.285012 -0.915616 -0.295297 -0.148656 0.251185 -0.234779 -0.348126 0.292459 -0.604877 0.840022 0.011597 -0.995849 -0.232175 0.155766 0.766668 -0.573648 -0.764443 -0.152904 -0.0272835 -0.00960186 -0.76928 0.496841 -0.673605 0.994812 0.0601825 0.615802 1.4733 0.617176 1.6709 1.51249 -0.0292355 -0.271126 -0.38731 1.33681 0.490951 -0.130863 -0.485525 0.427076 0.524122 -0.97528 -1.31863 0.505417 -1.91718 -0.0333406 0.176794 -0.963832 -0.806604 0.859096 0.769428 -0.218574 -0.638142 -0.493912 0.473098 0.201126 0.922697 -0.266121 0.133763 0.333903 0.975402 -0.31877 -1.24634 2.73484 0.608216 -0.592822 -0.0985748 -0.793871 0.0273751 1.85303 0.277627 0.683176 -0.36137 0.890835 0.149682 0.893094 1.58431 0.718802 0.885006 0.996704 0.722433 -0.442 0.407849 0.16187 -0.396283 0.62624 -0.144841 -0.818445 0.301492 -0.939451 -0.997742 0.606261 -0.853511 -0.170966 0.921476 -0.0969268 1.19405 -0.550754 0.941893 -1.54987 0.739067 -0.112735 0.461891 -0.0467849 -0.601932 -1.64657 0.551683 -0.0595111 0.986815 -0.34681 -0.624441 0.190696 0.20542 1.00384 -0.294975 -0.393902 -0.0187689 -0.356 -0.918851 0.793207 0.708823 -0.0326617 -0.938169 -0.530778 0.737769 -1.56236 0.959187 0.744774 -3.30566 0.499496 -2.23146 0.040898 0.278512 0.533616 0.452945 -0.623646 0.840166 0.65002 0.716056 2.3883 -0.352977 0.388104 -0.652425 0.26075 -0.826624 0.569262 0.942869 2.90806 2.06921 0.250008 -0.0257009 -0.279214 -0.814162 -0.999756 -0.304075 -0.783959 -1.01994 0.425174 -0.431363 2.82807 0.833028 -0.29312 -1.40597 0.237739 -0.698477 -0.276901 -0.159215 -0.783288 -0.461544 -0.81811 -1.8333 2.02063 -0.872677 -2.72312 -0.496969 0.908933 -0.722831 0.91583 0.910855 0.933836 0.840083 1.66652 0.483169 1.22394 0.187933 1.52265 0.208502 -2.01707 -0.804773 -0.515488 -1.29331 0.442854 -0.31666 0.772332 0.340464 0.70806 -0.898556 -0.249275 -0.585192 -0.349467 -0.548509 2.35417 -0.903317 -2.35957 0.0432521 0.826472 -0.191978 -0.479163 -0.717399 -0.654073 -0.932463 0.633808 -0.214057 0.822504 -0.692129 -0.783441 0.951964 -0.144658 0.46857 -0.232521 -0.486557 -1.59552 -0.177252 0.144841 0.633412 -0.906359 0.85641 0.808584 -1.30229 -0.998871 0.26461 0.869167 -0.505005 0.216071 0.554292 0.23368 -0.548143 -1.12827 -0.438337 -0.205329 -0.854732 -0.150806 -0.216956 -0.120792 -0.16419 -0.933195 1.53229 0.376843 0.953714 0.227805 0.201819 0.962157 0.341716 0.390423 -0.191992 0.364849 0.0666293 -0.658641 0.866329 -0.419298 0.766376 -0.562347 -0.359142 0.204352 0.546373 -0.786584 -0.812033 0.321421 -0.718955 -1.77437 -0.62212 0.727675 -0.440931 0.943205 0.0320088 0.467421 -0.0499405 -0.896847 -0.912789 0.308329 0.255163 -0.0844752 0.42732 0.544908 -0.0161748 0.140932 -0.534623 0.699613 -0.0361321 -0.668996 0.688467 -0.0256398 -0.496066 0.0325327 0.369976 0.305287 -0.858414 -0.725578 -0.507828 0.294626 -0.0933256 -0.83686 -0.0813623 1.54171 -0.550154 -0.566973 -0.78796 -0.31704 -0.929044 0.427107 -0.921354 -0.322489 -0.819376 -0.914365 -0.708487 0.530808 1.80822 -0.482803 0.0369274 0.497542 0.461867 0.334797 0.307688 0.119114 -0.287423 -0.692251 -0.275307 0.955634 -0.788018 -0.18778 -0.399518 0.678037 -0.548601 1.24194 1.36605 0.985778 -0.852718 -0.862747 1.25201 -0.966485 0.508927 -1.05421 -0.700675 0.651112 0.140751 -1.43373 -0.861049 0.407666 -0.133337 -0.0250252 -0.558306 0.437574 0.0129398 0.520676 -0.154546 0.0929754 -1.32569 0.85345 0.587939 -0.0286264 -0.750603 0.291018 -0.177313 0.575171 0.981962 0.402428 -0.396608 -1.57404 0.488754 -0.380921 -0.30891 -0.0910318 -0.288858 -0.528245 1.37071 0.925901 -0.896878 0.21955 -0.288888 1.67049 -0.479995 2.03147 -0.52255 -0.936857 -0.437749 -0.738762 0.0521561 -0.124546 -1.14749 -0.667989 0.0489822 -0.98853 -0.703528 0.786171 0.39933 1.15078 0.521531 -0.398538 -0.998355 -0.979278 -0.643731 2.09241 0.183817 -0.120396 0.512923 -0.0308237 0.0759101 0.31724 -0.00464643 0.886347 0.48439 0.256172 0.410779 -0.496017 0.851558 -0.0817889 0.0968019 0.788263 -0.174017 -0.107547 -0.730094 -0.901543 0.188574 0.0984222 0.385167 0.0313425 -0.0719321 0.441847 -0.586831 -0.15724 0.587939 0.468154 0.947722 -0.727134 0.252144 0.132212 -0.817939 -0.953276 0.224097 -0.345816 -0.459209 -0.997903 -0.348884 0.740266 0.290109 0.770837 -0.509232 -0.519631 -0.108984 0.582598 -0.30549 -0.577377 -0.139342 0.69254 -0.148779 -0.734306 -0.191107 0.56267 -0.240303 -0.133854 0.962859 -0.566973 -0.239865 0.236947 -0.684996 0.158293 -0.611347 0.790674 -0.479964 -0.430982 0.123844 0.891507 0.0525834 -0.38316 0.226905 -0.384426 0.710406 0.258614 -0.374889 -0.132023 0.411877 -0.270639 0.343676 -0.648535 -0.526815 0.333232 -0.509232 0.165921 -0.590283 -2.67493 -0.989349 0.0650349 0.615294 -0.783471 0.154637 0.776148 0.151708 0.373852 -0.139592 -0.497238 1.2999 -0.074963 0.934751 0.0621845 -0.837733 0.254036 -0.481368 0.0250557 0.296224 0.877446 -0.443434 -0.954009 -0.907175 -0.813746 -0.454307 0.719984 -1.01027 0.0550479 -0.270945 0.427747 -0.257633 0.986912 0.450758 0.95703 -0.321238 -0.0772144 -0.287332 0.602069 -0.907279 0.316568 -0.497024 1.35333 -0.137609 -0.433973 -0.0215064 -0.314373 -0.480979 -0.868067 0.633656 -0.0701926 0.775376 -0.310984 -0.309366 0.742582 0.995335 -0.963988 0.15595 2.34498 0.0701075 0.236765 -0.82638 0.672429 0.146993 -0.0670186 -0.400128 -0.892666 -0.814417 0.242195 0.250665 0.613117 0.192999 -0.923261 -0.887875 0.653552 -0.402861 0.486465 0.707694 -0.67343 -0.487777 -1.10683 -1.61407 0.0660979 -1.32323 -0.389508 -0.155156 2.3977 -0.869299 -0.779324 0.653717 0.153129 0.193609 0.527879 0.432905 0.216293 -0.167608 0.494247 -0.772749 0.0359928 -0.704917 -0.62447 -0.139353 -0.178106 0.202826 0.341502 -0.478012 -0.709983 -0.691244 0.291653 0.363048 -0.889706 -0.494217 0.726646 -0.764737 -0.701903 0.678426 0.633119 -0.426971 0.570635 -0.253151 -0.0934172 1.2824 0.536607 -2.12187 0.711966 -0.915231 0.323618 -0.985261 0.37431 -0.823572 -0.549549 -0.641606 0.589242 -0.911134 0.490829 0.247414 0.631062 -0.359325 -1.0733 -0.395978 -0.279397 0.848689 0.671979 -0.13307 0.619465 -0.212288 0.391705 0.150792 -0.790155 0.5562 -0.972991 0.321796 -0.772607 0.735797 0.191771 -0.363446 0.546464 -0.886258 -1.29931 -0.422926 -0.212775 -0.170205 -0.205573 -0.662099 -0.414624 0.830836 0.513749 0.677267 -0.214546 -0.92819 -0.888668 -0.882473 0.403118 -0.870602 -0.270852 0.484542 -0.218268 0.348779 0.647052 -0.804142 0.78338 0.0628986 -0.159215 -1.14319 -0.756706 -0.30723 0.266121 -0.321726 0.631764 -0.414764 0.528317 -0.357189 -0.100383 0.329173 -1.13753 -0.0328074 0.876644 -0.69546 1.43092 0.817595 -0.964346 0.537278 0.568041 0.337748 0.057741 0.920194 -0.149815 -0.0019837 -0.997419 -0.435876 0.641909 -0.00471114 0.0954546 0.0326853 0.249336 -0.894224 -0.500137 1.98336 0.27665 -0.82519 0.430891 0.872372 -0.685293 -0.747917 -0.211859 -0.260018 0.730613 -0.786226 -0.0731496 0.281069 0.0995514 -0.312082 -0.733787 0.351207 0.641133 -0.106937 -0.51588 0.330147 0.731407 0.240822 -0.418527 0.0964975 -0.089464 0.702587 0.202507 -0.736006 -0.559329 0.985534 -0.213874 -0.977783 -0.405774 -0.926206 0.555686 0.314188 0.342202 -0.507187 0.210211 0.768914 -0.521805 -0.278926 0.81695 -1.04941 -0.577097 -0.338816 3.72596 -0.216194 0.699775 0.933226 0.532349 -0.0397656 0.963986 0.485153 -0.532952 -0.765648 -0.581237 -0.319498 -0.609912 0.435255 0.58681 -0.62957 -0.962024 0.471064 0.247566 0.800549 -0.849635 -0.273721 -0.417646 -0.724479 -0.709677 2.63382 -0.416517 -0.0980255 -0.056093 2.56077 -0.038213 0.623646 -0.520432 0.089012 -0.492843 -0.543107 1.06394 -1.6966 -0.121708 -0.75866 0.0806299 0.0506912 -0.484878 -0.866848 -0.241066 0.456404 -0.113529 -1.53956 -0.83929 -0.191168 0.69747 -0.832972 -0.194586 -0.765038 0.371258 -0.896793 0.949339 0.349453 0.507549 -0.92942 -0.785472 0.944578 -0.153853 -0.235023 0.375338 0.913541 0.952696 -0.00607318 -0.904111 -0.369583 -0.0168767 -0.359799 0.834122 -2.24112 -0.143468 0.870144 0.226508 -0.814719 -0.24311 -0.0959225 0.77047 0.0105758 -0.284433 -0.757609 -0.275155 0.610908 0.360912 -0.373028 0.970589 0.873257 0.823847 0.917234 -0.18952 0.26606 -0.640614 -0.814844 -1.85683 0.781793 -0.202078 0.873775 -0.201392 0.370128 0.699271 -0.195219 0.0361949 0.942664 0.718009 0.934476 -0.392976 -0.394543 -0.627632 -0.377758 -0.377796 -0.501417 -0.680654 0.53514 -0.733543 2.57697 -0.407544 0.69814 0.192938 0.223905 -0.0210883 -0.129307 -0.857723 0.482315 0.965514 0.372775 0.0440382 0.517075 -0.0899686 0.74337 -0.745485 0.392499 -0.219663 -0.094058 -0.590838 0.0417798 -0.521482 -0.0828883 0.21665 -0.0847499 -0.407361 -0.46523 0.605426 -0.277121 -1.03342 0.94586 -0.718131 0.425911 0.215852 0.484552 -1.49473 0.924558 0.0464576 -0.625908 -0.89584 -0.177892 -0.382641 0.548479 -0.6798 -0.910186 -0.996146 0.198462 0.895138 -0.580745 0.159513 -1.13506 -0.430189 -1.06655 -0.557665 -0.475546 -0.882554 -0.262673 -0.798914 0.0970183 0.509629 0.377838 0.626396 0.407697 0.107226 -0.673177 0.672018 0.889218 0.950743 -0.119785 0.175237 0.568896 -0.00695666 -0.822597 0.263741 -0.62344 -0.448561 -0.829206 0.511216 -0.737458 0.067568 -0.788324 0.160655 2.64826 -0.219897 -0.699329 -1.11366 -0.827937 0.362163 0.879238 -0.468399 0.688682 -0.0980866 0.148411 0.508866 -0.487573 -1.04243 0.815973 0.870939 -0.781381 0.765648 0.50444 -0.140463 -0.346904 0.0870083 -0.575365 0.0287397 0.802423 -1.09324 0.430189 0.241157 -0.195746 1.80389 0.23603 0.375744 -0.916196 0.561357 -0.120487 -0.655599 -0.234352 -0.0887082 0.469093 0.783044 0.0575579 0.515976 -0.114505 -0.50502 -0.145745 8.5598 1.6885 -0.123783 0.284244 -0.996735 -0.165441 -0.847713 0.262917 -0.946715 0.854274 -0.863247 -0.475204 -0.300424 0.688864 -0.167913 0.0806841 0.799768 0.657033 0.0181818 1.14419 -0.528916 0.0740684 -0.105953 -0.583148 -0.3867 -0.82466 0.0556658 1.89466 0.268624 0.0123362 0.606037 0.0723124 0.309946 -0.520707 -0.891661 -0.184179 0.0674764 0.71691 -0.261203 1.64903 0.61269 -0.701193 -0.89879 0.95592 -0.674703 0.197281 0.144997 -0.523423 -0.549913 -0.03589 0.933682 0.903684 -0.457869 0.276724 -0.258084 0.107456 0.50962 -0.448684 0.120031 0.313059 0.904172 0.184057 0.515183 0.448603 0.990417 0.716356 -0.727804 -0.68218 -0.496939 0.899625 0.296365 -0.728446 0.453627 -0.644981 0.982635 -0.209063 0.404889 0.242561 -1.11389 0.917478 0.892697 -0.683523 0.364238 0.30192 0.382488 -0.237252 0.187841 -0.259194 0.825617 0.218237 0.620624 0.552599 0.0379531 -0.637074 -0.190791 -0.758751 0.35316 0.257232 0.637562 -0.875607 -0.329578 0.704035 -0.967284 -1.10215 0.75798 -0.241462 0.48793 0.677816 0.400891 0.294047 -0.341247 -0.176855 0.306375 0.416041 0.982208 -0.119877 -0.375896 -0.261696 -0.517726 0.245154 -0.825086 -0.430891 -0.77456 0.0477309 0.110063 -0.896847 -0.640797 0.368786 0.552324 -0.989502 -0.0683613 -0.945685 -0.501504 -0.328959 -1.56329 -1.55896 0.0894793 0.0729087 0.0883107 0.93585 0.285043 0.988983 -0.408003 -0.235603 -0.953948 -0.610431 -0.68392 -0.897641 -0.934294 0.954924 1.81113 -0.490463 0.195195 -0.259435 -0.534715 -0.974487 -0.984985 0.517411 0.320668 -0.864345 0.777581 0.219455 -0.611432 1.52742 -0.0927154 0.521317 -0.98117 -0.613952 -0.970847 -0.864071 0.343364 -0.266402 -0.951598 -0.0821423 -0.262246 -0.497971 -0.395063 -0.470626 -0.512348 0.105122 0.0691244 -0.403612 0.57329 0.761864 0.642628 0.747287 -0.273568 0.760796 -2.18233 0.179357 0.187076 -0.691183 -0.104587 -0.838221 -0.708346 -0.416331 0.357036 -0.171678 0.563592 0.763848 0.549271 0.725606 -0.570582 -0.811914 0.481338 -0.594183 -0.110835 0.243984 0.272569 0.643757 -0.320872 -0.91818 -1.35272 0.389416 0.206305 -0.103916 0.44557 -0.787957 0.519507 0.465194 -0.314585 -0.403013 0.00183111 0.0342723 -0.535783 0.517619 0.230659 0.758995 0.196051 -0.497757 0.872616 -0.0596942 -1.39773 -2.55923 -0.292611 -0.280435 0.44963 -0.265206 -1.73404 -0.195065 -0.577258 -0.568468 -0.617115 0.382794 0.179409 0.317592 0.18305 0.33111 1.86277 1.41989 -0.239265 -0.878034 -0.933378 2.33804 -0.855709 0.855434 0.894253 -0.137913 -0.354381 0.969085 0.238956 0.828435 0.742968 0.807947 0.123997 -0.592731 0.27195 -0.679128 -0.938378 0.423292 1.45227 0.802332 -1.1716 -0.30253 -0.139927 0.0130924 -0.0881069 -2.37542 -0.614338 -0.226842 -1.67169 -0.230438 -0.681326 -0.217475 0.311791 0.401852 -0.595431 0.997345 -0.729759 -0.558855 -0.78637 0.54535 0.267495 0.936414 -0.601489 -0.840022 -0.0884426 -0.909757 -1.79904 -0.631031 0.0375639 -0.776574 -0.321696 0.297037 0.718802 0.899228 0.558031 0.877651 0.479659 -0.880444 0.277291 0.914457 0.0642728 0.234128 -1.6056 -0.623282 -0.0789514 -0.554929 -2.05626 -0.523423 0.402234 -0.299966 -0.781549 -0.0924929 -0.633045 -0.203994 -0.940703 0.827493 -0.748893 0.790948 0.950255 1.35609 -0.452071 -0.839701 0.998752 0.972655 0.767418 0.234348 -0.0726951 0.71337 0.986629 -1.09698 -0.688162 -0.961241 0.903992 -0.831568 -0.347594 0.263375 4.06121 0.785913 0.273446 -0.66567 -0.000762963 0.775719 0.386426 -2.21453 -0.584399 0.517777 -2.75156 -0.0340587 0.758873 -1.16807 -0.673605 0.828516 0.878472 0.297739 -0.215918 -0.411838 2.83815 0.272755 0.537797 -0.488235 1.19301 -0.670492 0.847438 -1.50887 -0.846669 0.558733 0.868984 0.045381 -1.22804 0.488968 -0.33089 -1.31311 -1.61938 -0.0643635 0.0821253 -1.87812 0.920666 -0.471541 -0.495071 0.124592 -0.55208 -0.986541 -1.51386 -0.846461 0.621326 -0.328776 0.514725 1.11373 2.78446 1.15305 0.391905 1.63085 0.53975 1.08666 0.184851 -1.52752 0.794472 -0.19799 -0.816309 -0.0188099 0.876034 -0.0146385 -0.0633869 -0.241279 3.24794 0.786513 -0.576098 -0.549333 -0.519944 -0.295083 0.236091 0.134002 -0.666831 -0.353221 -0.942167 0.522416 0.859011 0.44391 -0.662038 -0.182149 0.554002 0.330485 0.95587 0.772637 -1 0.080813 -0.27546 -3.44711 -0.700732 -0.449193 0.807048 -1.29915 0.335689 -0.896664 -0.410269 -0.0645455 0.190344 -0.790704 -0.234535 0.996155 -0.00350963 -0.197516 -0.0265964 -0.0709861 -0.396252 -0.0983143 -1.00511 0.152318 0.558855 -0.0386975 0.610858 -0.951858 0.895535 0.452712 0.298288 0.888333 -0.320383 0.253214 -0.185736 0.517167 -0.869578 -0.776299 0.166845 0.570263 -0.141728 0.163458 0.63414 0.731956 0.378277 -0.502426 -0.134404 1.85294 -1.06739 0.843593 -0.756859 -0.642109 0.30134 -0.903775 -0.508866 -0.704031 0.0761437 -0.715842 -0.831721 -0.0728163 1.15549 -0.856435 -0.164174 0.905759 -0.767296 -0.0654609 0.847133 1.1771 0.334635 -1.02711 0.139409 0.93524 0.772179 -0.902829 0.473067 -0.0744041 -0.500381 0.460158 0.565082 -0.930601 0.0314036 -0.248761 0.389142 -0.6485 0.694646 0.618641 0.44931 0.156529 -0.354625 0.468612 2.35238 -1.33517 -0.571829 -0.364505 0.706745 0.491896 0.0405858 0.406262 -0.656545 0.434018 -0.747984 0.0410474 0.885128 0.545976 0.69576 0.615986 -0.761925 0.0999786 0.78573 1.47524 -0.86401 1.64642 0.706247 -0.492996 -0.235603 -0.814434 -1.12183 -0.409223 0.697556 -0.344432 -1.24433 0.736839 0.604237 -0.00592059 1.42532 0.663961 -0.830592 0.610736 -0.030549 -0.428287 -0.314679 1.39467 -0.486251 -0.479368 0.340007 0.863826 0.528397 -0.266823 -0.225531 0.156083 0.980773 -0.304056 -0.408704 0.0617113 -0.438759 2.00553 0.118412 0.0798245 -0.0981475 0.340431 -0.596139 -0.790118 0.31782 -0.882107 -0.996002 -0.704733 0.0467014 -0.252876 0.53264 -0.785272 -0.853694 1.29992 0.847743 -0.385388 0.498825 0.179131 -0.715201 0.419874 0.426679 0.884321 0.43379 0.41437 -0.974177 -0.875274 -0.752592 -0.215369 -0.121036 -0.544572 0.900113 0.68041 0.634999 0.209876 -0.953795 1.24662 -0.3184 0.384416 1.31096 1.17809 -0.90408 -0.397046 -0.771216 -0.754628 0.310099 -2.14085 -0.0116581 -0.843867 -0.0476394 -1.98237 -0.250313 0.829313 0.683664 -0.443129 1.82459 0.234413 0.0476089 0.402692 0.60387 -0.962462 0.987121 -0.451003 -3.41184 -0.45027 0.325044 -0.469863 0.763146 0.258339 -0.0672018 1.72127 -0.193104 -1.14754 0.399121 -1.01137 0.410896 0.590167 -1.84321 -0.125706 -0.965604 -0.96643 -0.762017 -0.920157 -0.962249 0.198293 0.0410169 0.402568 -0.925535 -0.421767 0.301889 0.92349 -0.375622 0.342296 0.0493484 -0.3708 0.746117 -0.889004 -0.000152593 -0.815302 -0.269265 0.15418 -0.991943 -0.156621 0.286355 -0.482894 -0.805243 0.982452 -1.92406 0.023896 -0.696402 0.730011 -0.127598 1.73278 -0.494419 -0.362285 0.339763 0.580881 0.0654177 0.645132 0.761246 -0.261452 -1.7727 0.542209 0.26249 0.209052 1.3889 0.858364 -0.182684 -0.468888 0.88815 -0.251534 -0.611957 -1.80169 0.771906 -1.41261 0.990295 0.838791 0.768609 0.0239875 1.69076 0.29017 -0.90997 1.38874 -0.00595111 -1.9549 -0.138819 -0.952147 -1.48975 -0.118503 0.0321665 -0.566057 0.314402 -0.277291 0.164922 0.69274 -0.313174 0.375665 0.353984 1.3889 -0.207801 -2.20395 0.790979 -0.124546 -0.202643 1.89286 -0.851273 -0.622286 -0.99585 -0.143766 3.00706 0.649739 -0.683127 -0.625752 1.1952 -0.740959 -0.03296 0.783659 -0.0868862 -0.916392 -1.60453 -0.933164 4.14607 0.694482 -0.644124 -0.949705 1.62398 1.09694 0.130558 -0.92993 -1.48329 -0.190649 -2.34312 0.819361 0.262337 0.932127 -0.368818 0.0393078 0.978515 0.730347 0.988586 0.949339 -0.31254 0.180517 0.626867 0.713004 -0.803369 0.358257 0.258309 -0.515549 -0.211202 -0.101077 0.108084 -1.01932 0.595965 -0.724025 -0.220008 -0.825496 -0.669118 0.982269 -0.910428 0.854122 0.871334 -0.384564 0.751305 0.517091 -0.416913 0.106758 0.00344859 0.373272 -0.168812 0.755973 0.396771 0.606983 1.76134 0.0473342 0.119388 0.650724 -0.890469 1.22005 -0.763359 1.52177 -0.549913 0.174199 -0.59331 0.410566 2.1338 0.431593 -0.735221 0.389874 0.916899 -0.24167 0.00344859 -0.729881 0.809079 -0.440364 0.276681 -1.8406 -0.388157 -0.824763 -0.220435 0.894804 0.997894 0.162847 0.722953 -0.714194 2.13868 0.72457 1.47039 -0.205015 0.0142216 -0.784265 0.30079 -0.674154 -0.829981 0.206405 -0.358928 -0.482365 -1.48178 0.626179 -0.280298 0.367412 -0.0740989 0.20967 -0.0568255 0.769002 -0.385876 1.80481 -0.937558 0.694861 0.57236 0.720569 0.666616 0.875118 -0.51358 -0.846248 -0.839198 0.620266 -0.104831 0.130253 -0.945067 -2.2557 0.102451 -0.518693 0.667257 2.60274 0.29191 0.545946 -0.213019 -0.662374 0.994393 0.466872 -1.39443 1.83443 0.501175 2.11118 0.636211 0.93054 0.526627 -0.90466 0.18067 2.02452 -0.229316 0.70043 0.78283 -0.661372 0.494186 -0.975127 -1.20098 0.0802332 -0.620685 -0.616321 0.306253 0.711936 -0.0997345 -0.224525 -3.60628 -0.543779 0.837947 -0.623035 0.178411 0.436111 -0.379866 -0.892334 -0.330454 0.861812 1.59704 -0.498342 1.1576 0.387005 0.160741 -0.546397 -0.205329 -0.513688 0.215817 0.456771 0.861162 1.78515 -0.89819 -0.344833 0.596789 0.587411 -0.0348562 -0.947202 1.839 -0.779994 -0.707907 0.533097 -0.836787 -0.0474563 -0.341044 -0.130406 -0.119147 0.594979 1.90204 0.0629009 -0.998665 0.86462 0.44668 1.17296 -1.48912 -0.82179 -0.698752 0.70966 -0.39964 0.999755 -0.987671 0.550707 -1.32241 0.262551 1.01615 -0.8295 0.0148625 0.366467 0.706046 -0.0661031 0.562883 0.925217 0.974914 -1.045 -2.30594 -0.502093 -0.845851 -0.207068 0.660573 0.820978 1.03888 0.0521588 -0.406873 -0.0307934 0.747052 0.503472 0.418348 0.598562 0.125767 2.95852 -0.158666 -0.880002 0.254496 -0.676351 2.84347 0.868252 0.765282 -0.0217599 2.90881 -0.912015 -0.143773 0.345103 -0.05356 0.42085 1.27369 0.739921 0.376263 0.944059 -0.766015 -0.00332652 -0.216987 0.104427 0.681509 0.838771 0.955046 -0.89819 0.44438 -0.410474 -1.80447 2.88851 0.303323 -0.873653 0.39253 -0.719075 -0.427046 0.869198 1.42621 0.924131 -0.736076 0.272835 -0.058387 -0.6086 0.543077 0.0311663 -0.418894 -0.653236 -0.491318 -0.816212 0.127964 0.568287 -0.258858 0.0320139 0.0830103 -0.963469 -0.588824 0.590474 -0.974995 0.000422044 -0.0207941 -0.671896 -0.249184 0.0119327 0.482803 0.348028 -0.882116 -0.240761 0.582931 -0.0111698 1.20004 -0.298689 -0.756005 -0.396832 -0.627613 2.62414 -0.727927 -0.416437 -0.819963 0.792775 0.111484 -0.491165 -0.707114 0.0854517 1.97353 -0.542619 0.134587 -1.01027 0.192389 0.8081 -0.431333 0.937681 -0.359935 0.198859 0.0545061 1.99666 -0.929126 -0.802454 -1.16948 0.831416 -0.256754 0.649831 -0.254341 -0.732964 0.389142 0.493149 -0.627216 0.350197 -0.630251 1.18027 0.171572 -1.58373 -1.07441 0.773949 0.703757 -0.239969 0.768761 -0.656789 0.0168157 -0.153966 -0.42267 0.0154035 -0.91937 -0.672476 0.907712 0.939085 0.0708804 -0.0915582 -0.0967437 -0.0556436 -0.989563 -0.913175 -1.5872 0.0217902 0.20893 0.71937 0.256752 0.381054 -0.982507 0.0330344 -0.434858 0.765709 -0.591263 0.139291 0.621446 -0.931486 -2.00933 0.859138 -0.0355541 0.0226142 0.831874 -0.208411 -0.159307 0.74534 -0.597308 0.181249 -0.102276 0.812128 -2.01544 -1.06239 -1.18865 0.124943 0.817663 -0.759209 -0.664051 0.561874 -3.39355 -0.718305 -0.82107 0.986511 -1.63881 0.229451 0.175618 1.14646 -1.79896 -0.214301 -0.203314 -0.20304 -1.00791 0.315958 -0.680776 1.15199 -1.03792 0.758568 -0.35313 -1.96399 -0.975829 0.971343 -0.675314 0.723816 0.0451369 0.502853 0.344729 0.503006 -0.774926 0.652547 0.536576 -0.64516 -0.263518 -0.703879 -0.403402 -0.122881 -0.889401 -0.150521 -0.703116 -1.04794 0.897122 0.595494 -0.318735 -0.466057 -0.691702 0.737259 -0.858974 -0.612513 0.24344 -0.727602 0.204757 -0.55889 -0.838374 -0.533341 0.752525 -0.0342026 -0.904559 0.273019 -0.826716 0.496841 -1.43514 -0.269595 0.672414 1.32237 0.256691 0.334178 -0.237159 -0.338511 0.459731 -0.42903 0.245552 0.860153 -0.955019 -0.828433 0.240211 -0.414628 0.200931 -0.849574 -0.944182 0.317656 -0.730583 -0.253945 -0.0719016 0.914701 0.789056 0.454207 1.07636 0.963683 -0.513749 -0.569341 0.240613 0.109775 -0.0343944 -0.991882 -0.485458 -0.558247 -0.654411 0.238124 -0.820551 -0.829249 0.038728 -0.478391 -0.65453 -0.970946 -1.81675 0.61037 0.751488 -0.946174 -1.26345 -0.125553 -0.024692 -0.314798 -0.569394 1.88337 0.999725 -0.909237 -0.581424 -0.188755 0.130711 0.537461 0.771172 -0.238075 0.318949 -0.439131 0.270601 0.18714 0.0195092 0.540034 0.425793 2.30709 0.966338 0.269204 0.289346 0.0617997 -0.370373 -0.664446 -0.205573 -0.425867 -0.38013 -0.605135 -0.49456 0.836879 0.891385 0.970794 0.774743 0.378812 1.27592 0.386447 0.941496 -0.623148 0.593738 0.900449 -0.751305 -0.561968 -0.367205 0.645738 0.318491 0.0623493 -1.15003 0.594628 0.102258 -0.485045 -0.943509 -1.34729 1.0006 0.977691 0.0493179 0.0991241 -0.506392 0.788293 0.712088 0.858394 -0.66924 0.384136 0.895016 0.0996429 0.738731 -1.02966 0.501358 -1.08865 0.125982 0.311899 -0.559577 -0.794275 -0.684806 -0.843379 -0.52682 -0.0273751 0.994997 0.459151 0.915525 0.536912 0.459425 -0.338694 -0.376293 -0.510147 0.667165 0.48489 -1.32061 -0.683827 -0.150761 0.495344 0.517777 0.992218 0.957976 0.663259 0.514084 -0.270701 0.380688 0.707999 0.757439 -0.361223 -1.54687 0.70141 -0.0187078 0.438485 0.92468 0.755911 0.645987 0.706538 0.664052 -0.180029 -0.068453 0.752007 0.138364 -0.609241 0.23484 0.700369 0.74218 -0.397567 -0.482803 0.206641 -0.90051 0.873898 -0.762291 0.597888 -0.52617 1.21363 0.927 -2.16803 0.353229 -0.676404 -0.879941 -0.282968 0.0189215 0.407697 -0.436384 -0.167364 -0.845943 -0.652028 0.956328 -0.784314 -0.0108341 -2.2314 -0.866056 -0.665235 0.926145 -0.407483 -0.0156865 -0.598332 0.568407 0.77227 -0.385205 -0.884412 0.0964995 -1.22146 0.778771 0.0187501 0.952226 -0.0137028 0.598334 -0.547624 -0.600696 -0.557909 -0.325907 0.635151 -0.845027 -0.360302 2.7631 0.168584 -0.664825 0.433699 0.267006 0.836299 -0.525407 -1.82885 0.430494 -0.597308 0.216254 0.337469 -1.52321 0.033021 1.59564 -0.554125 0.911039 -0.101506 -0.106082 0.759575 -0.658223 -0.766643 0.812006 -0.73864 -0.926725 -0.392849 0.425825 0.265267 0.531999 -0.807581 -0.592975 0.924833 0.256966 0.924375 -0.288583 0.426799 0.120102 0.680013 -0.790477 -0.929472 0.577166 -0.684805 -0.701621 0.800104 1.55655 -0.636067 -0.117771 -0.883318 -0.430372 0.0723169 1.07406 -0.903073 0.677938 -0.00197761 -0.42131 0.938235 0.0340088 0.995819 3.00043 -0.747989 -0.120579 -0.192206 -0.220333 0.528306 0.397012 -0.118992 0.291041 0.339702 -0.318888 -0.32898 0.563136 0.57159 -0.123722 -1.12554 0.376659 -1.06344 -1.23751 0.512223 -0.821162 0.529367 0.529344 0.0568781 -0.679842 -0.143529 1.50192 -0.953582 -0.348735 0.687307 0.0573443 0.118473 -0.145543 -0.69808 -1.37396 -2.13158 -0.0407431 0.818545 -0.519456 0.239229 0.887936 -0.748864 0.18244 0.622233 1.11981 1.40706 -0.236825 -2.98416 -0.892879 0.108461 0.493819 0.196692 0.645048 0.103925 1.58055 0.367862 0.511826 -0.960802 2.68513 0.262551 1.32841 -0.485336 0.619404 0.585955 0.44205 -0.747093 -0.0440687 0.0511795 -0.262248 -0.498215 2.02974 0.126194 0.686758 -0.0673544 3.4016 0.545366 -0.50795 0.494576 0.412702 -0.208838 0.616718 0.465041 0.126743 0.0667348 0.114292 -0.780694 0.957457 -0.783135 -0.620655 -1.03828 2.54357 0.390194 -0.447188 0.204733 -0.687735 -0.589831 -0.421583 -0.426984 -0.202734 0.446303 -0.400281 0.683981 -0.800745 -0.608844 -0.976104 0.320523 0.19306 -0.0543229 0.727304 -0.0912199 -0.41966 -0.701498 1.11692 0.844752 0.411084 -0.123081 0.79754 0.212521 -0.205267 -0.0133439 -0.711081 -0.927346 0.430891 0.325755 -1.11172 -0.91934 0.626759 -0.0302133 -1.00784 0.217033 0.882199 -0.377148 -0.913606 0.38666 0.915372 -0.442091 0.411181 0.245949 0.818751 0.623218 -0.905789 0.692343 0.0734886 -0.115786 -0.310801 -0.605243 -1.33392 -0.213154 1.01005 0.503494 -0.501694 0.619312 -0.59563 -0.154044 -0.380688 0.591784 1.42088 0.0325022 0.287682 0.732929 -0.955473 -0.874588 -0.71633 -0.427557 0.0282317 0.130912 -0.608966 -0.422712 -0.0979645 -0.232838 -0.814081 -0.6292 0.529649 0.16773 0.187249 -0.977118 0.699301 0.126835 0.903666 4.70296 0.412793 -0.19367 0.364564 -0.180879 0.758014 0.777551 0.670827 -0.39552 -0.390261 0.747795 0.370302 -1.09474 0.705802 0.318292 -1.0084 -0.862026 0.707297 -0.319651 0.88345 0.340365 0.652333 -0.278207 0.923948 0.528302 0.541795 -0.850887 0.0576188 -0.0215155 0.844605 0.813959 0.279581 0.998505 0.827509 0.410291 2.90827 -0.622028 0.973937 0.215979 -0.199091 -0.00750755 0.92001 -0.926946 -0.731112 -0.583026 -0.153014 -1.97278 0.38554 -0.497757 -0.550351 0.980171 0.364971 0.118961 -0.40791 0.0379345 0.460768 -0.150903 -0.0628071 1.73209 0.69451 0.37608 0.927036 0.79696 0.00631262 0.565661 -0.124302 -0.328166 0.981903 -0.25895 0.635232 -0.428297 -0.870754 -0.606925 -1.74177 0.457367 0.349237 0.99939 -0.952605 -0.0975568 1.83535 -0.18067 0.800265 -1.05524 0.605121 -0.255868 -0.882839 0.398175 -1.28375 -0.359325 0.404582 -1.12568 0.37434 1.19708 -0.942595 -0.0111393 -0.296426 1.39705 -0.341105 0.778 1.43234 1.52507 0.930434 -0.502304 0.492965 -0.48735 -0.196977 0.517092 0.977447 -0.690143 -1.51353 0.807879 -0.087957 -1.63527 -0.228889 -0.19922 0.678549 -0.254522 -0.38122 0.499649 0.472375 -0.532517 0.368175 0.513565 -0.718615 0.994354 -0.026368 -0.0932035 -0.645009 -0.615497 -1.87497 -0.911039 0.282907 -0.903707 -0.632405 0.284097 0.759148 0.916678 0.280343 0.0744346 0.609821 -0.0800195 -0.394086 0.570391 -0.563847 1.25063 0.965941 -0.15247 -0.385267 0.555545 -0.223835 -0.80536 1.11088 0.193884 0.656331 -0.734672 -1.47354 -0.396039 -0.419355 -0.555769 0.0356041 -0.378212 -0.700557 2.24708 -0.74337 0.187118 -1.50419 -0.697439 -0.158238 0.928129 -0.85403 0.0849196 -0.19709 1.11975 0.396568 0.85226 0.118198 0.370708 -0.830683 -0.639524 -0.468812 0.126286 -1.21392 -0.19541 -0.516934 0.436354 -0.131565 -0.55016 0.128819 -1.96803 0.225471 -1.09968 0.738202 1.49803 0.33195 -0.54677 -0.20603 -0.822069 -0.921398 -0.946226 -0.0853298 0.462466 0.821863 0.759457 3.07622 -0.547476 0.386517 0.540416 -0.634999 -1.02747 -0.72005 -0.0314035 0.0343098 0.912259 -0.493515 0.220801 -0.401868 0.281502 -0.852315 -0.677633 0.393262 0.161603 -0.898857 0.565783 -0.593582 -0.379343 0.338979 -0.312754 0.0509049 -0.225654 -0.758202 -0.507157 0.821833 0.509018 -0.258339 1.81632 0.124424 -0.620594 -0.985504 0.628468 -0.525948 -0.269784 -0.0870998 2.07681 -0.683708 -0.680837 -1.38524 0.385049 -0.442213 0.125923 0.496963 -0.505783 -0.116092 3.21251 -0.796808 -0.993347 -1.01661 0.0810877 1.00742 -0.446547 -1.73194 -0.587782 -0.404553 -0.511429 0.172308 -0.88522 0.723655 0.841281 -0.693442 0.266213 0.324942 0.817682 0.728075 3.71006 0.487045 0.319132 0.107371 -0.290719 -0.370671 -0.173922 -0.0665086 2.75167 0.269295 0.830256 0.291813 0.0833022 0.784124 -0.131661 -0.218516 -0.824396 -0.70098 -0.767235 -0.481674 0.131532 -1.18579 -0.798953 -0.0257037 0.990234 0.287576 -0.683595 0.884823 0.855892 -0.735038 -0.352799 0.176611 -0.620498 -0.181799 0.00451398 0.958678 0.492569 0.103671 -0.680846 -1.76386 0.394482 0.928319 1.24826 0.0282601 -0.0464797 -0.969817 0.23123 -0.61211 1.38291 0.996277 0.313211 0.582751 -0.567736 0.874081 0.891892 -1.22761 -0.628102 -0.817438 2.13297 0.561876 -0.0913724 0.355562 0.631384 -0.98349 -0.352245 -0.437056 0.793725 0.986762 0.629512 0.490084 -0.749325 0.698852 0.0751671 0.910855 0.432325 -0.573626 1.67494 -0.406781 3.55839 0.0639346 0.552876 0.633686 -0.178555 1.51881 0.180639 0.923185 0.31026 0.0757164 -0.528153 0.967437 -0.928343 0.921873 -0.477737 -0.164128 0.750908 -0.343577 0.148869 -0.11332 -0.318674 0.0468858 -0.25013 0.427015 0.0826488 -0.209296 0.234565 -0.77749 0.149785 -0.0222785 0.80052 -0.900784 0.486831 0.0268258 0.298196 0.870907 0.712842 -0.864162 -0.795892 0.620202 0.338298 -0.430555 -0.594018 -0.740196 -0.790772 1.32308 0.924923 -0.707651 0.706687 -0.703482 -0.10886 -0.10715 0.678945 0.914939 -0.498611 -1.19161 -0.634949 -0.0790124 0.0372213 -0.718467 0.375286 -0.359416 -0.739513 0.14536 0.0773389 0.858455 0.840667 -0.026543 -0.317484 -0.464095 -0.21363 0.971435 -0.868374 0.942625 0.67098 1.03927 -0.596942 0.121123 -1.51197 0.425031 -0.005734 -0.458846 -0.792474 0.209544 0.999191 0.645344 -0.0166936 -0.456058 -0.924986 1.62915 0.288308 0.52842 -0.388873 -1.19069 -0.97116 0.0696432 0.736137 -0.0725642 -0.857295 1.32292 -0.187078 -0.151158 -0.167577 0.4644 -0.341868 -0.591113 0.495855 -1.11575 -0.46806 0.316397 -0.000366222 -0.861243 -0.468959 -0.931155 0.996582 -0.31116 -0.540208 -0.676024 0.900723 -1.17564 -0.124363 0.311223 0.0430311 -0.67333 0.100467 0.258217 0.0159527 0.609419 0.103763 -0.94171 -0.0591756 0.26307 -0.0446181 -0.233924 -0.376446 0.436658 -0.202677 0.556902 -0.130314 -0.253273 -1.5241 -0.900178 1.32218 -0.912595 0.626408 -0.605426 -0.8721 1.29557 1.42219 0.421888 -0.635304 0.38963 -0.987182 -0.884508 -0.320078 -0.832362 0.614154 -0.0364696 -0.517143 -0.308786 -0.0624409 -0.321238 0.766196 -0.648824 -0.229133 -0.874172 0.615947 0.395611 -0.382634 0.739986 -0.239848 2.15704 -0.0254863 -0.845764 -0.965117 -0.273751 0.697287 -0.016541 0.547624 0.687826 -1.6307 0.933592 -1.55645 -0.347049 -1.19751 -0.835932 0.51503 0.599231 0.92758 0.111057 1.59513 0.00814844 -0.0694296 0.0187078 -0.040742 0.641987 0.523405 -0.951381 0.634999 -0.15943 0.68984 0.176666 -1.34162 0.7575 0.560137 0.32371 0.16483 -0.0531091 0.956725 0.430677 -0.269509 -0.0287179 0.100742 0.770409 -1.89938 0.120151 -1.11374 -0.641743 -0.236457 -1.86603 0.659566 -1.52752 -0.99002 -0.251411 -0.228937 -0.115879 0.0946684 -0.222999 0.62054 -0.274453 -0.535046 0.278756 0.100302 -0.255684 -0.608692 -0.363475 0.155553 -0.810419 -0.486312 -0.573778 0.219062 -0.662648 -0.531571 -1.31316 -0.0963775 1.28851 0.355296 0.477615 1.50134 0.14774 0.995636 -0.633932 -0.992737 0.578082 0.413853 -0.0510575 -0.0788086 0.972267 -0.0802026 -0.788995 -0.223155 -0.655008 0.783316 -0.777707 0.963988 1.85248 -1.1146 0.6957 -0.345225 -0.52617 -0.00427259 -0.973693 0.181188 0.516678 0.545976 -0.88876 -1.37429 0.476529 1.78284 0.0884732 2.66754 -0.833277 -0.583911 0.981729 0.582324 -0.742821 0.696351 -0.754814 2.75864 -2.78236 -0.293374 0.112812 -0.952788 0.819575 -0.563768 -0.680288 -0.0425428 -0.521104 0.457747 1.41069 -1.33343 0.17905 0.0133773 -0.805506 -0.879273 -0.50264 0.808045 -0.631916 0.783202 -0.955933 -1.37956 0.0229482 0.595889 -1.28704 -0.445082 0.674468 -0.251228 1.88562 -0.259684 0.386151 0.992405 -0.213111 1.05976 -0.508774 0.238258 -0.5965 0.410451 -0.255348 0.497726 1.80598 -0.48619 -0.252174 0.936854 -0.157815 -0.905087 0.967464 -0.192694 -0.184423 0.512253 0.574148 -0.059328 0.395856 0.0048319 -0.824915 0.343425 0.726188 -0.340587 0.270363 0.393597 -0.980316 0.566546 0.899197 0.705588 -0.723472 0.855678 -0.829311 -0.175902 0.791528 -0.0143537 0.844722 0.346693 -0.191168 -0.601917 0.620563 0.776299 0.798608 -0.355846 -0.517289 -0.383125 -0.253792 -0.481726 0.881771 -0.47203 0.459831 0.876095 0.0215155 0.0323496 -0.704822 -0.0240791 0.371838 0.945957 -0.569319 0.580857 -0.133427 0.88724 -0.0939055 0.876567 -0.828455 -0.127964 2.99924 0.0818201 -0.938597 0.387097 -0.524861 0.0515058 0.405286 0.00347911 -0.910123 -0.00500504 0.40141 -0.00256597 -0.500153 0.545549 0.173986 0.192572 0.494121 0.745994 0.70166 -0.17246 -0.473476 0.840632 0.717944 0.637459 0.619647 0.793451 0.666005 -0.0202398 0.881497 -0.863267 0.560289 -0.127563 0.756065 -0.517869 1.32402 0.462874 -0.743492 -0.813006 0.131565 0.362084 0.764323 1.10508 -0.189062 0.740165 -0.306009 -0.51146 -0.0862453 -0.741447 -0.991882 0.717093 -0.227485 -0.208213 -0.996246 -0.895413 0.262428 2.01147 -0.827235 -0.791406 -0.968488 -1.34445 -0.335064 -0.935911 -0.0540178 -0.991211 -0.992439 0.258827 -0.441045 -0.448855 0.463546 -0.430317 0.679847 -0.821741 0.925016 -0.294565 0.0237739 -0.895812 0.767388 -0.466994 0.0831019 -1.02201 -0.925962 -0.269204 -0.20539 0.122684 -0.047437 0.793512 -0.839039 0.727042 -0.462691 -0.487594 -0.15433 0.0722068 -0.808252 0.143162 0.291995 0.977842 -0.877132 0.161224 -0.596515 -0.431715 0.494909 -2.4997 0.28783 0.852412 0.435346 -0.416493 0.187109 -0.635792 -0.253182 0.834529 0.577807 -0.662008 0.38844 -0.0734886 0.0365001 0.209754 -0.848689 0.482315 1.78257 -0.369976 0.893887 0.628773 -0.46769 0.365703 -0.160197 -0.00732778 0.969329 -0.874896 -1.25257 0.663393 0.885765 0.0392163 -0.181433 -0.528063 -0.426557 -0.00943456 0.910589 0.509661 -0.341685 0.0204232 -0.657155 -0.886074 -0.310034 0.989105 -0.343181 -0.231488 -0.481158 2.32137 0.162175 0.174535 -0.636036 -0.965543 -0.0377819 0.126652 -3.02252 0.734637 0.64629 -0.282388 0.108402 -0.561235 -0.867059 -0.799524 0.224281 -0.288244 -0.535394 -0.976909 -0.719443 -0.168955 -0.278054 0.590105 0.408155 -1.90391 0.815914 -0.835231 -0.877477 0.172308 -0.669851 -0.293405 1.00292 -1.8237 0.539384 -0.0244758 -0.837794 0.888424 -1.60517 -0.545976 0.846767 -0.466976 -0.21601 -0.244731 -0.2425 1.42086 -0.151815 0.362316 -0.7228 0.164556 0.564714 -0.387127 0.737939 -3.43293 -0.719549 0.8464 -0.639149 0.525925 -0.248617 -1.48882 -0.205756 0.410413 -0.303415 0.480972 0.124863 -0.101667 -0.117283 -0.102075 -0.718584 -0.236661 -0.619832 -1.59506 -0.510514 0.652733 0.144932 -0.427198 -0.0917386 0.454665 0.690878 0.387677 -0.807182 -0.526144 0.666616 0.288064 -0.458571 -0.743309 0.229194 0.419572 -0.701364 0.953337 0.0853048 -0.952422 -0.46791 0.427594 0.500473 -0.120762 0.70098 2.91872 0.614917 -0.401948 1.04127 -0.950745 -0.892178 -0.591784 -0.906438 -0.634666 -0.385632 0.928739 -0.523026 -0.747979 -0.514847 0.928159 -0.996083 -0.0814237 0.0192877 -0.226112 -0.0800806 0.371919 1.3167 0.13126 0.297744 -0.68746 0.457723 0.618366 -0.466414 -0.0192228 0.579882 0.802484 -0.479507 -1.6058 -0.237495 -0.455641 -1.05877 -0.151281 1.34184 -0.697576 -0.264138 1.46691 -1.02801 0.907926 -0.578753 0.237495 0.895963 -0.82223 0.657582 0.57075 -0.815516 -0.92993 -0.0294562 0.250923 -0.9588 0.580004 0.540544 -1.70353 -1.03305 0.562395 -0.390881 -1.83027 0.40022 -0.559679 -0.668569 -0.937438 0.482437 0.352245 -0.362527 0.198563 1.30786 -0.472335 -0.380814 -0.535838 -0.649861 -0.778619 0.471023 -1.77186 -0.706503 -0.9278 0.541917 -0.950926 -1.53491 0.494919 -0.796006 -0.89639 -0.0905789 0.768944 0.0935061 -0.89993 -0.923978 0.0328879 -1.61061 0.273804 -0.858089 0.765923 -1.55824 0.159327 -1.31532 0.616529 -0.100148 0.152318 -0.663106 0.321299 1.90407 -0.678396 0.684307 -0.556988 2.17364 -0.765893 0.149022 1.11892 1.18383 -0.897763 0.804804 0.26072 -0.405011 0.47438 0.647752 -0.20481 0.647053 -0.801202 -0.864925 0.0405202 0.946593 -0.985626 0.100065 0.717954 0.982177 -0.111759 0.865139 0.428597 0.139012 0.23613 -0.0394299 -0.289732 -0.0485855 1.03702 -0.164464 0.258766 -1.28847 -0.0807215 0.224951 0.812057 -0.596088 -0.291147 0.17542 -0.550647 0.879366 -0.152715 0.516434 -0.48262 0.860319 -0.578204 0.622792 -1.71602 0.376843 0.191717 0.392092 0.842372 -0.200476 0.0380862 0.807215 -0.325364 1.75319 0.493423 0.51503 0.0946372 -0.586841 0.2566 -0.617145 -1.23873 -0.935149 0.194922 0.95056 0.714682 -0.4373 0.0482498 -0.11417 -0.634968 -0.411908 -0.0198375 -1.01793 -0.992065 0.785272 0.674673 0.59798 0.599061 0.364224 0.0254829 0.831935 0.855525 -0.619556 -0.229118 0.824213 -0.0677511 -0.367834 -0.359569 0.692984 0.463943 -0.410514 -0.369976 0.755882 -0.518693 0.0883383 0.69927 -0.73751 -1.1531 -0.582906 1.04799 0.949095 0.31962 0.985443 -0.429487 0.69396 -0.243477 0.9935 0.46614 -0.269082 3.38402 -0.9903 -2.6488 -0.848125 0.730003 -0.520402 -0.0942112 0.520402 -1.48456 -0.425245 -0.910337 -0.375622 0.0768818 -0.593921 -0.533158 0.650929 0.974059 -0.734794 0.638785 -0.877538 0.0058846 0.62486 0.628762 0.642323 -0.989044 -0.0101932 -0.256661 -0.794935 -0.363585 1.61208 -0.250099 0.435224 -0.403014 0.42282 0.940295 -2.18201 0.732843 -0.0168203 0.80343 0.594348 -0.432727 -0.257655 -0.873959 -0.678122 -0.742241 0.795343 0.940733 0.411145 0.992615 -0.447981 -0.0556658 -0.669158 0.636109 -1.58734 -0.922361 0.155044 0.0290521 4.7108 -0.682119 -0.421491 -0.171117 -1.24772 0.554186 -0.0489099 -0.918424 -0.118058 -0.37431 -0.64745 0.684408 0.641102 0.911954 0.64213 -0.727934 0.790643 0.300948 -0.1077 0.998749 -0.675069 -0.602618 -0.414991 0.390322 0.145573 -0.208411 -0.880093 -3.28529 -0.5444 -0.988187 0.752709 -0.994475 -0.463546 0.0206672 -0.852914 -1.49372 0.729392 0.676077 -0.0425123 0.0422681 0.187017 -0.721793 0.678457 -0.147801 0.696677 -1.30855 -0.671102 -0.341692 0.924009 -0.947142 0.177252 -0.900449 0.39555 0.419994 0.909909 -0.194727 -0.352347 0.171034 0.891531 0.495926 0.538468 0.593768 -0.478588 0.192358 -0.754326 0.0456252 -0.431623 -2.01052 -0.468368 0.449267 0.343724 -0.768011 -0.258003 -0.453108 -0.411786 -1.60821 0.640553 -0.295811 0.871853 0.0145018 0.809229 2.91363 -0.0426954 -2.41995 -0.764245 -0.911374 -2.02015 0.772393 0.347941 -0.638121 0.679678 0.416761 -0.41905 0.0757469 -1.54157 -0.323771 0.311408 0.583728 -0.0742515 0.0349742 -0.0870083 -0.0490906 0.795939 0.515885 0.616626 0.901273 -2.35626 0.776299 -0.287104 -0.993561 -0.84119 0.30027 -0.155004 -0.351421 -0.911435 -1.6845 0.319864 0.914785 -0.39201 -0.551561 -0.908017 0.367779 0.489761 0.919706 0.260964 0.599159 -0.666097 0.620655 0.662099 -0.272823 0.0668293 0.405774 -0.269384 0.621021 0.0828883 0.37341 1.83733 0.637989 0.632555 0.984161 0.716483 -0.474441 0.22718 0.303484 -0.961094 0.648915 -0.896176 2.40402 -1.19257 -0.0323455 0.0598773 -0.52797 -2.51268 1.19218 0.933012 -0.737541 -0.315073 0.391308 0.772423 0.6227 0.319681 0.824763 0.0301218 0.052589 0.0198478 -1.40056 -0.00274667 -2.73987 0.760918 2.70393 0.858415 -0.312021 -0.231727 0.233144 -0.378948 -0.532474 -1.42167 -0.864864 -0.161524 0.682028 -0.232673 -0.345775 0.81167 -0.448561 -0.540239 -0.121769 -0.0131032 -0.727292 -0.938322 -0.234782 -0.0788903 -1.71188 0.663442 -0.0855436 0.525681 -0.167823 1.13708 0.564287 0.52789 0.770312 1.03568 1.0388 3.75976 -0.944212 -1.46205 -0.283804 -0.339772 0.159577 -0.950316 1.64201 -1.23261 -0.00747703 -0.336261 0.350293 0.789605 0.895169 -0.0787689 -0.702231 0.401349 0.861327 2.14577 -0.0103153 -2.21235 0.671224 0.709189 0.632527 -0.46893 0.243568 -0.608631 0.431806 0.00201422 0.0441908 -0.292337 -0.44377 0.247817 -0.864198 -0.202582 -0.926756 0.573962 -0.0684225 -0.823359 0.353639 -1.03641 0.374604 0.575945 0.693398 0.479507 0.233912 0.390728 -0.449904 0.439802 -0.59917 -0.658101 -0.641346 -0.834773 -0.352123 -0.273721 -1.0517 0.184423 0.317392 0.00235187 0.610553 -0.211249 0.418531 -2.38337 -0.303964 0.00970489 -1.60512 0.636219 0.718104 -0.668172 0.402768 0.555101 0.157451 -0.901517 -0.88113 0.151655 -0.662526 0.437757 0.444075 0.687002 1.036 -0.627583 0.552385 0.452894 0.13848 -0.0814539 -1.61284 0.451814 0.342845 -0.942625 -0.9747 -0.84341 0.789605 -0.90698 -1.24506 -0.843809 -0.562639 2.02534 -0.589221 -0.387616 -0.846278 -0.436354 0.579272 -0.359691 -0.564785 -0.205603 -0.755242 0.17984 -0.785699 -0.371553 -0.699576 -0.172155 0.655812 0.429304 -0.885166 -0.25547 1.38401 -0.501175 0.530381 0.847994 0.192236 -0.100803 0.312906 -0.295297 0.117191 -0.649581 -0.939421 0.189947 -0.231727 -0.0290325 -0.719007 -0.717734 -0.011475 0.464888 -1.15375 -0.985025 -0.0990936 0.334422 -0.773583 0.113327 -0.844417 -0.935439 -1.7967 0.588763 0.320285 0.0282368 -0.133641 0.740745 0.94113 0.907193 -1.32216 -0.255776 -0.31019 0.886654 0.48949 0.961821 -0.202376 0.521682 -0.637654 1.28644 -0.80987 0.604144 0.184271 0.208808 -0.0491958 -2.37314 -0.327464 -0.927061 -0.648152 -0.474227 0.889339 -0.314585 0.0191478 0.168388 -0.968078 -1.33162 2.27517 0.798638 -0.413923 0.322922 1.07787 -0.755028 -0.788903 0.0556963 -0.630757 -0.630696 -0.63921 0.959807 0.361583 -0.248299 0.374584 0.92758 0.909391 -0.354625 -0.166357 -0.909665 -0.48088 0.915882 -0.869442 -0.722618 -0.906674 0.0270394 -0.729726 1.35236 0.126209 -0.632911 0.67217 -0.749196 0.890513 -2.28685 0.473739 -0.713309 0.0685446 0.748924 -0.189703 0.938139 0.738273 -0.617623 -0.498703 -0.958659 -0.452576 -0.718406 -4.27791 0.721091 0.323496 -0.490738 -0.984326 -0.984405 -0.847342 -1.87727 -0.0401929 -0.0647908 -0.86285 -0.296915 -0.58504 0.0640266 0.637741 0.16184 0.694767 0.176235 0.428175 -0.718223 -0.71319 -0.502284 0.766624 -0.613208 0.392222 0.71673 0.902127 0.543854 0.0115665 0.352947 -0.588305 -1.58993 -0.812799 0.250252 0.262337 -0.300821 -0.911771 -0.862948 0.436872 -0.478957 -2.09897 0.4532 -0.0239265 0.184057 -0.106311 -1.72321 0.633351 -0.320261 -0.806818 0.0433058 -0.634297 -0.827367 0.0648032 0.42158 -0.554491 0.347636 -0.211493 -0.567499 -0.216683 -0.729423 0.233222 0.939329 -0.525651 0.112113 -0.456008 -0.823023 -0.367086 -0.456066 -1.21806 -0.521806 -0.368317 0.152135 -0.868389 0.452254 0.767266 -0.162236 -0.802545 -0.932402 0.749596 -0.0404578 3.25471 -0.683574 0.92465 -0.221198 1.1974 -0.645924 -0.378482 -0.027905 0.894833 -0.34135 0.300241 -0.639669 0.478671 -0.304727 0.584277 -0.679586 0.440178 0.439312 -0.824588 0.22463 0.855526 -0.251747 -0.0924711 0.198701 -1.10107 -1.26162 0.265267 -0.666738 -0.921858 -0.959319 -0.0551808 1.22788 -0.343216 -0.988983 0.180334 0.0395215 -0.0678667 -1.35724 -0.0802942 -1.40721 -0.630604 -0.193518 0.401868 0.902432 -0.800836 0.235357 -0.638173 0.790551 -1.76126 -0.0253843 -0.656209 0.135577 0.905716 0.466188 0.175199 -0.111911 -0.798425 -0.133259 0.460707 0.627094 0.530229 -0.942932 0.0710724 0.555223 -0.431258 -0.591144 -0.153024 -1.29333 -0.882077 -0.101352 -0.030618 -0.46556 0.0872219 0.649712 -0.433424 0.906125 -0.604836 0.725181 -0.79928 0.74517 -0.902747 0.54912 -0.330699 0.688954 0.158568 0.881467 -0.997467 -0.809383 1.24321 0.187994 0.850032 0.119785 -0.221442 0.300851 3.40072 -0.467421 0.0882595 -0.176217 0.981964 -0.146615 -0.498104 0.190588 0.0186773 -0.934324 -0.381756 -0.277572 -0.0670485 0.10363 -0.631717 -0.411786 0.630329 -0.858299 -0.707412 0.50628 -0.120922 0.281018 -0.851951 -0.329844 -0.448622 -0.140058 -0.591144 0.447157 0.561749 -2.12146 0.276254 -0.49913 -0.452379 -0.227454 -0.268075 -0.931455 0.0862285 0.974761 -0.291221 0.880241 0.529618 0.80343 0.487838 -0.451216 0.995016 0.897966 0.860561 -1.52897 -0.0152769 0.0407727 -0.682485 0.014893 -0.835743 -0.276655 -1.46593 -0.170049 0.750853 0.699087 -0.680034 -0.458388 -0.457872 -2.27854 0.85934 0.502023 0.344523 -0.0605487 -0.79397 0.218469 -0.752468 0.62181 0.615925 0.524033 0.710349 0.966711 0.508218 0.667375 0.360831 0.855764 0.105472 0.492813 -0.956969 0.0583514 -0.634816 0.127476 -0.754709 0.550883 -1.07749 0.398816 -1.35568 0.877668 -0.555956 0.0615352 -0.253555 -0.241188 -0.49794 -0.40968 0.819117 -0.935118 -0.238044 0.376415 0.623768 0.948271 -0.524369 0.624844 0.764428 -0.0133187 -0.984832 -0.0103458 -0.427302 -0.618887 -0.871609 0.325785 -0.697287 0.979461 -0.291148 0.842982 -0.0374767 0.0804468 -0.914365 0.294595 -1.06657 -0.997467 -0.664907 -0.549252 -0.539598 -0.734367 -0.255638 -0.854091 0.581678 0.350657 1.90412 -0.925138 -0.29667 0.152532 -0.145543 0.494491 0.00814844 0.737402 -0.378918 -0.532367 -0.2489 0.799031 -0.127045 -0.0515152 0.269692 -0.784295 -0.150457 0.755211 -0.50961 0.579363 0.739855 0.744517 -0.225397 0.959602 0.659871 -0.695425 -0.709708 -0.394848 0.178939 -0.910565 0.509651 -0.552965 -1.99488 -0.686361 0.442179 0.0985397 -0.99646 -0.152516 0.905052 -0.403241 0.784387 -0.148518 -0.258516 0.855546 1.51744 2.35973 -1.56523 -1.03325 0.258126 -0.425153 0.952359 0.875652 0.496384 0.37814 0.755364 -0.229957 0.691214 -0.525529 -0.470565 0.278756 -0.872463 -0.942779 -0.544688 -0.579733 0.951537 -0.446883 -2.25408 0.824703 0.684652 0.74927 -0.9017 -0.235849 0.74926 -0.669454 0.619556 -0.566898 0.0689718 0.11243 -0.460829 0.297403 -0.512441 0.510878 0.611612 0.0195013 0.83825 0.715262 0.700186 -0.406751 0.133183 0.402478 0.940257 -0.523331 0.296457 0.960204 -0.209239 -1.74753 0.327338 0.562639 -0.0809478 -0.478896 -0.410107 3.39519 0.530156 0.163945 0.325388 0.648091 0.526902 -0.0752751 0.158177 0.297525 -0.288553 0.519272 -0.641265 0.7875 -0.57976 -0.634846 0.410496 -0.36491 -0.582293 -0.393231 -0.0726141 -0.752525 -0.934285 0.27919 -0.949769 -1.02985 0.771098 1.11149 0.413709 -1.35388 0.723777 -0.0423597 -0.860439 -0.597705 -0.629568 0.399213 -1.51942 -0.770928 -0.440703 -0.0291147 -0.241646 -0.0504166 0.243097 0.260353 -1.06406 0.519303 -0.961509 0.794977 1.24271 -0.898221 1.19874 -1.59379 0.223334 -1.04857 -0.44966 -0.701895 -0.0200516 -0.48735 0.686544 -0.0386975 0.597095 2.76971 0.791131 -0.90936 -0.281869 0.30195 0.493027 0.512314 0.202135 0.670604 0.689221 -0.460707 -0.870815 0.888467 -0.0348216 -0.847761 -0.423963 0.472271 -0.195104 0.0904263 0.499247 -0.915494 -0.549022 0.532792 0.267921 -0.774224 0.528947 -0.439344 0.745842 0.935026 -0.882656 -0.348003 -0.500992 0.00100711 -0.468398 -0.765801 -0.591715 -0.992456 0.54091 -0.443945 0.607196 -0.959716 -0.218618 1.0397 -0.0239875 -0.0290715 -0.810511 0.529557 0.00377331 0.267403 0.0676897 -0.399137 0.848506 0.796747 -3.14306 2.13043 0.114244 -0.900621 -0.672079 -0.503073 -0.108901 0.31251 0.0936613 -0.695365 -0.97293 0.178716 -0.741173 -0.696684 -0.110874 -0.881222 -0.302411 0.26885 1.8855 0.41673 2.04634 0.64568 -0.686694 0.0372161 0.488601 0.594684 -0.86306 0.271004 0.690946 0.95375 -0.0628986 -2.21232 -0.54561 0.789087 0.500076 -0.245705 -0.802911 0.027955 0.778161 0.679872 0.323479 0.395244 0.569849 -0.224403 4.15856 -0.832209 0.505551 -0.116123 0.126661 -1.4084 -1.36294 0.255753 -0.736963 -0.058733 0.0823388 -0.586872 -0.243171 -0.830008 -0.400472 -0.932859 -0.237296 0.836268 1.49526 0.645165 0.525925 -1.00884 -0.47752 -0.985015 0.830409 -1.00409 -0.715145 0.378155 0.108859 0.0744383 -0.459944 -0.665337 -0.0635414 0.884724 0.0391552 -2.17526 -0.0864284 -0.330607 -0.520204 -0.088168 0.809839 0.0810266 -0.170415 0.465163 0.6797 -0.638752 0.805078 -0.526231 -0.931333 -0.419576 -0.836024 1.34628 0.684803 0.711539 0.0660472 0.745628 -0.363629 0.47673 -0.438398 -0.953154 0.47911 -0.581194 0.307505 0.796747 -0.322553 0.767937 0.474221 0.402051 0.85165 1.1503 0.349681 -0.399335 0.378765 -0.120514 0.92172 0.211951 -1.45755 0.404248 -0.194732 -0.0784936 -0.656051 -0.355541 -0.60878 -0.735679 -0.169591 0.661259 -0.480178 -0.0512101 0.528367 -1.18556 0.337077 0.689322 -0.05356 -0.243629 -0.107501 0.282266 2.23124 -0.723332 -0.817927 0.0529801 0.160558 -0.788063 0.833277 0.698075 -0.433821 0.878663 0.425367 1.28319 -1.05116 0.276955 0.911985 0.971343 0.188757 -0.359905 -0.570529 -0.77749 0.962096 -0.121954 -0.859127 1.4065 0.271309 -0.109134 -0.732156 0.990722 1.16347 0.140324 -0.590469 0.727378 0.706809 0.38612 0.513427 0.524705 -0.588092 -0.56859 0.729453 -0.352567 -0.695125 -0.566179 -0.451094 -0.541626 -1.34285 0.961913 0.0256966 -0.672536 -0.941853 -0.217109 -0.280709 -0.712912 -0.245062 -1.44539 0.0279244 -0.0595345 1.17963 -0.598376 -0.783244 1.3852 -0.348369 -0.256569 0.00766015 0.900449 -0.385641 -0.580737 0.740684 0.019013 2.06604 0.933683 -0.828303 -0.508014 0.631336 -0.301606 -0.26301 -0.047646 -0.662008 -0.0720847 -0.724326 0.131542 0.596759 -0.90521 0.987152 -0.749504 0.929344 0.827532 -1.13285 -0.591427 -0.182379 -0.874151 -2.03797 0.0999878 -0.364177 -0.297352 1.13666 0.637867 0.972869 0.645679 -0.438978 -0.334015 0.695486 -0.536058 -0.376554 -0.0448622 -0.127405 0.30211 0.320627 -0.253901 1.82332 -0.239204 -0.732963 -0.871304 -0.742088 -0.701475 -0.217854 0.423624 -2.17357 -0.113644 -0.395123 -0.0864808 -0.774987 0.632609 -0.499081 -0.254555 -0.636707 0.402802 0.242911 -0.0333262 0.55455 -0.230079 0.505692 -0.276093 0.900967 0.210469 1.05655 -0.493515 -0.695723 -0.0451979 0.238227 -0.111606 0.401201 -0.0549944 -0.536485 -0.129623 -0.0596047 -0.453871 -0.143864 -0.533128 -0.441023 -0.397997 0.226943 -0.428816 -0.84047 -1.81946 -0.680047 -0.126225 0.736758 0.426527 0.946912 -0.608509 1.57652 -0.14498 0.57666 -1.5094 -0.167364 0.405622 -0.907376 0.184159 0.838588 -0.390912 -0.620563 -0.696829 -0.961791 -0.35844 0.992126 -0.0403455 1.13086 0.0753502 -0.310495 0.373424 0.507767 0.807672 -0.358043 -0.441176 -0.0322581 -0.195959 -0.447188 -1.09174 0.335597 -0.568316 -0.894742 -0.77691 -0.390545 1.78458 -0.594745 0.898781 0.347819 -0.491165 0.923032 2.54953 -0.947357 -0.332957 0.519185 -0.30196 0.84011 0.57612 -0.0198577 0.470046 -0.678287 -0.898574 0.837703 0.0480972 -0.291299 -0.27018 0.803797 -0.554889 1.10248 0.148099 -0.412549 -0.869045 0.951598 -0.527299 0.288097 -0.839837 0.0505081 -0.0983427 0.244057 0.402729 0.237431 -0.29603 0.991343 0.966918 -1.00812 0.810938 0.438303 -0.0330136 -0.492793 0.667165 -0.856746 0.665059 -1.03305 0.994884 0.0556658 0.957274 3.51174 -0.296182 0.527451 0.396065 -0.993072 0.752037 -0.936399 0.69509 -0.827455 -1.67488 0.799127 -0.70932 -0.875698 0.603259 -0.888455 0.0862453 0.765753 -0.707683 -0.707785 0.722068 -0.177012 -0.991438 0.19541 -0.408551 -0.963792 0.847655 -0.160619 0.200507 0.4373 0.328837 -0.335643 -0.275338 0.0270089 0.467544 0.350198 -0.771264 0.242777 -0.47261 -0.998657 0.248358 0.385022 0.386883 1.70748 0.289382 -0.919492 -0.989913 0.370871 0.453627 -0.943785 -0.878384 0.883786 -0.879673 -1.07778 -0.643361 -0.253761 1.98647 0.0645161 0.647103 -0.32316 -2.12088 0.29195 0.26838 0.245521 0.0172735 -0.379162 -0.493545 -1.42628 -0.972076 0.252876 0.0641982 -0.00704978 -0.590994 -0.0419911 -0.591277 -0.77514 -0.618336 -0.594714 0.0466087 -0.492643 -1.44368 1.22427 -0.190008 0.33375 4.51105 0.516783 -0.648738 -1.64425 -0.495809 -0.152928 0.14066 0.500107 -0.222624 1.43926 -0.116825 -0.529956 -1.53299 0.444746 -0.242836 -0.117425 0.687887 -0.529221 -0.680715 -0.873928 -0.287454 -0.0280394 0.450209 0.882178 0.712271 -0.743217 -0.378582 1.95358 0.199336 0.635121 -1.32041 -0.0262378 -0.848079 0.425642 0.119572 0.622167 0.903474 1.45678 0.476272 0.364196 0.337016 -0.0155531 -0.315928 -0.891667 0.0385836 0.250098 0.463668 -0.347466 -0.286935 0.188635 0.327068 0.0365567 -0.880067 -0.480667 0.129948 -0.244057 -1.32495 0.963908 0.382885 -0.0711992 0.617781 -0.526902 -0.576586 -0.50325 -0.424329 -0.741915 -0.819056 1.52186 -1.27868 -0.745258 0.819207 -1.26207 0.0325273 0.834223 0.485183 -0.814614 0.74752 -0.646107 -0.318247 -0.677358 -0.223273 0.0896634 -0.201178 -0.427992 0.164434 0.279856 -0.507729 -0.405347 -0.402312 0.883328 0.978271 -0.571843 0.667318 0.0617203 -0.993835 -0.227027 -0.0110172 2.09005 -0.6592 -0.293832 -0.85223 0.83639 0.179998 0.53434 -0.460077 0.440657 -0.201585 -0.501541 -0.0392294 0.453627 -0.582446 0.486632 -0.171816 0.872732 -0.745073 0.0140385 -0.991241 0.625172 0.90762 0.242836 0.851977 -0.821924 0.938836 0.121981 -0.752465 -0.962184 0.4438 -0.752434 0.188055 1.76427 -0.00466933 0.217102 0.488388 0.0613724 0.551805 0.880357 0.564435 -0.379345 0.769341 0.374248 0.404736 0.828621 -1.61444 0.129887 0.807733 1.79548 -0.205481 0.334387 -0.0387585 0.469069 0.23907 1.83932 0.303598 -0.980499 0.196053 0.0741367 -0.398265 0.855491 0.669317 0.247261 0.0971368 0.207068 0.0644246 0.339488 0.100844 -0.25309 -0.809409 0.241371 -0.856685 0.683676 0.420454 -0.61977 0.195318 1.53311 -0.819849 0.759155 0.134794 0.825373 1.49982 0.790475 -0.668226 0.00762963 1.49109 -0.489242 2.67549 -0.406751 0.434828 -0.709708 0.410547 -0.265877 -0.624653 0.18131 0.459151 1.58024 1.0987 -0.493097 -0.0701315 -0.661888 0.995178 0.245308 -0.471236 0.376324 -0.199093 -0.757237 0.871731 -0.00814844 0.251228 -0.236065 -0.0397567 0.455092 0.789727 1.59781 -0.547624 -0.638264 -0.424188 0.603505 0.0170293 0.267678 0.717887 -0.498672 0.430982 -0.406262 0.157506 0.267678 0.76693 0.739788 -0.361766 0.520127 0.931059 0.402442 -0.867244 -0.623432 0.479476 -0.279398 0.753899 0.17073 1.7457 -0.0164204 2.68919 0.886594 0.75689 0.284768 0.306375 -0.818293 -0.212073 0.565813 0.309305 -0.493302 -0.142857 -0.261859 0.00573747 -0.224424 0.61507 -0.909696 0.861902 -0.529914 -0.0152287 -0.943694 -0.132481 -1.00294 -0.356487 1.24629 -0.458571 -0.778253 0.436405 0.293588 -0.311193 -0.422437 -0.221595 -0.632764 0.531266 0.267281 -0.0225532 3.05185e-05 -0.362857 -0.990539 -0.0527572 -0.622669 -0.419263 0.903989 0.0399552 0.492838 -0.536212 -0.547745 0.321207 -0.72725 -0.782621 -0.0455031 -0.383161 -0.734733 -0.520036 0.413851 -0.861293 -0.777795 0.371044 1.42296 -0.37022 0.371038 0.893857 0.577713 -0.0406812 0.895657 -0.354991 0.423444 -0.359935 0.543565 0.424116 0.87933 0.34785 0.159924 0.916612 -0.353526 -0.343966 -0.207587 -0.266121 0.272289 -0.875332 0.873714 -1.35868 0.263955 -0.761223 2.25725 0.582629 0.189393 -0.13034 0.895505 -0.567339 -0.0934472 0.508585 0.0488702 -0.338207 -0.263375 0.436216 0.946233 0.619709 0.763085 -0.245963 0.954649 -0.996412 -0.54265 -0.623077 -0.265511 0.103977 -0.279337 -0.804933 0.521583 0.0457778 0.447803 0.276131 0.0789546 -0.615295 -0.684469 -0.470107 -0.242869 0.463057 -0.541667 -0.433148 -0.226142 -0.450787 0.0549052 0.305643 -0.911222 -0.582629 0.0754112 0.0307321 -0.0750755 0.703296 -0.245479 -0.756798 1.16767 -0.629017 0.0336169 -0.243171 -0.53234 -0.0580767 -0.791088 -0.469235 0.338158 -0.945843 -1.7548 0.222682 0.785705 0.943245 0.0578631 -0.600149 0.17535 0.663839 0.456366 -0.151524 0.0328543 0.45474 0.652821 -1.61636 0.246956 0.817896 -0.364483 -0.613117 0.975341 -0.27369 0.667317 0.772511 0.652974 0.940884 0.868252 0.476608 0.80929 -0.0324392 0.291849 -0.079928 -0.844021 0.604938 0.509995 0.599597 0.733757 -0.7663 -0.630696 -0.399762 0.194403 0.797357 -0.0859401 0.111055 -0.925118 -2.2384 -1.65595 -0.26487 -0.00767619 -0.831019 -0.334157 0.435774 -0.279153 -0.228523 0.473556 0.599384 -0.579455 -0.412275 -0.888913 -0.223701 -1.39195 0.0061037 0.974975 -0.0595111 -0.293591 0.915159 -0.796747 -1.38912 -0.508408 0.768768 0.772328 -0.0827021 0.83767 -0.763329 1.64375 -0.665517 0.688803 0.128941 0.800958 -1.77195 -0.513535 0.817103 0.900906 -0.485341 0.510838 -0.328135 -0.859462 0.0677511 0.130833 0.564714 -0.819488 -0.20879 -0.449385 0.773858 -0.481307 0.299072 0.0549638 -0.546165 -0.983848 -0.199561 0.77102 -0.0408765 0.173801 0.174848 0.860042 0.146916 0.206519 0.964873 0.216548 -0.941954 -0.138758 0.814676 0.797205 -0.183899 -0.905426 -0.97 0.804778 0.654897 -0.0543968 -0.308633 -0.481471 -0.375347 0.405316 0.527912 -0.735343 -0.428846 -0.983215 -0.859279 0.133946 -0.568555 0.833689 -0.795801 0.929014 -0.555094 -0.517822 -0.041261 0.0210273 -0.21012 1.55872 -0.500003 0.755333 0.296396 0.484267 -0.94021 0.439344 -0.401404 -0.89775 -0.486404 0.220098 0.0147839 0.943449 0.669027 -0.720573 0.734306 -0.472151 -0.115543 0.847621 -0.129551 0.00670802 0.854244 0.722404 0.347789 -0.204596 -0.0164183 0.491501 -0.442695 -0.60921 0.862148 -0.538713 0.65126 -0.723838 -0.0224616 -0.457595 -1.00282 0.488631 0.201209 0.113806 -0.88258 -0.810327 -0.497611 -1.2666 -0.593494 -0.908292 -0.138369 -2.23095 -0.506973 0.89172 0.408246 0.0634175 0.713828 0.026049 -0.587512 -0.465835 0.640278 0.319681 -0.982307 -0.8287 0.435075 -0.826899 -0.573504 0.746574 0.701834 0.456526 0.223964 0.40962 0.231849 0.961299 0.13822 0.0695314 -0.562639 0.0213935 -0.925932 0.414885 -0.628873 0.349925 -0.371471 0.115449 -0.748222 -0.0756447 -0.577013 0.531114 -0.0978582 -0.62096 2.30381 -0.548687 0.638946 0.433856 -0.420484 -0.189703 -0.143162 -1.28644 -0.543046 -0.805139 -0.382321 0.608936 -0.30665 -0.961235 0.0351878 -0.321512 1.27721 -0.614765 0.629627 1.20421 0.928767 -0.865065 -0.135075 -0.0133494 0.00573748 -0.851906 0.864559 0.456218 -0.0523711 0.310404 0.334145 0.860378 0.747459 0.471603 -1.45213 0.660085 0.321543 -0.401196 0.678915 -0.217566 0.957725 0.0494095 -0.150395 0.0637429 -0.66155 0.142155 -0.66158 -0.179034 0.865642 -0.961303 0.589557 0.138585 -0.195959 0.306864 0.486498 1.76336 0.203558 0.39021 0.607044 -1.0721 -0.0150147 0.15183 -0.547807 0.286508 0.588672 -0.34846 -1.02165 0.172063 0.0546892 -0.934751 0.171098 -0.6948 -0.388634 -0.21296 -0.51735 0.629505 -0.293008 0.951201 0.541643 0.84463 0.450056 0.88934 0.0517985 -0.879836 -1.74406 0.687246 -0.609912 -0.771416 -0.256661 -0.854333 -0.535323 -0.960173 -0.423447 -0.938261 -0.0488502 0.614181 -0.568407 -0.710929 -0.487472 0.736944 -0.519426 -0.563741 0.736839 -1.16008 0.997223 -0.300424 0.573992 0.0967361 -0.302929 0.480514 -0.373577 1.92654 0.917295 -0.209021 -0.959536 -0.249062 0.480056 -0.62563 -0.792627 -0.468237 0.305977 0.940275 0.480539 -0.278481 0.4597 0.810358 -0.149419 0.437196 -0.509171 -0.563433 -0.0707724 -1.77295 -0.926396 0.771342 0.736001 -0.774995 -0.14206 -0.846157 0.929838 -0.308636 0.223731 -0.0100711 -0.864803 0.167089 0.270974 -0.862697 0.665487 1.35137 0.0367748 0.17655 0.260179 -0.0266121 0.517533 -0.928223 0.693718 -0.154698 -0.58185 0.515885 0.185369 0.681661 -0.81991 -0.157476 -0.217372 0.858023 0.907895 -0.371319 -1.52489 -0.700064 -0.0685192 -0.166967 -0.273298 0.176885 0.717582 0.828547 -0.905057 0.888343 0.594745 -1.29257 0.955687 -0.123051 -1.11233 0.464675 1.89231 -0.580703 -0.00338755 -0.848445 0.111606 -0.687918 0.527844 1.09547 -0.0824723 -1.06929 0.697226 -0.522019 0.993372 1.08893 1.30776 0.266454 1.29419 0.902127 0.327158 0.0383007 0.973605 0.845698 -1.51411 -0.332315 1.56996 0.00100711 0.851131 -0.524777 -0.128727 0.750145 0.0419019 0.608453 0.52852 -0.775231 -0.558397 -0.090762 0.389813 0.955229 -0.373821 -0.546434 -0.485575 -0.711966 -1.06005 -0.103843 -0.618 0.892105 0.643361 1.81932 0.323099 -1.73807 0.542894 0.709248 -0.0446791 0.202307 -0.133885 -0.0744957 1.36633 2.3301 -0.885008 0.144633 0.250649 0.0718406 -0.00485301 0.377736 0.363642 0.502945 0.783807 -0.839015 -0.00230469 -1.57549 -0.612337 0.477309 0.176397 -0.636219 -0.454115 0.661855 -0.940672 -0.0316709 -0.919431 -0.0487912 -0.973538 -0.472638 -0.164617 -0.480804 0.255799 -0.28077 0.552016 0.545322 -0.395337 0.138768 0.129276 -0.281869 -0.426313 -0.472488 -0.221259 -0.39024 -0.389599 -0.480851 0.182538 0.327677 0.530656 -0.489639 0.0501419 -0.921964 -0.565996 -0.546393 0.382488 0.697836 -0.153661 0.673074 0.616626 -0.884884 0.581837 -0.533067 0.555132 1.80638 0.948393 0.819971 0.187256 -0.855495 -1.25821 0.122653 0.0501419 -0.488149 -1.60673 -0.98956 -0.81286 0.879299 0.743522 0.973113 0.422834 -0.347331 -0.368419 0.421857 -0.290385 0.161826 -0.59389 -0.945257 0.213324 0.201544 0.138707 0.142603 -0.289315 4.29795 0.794336 -0.968932 0.947905 0.945416 0.912534 -0.390759 0.405408 0.247566 0.194281 0.136086 -0.91615 -0.983499 -0.686148 0.0910792 0.713034 0.209754 0.278787 0.311228 -0.303846 0.213961 -0.206427 -0.560564 0.927356 -0.62425 0.208136 0.593093 -0.0563845 -0.704634 2.09331 -0.44026 0.362285 0.730923 1.77586 0.771142 -0.867076 -0.643849 0.465957 -0.126896 0.271157 0.131993 0.397412 0.249943 0.61034 0.52468 2.10406 -0.767846 -0.79468 -0.647054 -0.384294 0.763573 -0.598773 0.954863 -0.356667 -0.342631 0.231462 0.072573 -0.955328 0.121403 -0.175817 -0.880337 -0.260231 0.680546 0.467452 -0.809351 0.224189 -0.0286665 -0.523453 -0.384014 -0.591296 0.506241 0.110904 -0.288666 -0.0316782 0.107883 -0.204321 -1.11531 0.158371 -1.03382 -0.63094 0.0321885 0.50087 -0.782983 -0.0629969 -1.82277 0.448836 0.802332 -0.265816 0.325846 0.798944 -0.892178 -0.882931 0.0260933 0.492325 -0.493088 -0.0344859 0.577166 0.953368 0.798456 0.17954 -0.558031 -0.77337 -0.46439 0.265114 0.137376 0.267882 -1.3898 -1.09084 0.544084 -0.0334483 0.245003 0.406354 -0.605945 -0.27723 -0.27604 0.382794 0.0457313 -0.545763 -2.69763 -0.582423 -2.19842 0.453017 -0.169347 -0.0643941 0.188806 0.720664 -0.596722 -0.710105 1.09531 -0.685995 -0.208777 -0.372387 0.14432 -0.893491 -0.586535 -0.547797 0.37138 -0.817134 -0.627918 0.710685 0.19892 -0.527238 -0.00781274 -0.599569 0.0607013 1.45045 0.454237 0.895657 -0.767968 -0.035432 0.286147 -0.553209 -0.238578 0.597217 -0.705439 0.366493 -0.094058 -2.68739 -0.459273 -0.892544 -0.444655 0.428449 -0.239982 -0.654103 0.992859 -0.324229 -0.597827 0.525346 -0.414167 -0.807367 0.957915 -0.208777 0.0755943 -0.19834 0.0013123 -0.0193793 -0.910947 -0.640797 -0.516915 0.362433 -0.326456 1.02214 0.127506 0.140934 0.349254 -0.410842 0.41792 0.482811 -0.470138 0.123539 -1.25123 0.224616 -1.15231 -0.0489588 0.930113 -0.514939 -0.321268 0.0602649 -0.824645 -1.4116 0.96469 0.231872 0.224995 0.421918 -0.517472 0.00555437 0.33433 1.11271 -0.437696 -0.100681 -0.291787 0.766655 -0.0260667 -0.751636 -0.784434 0.825129 1.47604 -0.140324 1.48836 -0.938414 -0.813227 0.783563 0.541776 0.964202 -0.18089 -0.9279 -0.690023 -0.937289 0.880245 -0.469283 0.617573 0.146123 0.583972 0.151219 -0.258156 -0.438331 -1.43539 0.284982 -0.211022 0.309732 0.800425 -0.0779748 -0.981933 0.700217 -0.448741 1.24414 -0.28488 0.852404 1.64627 -1.05089 -0.771844 -0.665914 -0.972961 -0.736734 0.889503 -0.898984 0.635489 0.582018 -0.970373 -1.44172 -0.449568 -1.26641 0.717913 0.326823 -0.311502 0.733235 -0.402661 0.0846278 -0.793725 0.452475 0.0423292 -1.94239 0.0401102 0.43202 0.116062 -0.379086 -0.431623 -0.415632 0.472671 0.808466 0.0227668 -0.4644 -0.393384 -0.291123 -0.635863 0.736595 0.574816 -0.793909 -0.148473 0.3314 -0.0199896 3.66134 -0.487123 -0.786462 1.47693 -0.626972 -0.50966 0.11771 -0.411542 0.405896 -0.28724 0.95941 0.728446 -0.855861 0.334269 0.666097 0.569535 -0.952727 -0.0347301 0.608081 0.702541 0.378033 -0.997528 -0.661312 -0.506333 0.496689 1.1223 0.346812 -0.0808324 0.616749 0.239193 0.250923 -0.98285 -0.170629 -0.315989 -0.0582956 0.344066 -0.997742 0.254067 -0.120439 -0.613516 -0.840205 -0.17066 0.731919 0.82646 -0.462172 0.603315 -0.0290876 0.191687 -0.250252 0.663076 0.289068 -0.993103 -0.0466323 -0.952448 -0.95157 -0.62212 0.532693 0.434888 0.857661 0.282693 0.521775 -0.763177 0.0339061 -0.789087 -0.961303 0.960579 0.595348 -0.415998 -0.611104 0.428419 -0.610462 0.755119 0.330363 -1.11457 0.971129 -0.371599 -0.114994 0.145679 -0.272903 -0.898923 -0.652821 0.412763 0.251731 -0.661611 -0.598255 1.77522 -0.427625 -0.182073 -0.589709 0.564575 0.643666 0.594256 0.543962 -0.0589443 0.699472 0.755364 0.777123 -1.04832 0.576617 0.690054 0.577089 0.0708531 -0.896451 -0.295103 1.18249 0.130924 -0.729301 0.269204 0.39967 -0.424738 -0.124577 0.955565 -0.808802 -0.845821 0.50029 -0.98114 -0.529069 0.211158 -0.773912 -0.0304582 -0.750668 0.852474 0.692557 -0.0975372 0.3212 -0.882962 -0.415937 0.0420545 -0.816188 0.181003 0.557313 -0.061015 0.49833 -0.263619 0.435747 -0.00671553 -0.160315 0.510208 0.064935 -0.989348 0.517106 -0.628193 -0.261271 0.392071 -0.494312 -0.987701 -0.362163 -0.786645 -0.856197 -0.119422 0.616259 0.479476 -0.327924 -0.981793 -0.988128 -0.862728 -0.640736 0.0171514 0.419416 -0.971526 0.536393 -0.105983 -0.668184 1.73863 0.0986309 -0.351329 -0.849117 -0.513596 1.38985 0.0728782 0.13123 -0.955301 -0.272134 -0.370866 0.0467849 0.453688 0.721701 0.654073 -0.424339 0.277688 -0.452956 0.421484 0.990539 0.699789 -0.417554 0.0550764 0.258614 -0.891598 1.86517 0.0671102 0.0887187 0.348247 0.761986 0.971221 -0.781248 0.289202 0.224067 -1.15979 -0.92523 0.120273 -0.547258 0.708663 -0.0700705 0.380779 0.910886 0.142719 0.295813 -0.52617 -0.0966405 0.376934 0.934843 0.602527 0.931199 0.326239 -0.889187 -0.720969 0.524979 -0.227668 -1.66813 0.0171209 0.660207 -1.04606 -0.600177 0.786401 -0.888089 0.994604 -0.649569 0.37196 -0.521561 -0.444594 -0.80636 -0.905728 0.153187 4.04157 -0.649586 -0.245125 0.777325 -0.564472 -2.44849 -0.634694 -0.906797 -0.136845 0.474899 0.547746 -1.10246 0.923579 -0.809229 -1.22696 -1.03078 0.855407 -0.597589 1.23088 -0.57384 0.234875 1.89856 -0.721427 0.667531 -0.589557 -0.612537 -0.564164 0.0229918 -0.0815939 0.348072 -0.626087 -0.762993 0.536912 0.314341 0.648194 1.2388 0.802789 1.64278 0.7669 0.807683 0.326036 -0.714316 -0.144922 0.67626 -2.56647 0.841913 0.314249 -0.839514 0.512366 -0.235206 -0.569567 -0.48439 -0.360946 -1.57641 0.603626 -0.755455 0.840086 -0.890408 0.362621 -0.0848158 0.0654012 0.419294 -0.464405 0.995239 0.79547 -1.00482 0.108493 -1.4428 0.0730613 -0.483108 -0.266762 0.903256 0.35078 -0.0515458 0.60625 -0.0852382 0.830936 -0.0187586 0.580118 -0.921729 0.510517 -1.3675 -0.202331 -0.516984 -0.509842 -0.836329 -0.880978 -0.338084 -0.30604 0.980712 -0.318553 0.548906 0.919423 0.97235 -0.631062 0.584238 0.937284 -0.446181 -0.0795106 -0.020261 -0.510636 0.254824 -0.789198 -0.536576 -0.501419 -0.639515 -0.411206 0.930692 0.963048 -0.447188 0.669454 0.660513 -0.360424 1.5691 0.622944 0.774958 0.387977 -0.152593 0.766655 -0.777062 0.518021 -0.227305 -1.43675 -0.441511 0.57445 -0.711642 -0.161901 0.752136 -0.170324 0.234809 0.795099 -0.400037 -0.618519 0.765191 1.45788 0.989123 0.237551 0.851466 0.608234 2.77119 0.488049 0.721609 -0.40965 0.168729 -0.82989 -0.975127 -0.635121 0.10367 0.0693484 0.0528275 -1.04089 0.71936 -0.532212 -0.746178 -0.714729 -1.80551 -0.558702 0.0968047 0.567613 -0.302713 0.626575 -0.0945752 -0.83287 0.939909 0.218726 0.656392 -1.09046 1.88002 -0.314371 -0.751886 0.269036 -0.338878 0.189764 -0.762719 0.112848 -0.278449 -1.84273 -0.25251 -0.719694 -0.561693 0.15322 0.660237 1.96232 -1.72733 -0.43258 -0.324804 1.28114 0.302774 -0.264748 0.686998 0.404795 -0.456931 0.408124 0.676229 0.0960417 -0.320169 2.27803 -0.966063 0.928791 -0.280221 -0.280831 0.250984 0.905667 0.669271 0.748264 0.0151982 0.0203999 0.719815 0.11109 -0.149937 1.59083 -0.0354283 0.610645 -0.421613 -2.14789 0.459975 0.274514 -0.968963 0.669637 -0.835688 0.77224 -1.05525 0.0475478 0.633076 -0.794277 0.791524 0.374676 -0.684256 -0.247017 0.0944853 -0.443161 -0.184729 -0.758323 -0.239204 -0.49205 0.482192 4.04383 -0.962401 -0.227912 -0.602993 -0.982818 0.781335 -0.799811 0.470514 0.331459 0.725647 0.103183 -0.232185 -0.423815 -0.942778 -0.793146 -0.88101 0.663821 0.227023 -0.289254 0.553087 0.509445 -0.200964 -0.944243 0.120726 0.157811 -1.13565 0.434635 -0.359426 -1.04369 0.664693 0.0811487 0.338023 -0.433891 0.873379 -0.941431 0.142094 0.367164 -0.165838 0.0401269 -1.96541 0.933866 -0.0695212 -0.904202 0.89584 0.908092 0.705407 0.61278 -0.934802 1.4242 0.400647 -0.56023 0.525437 0.0846278 0.135698 -0.0745374 -0.17713 0.393323 -0.365022 0.694413 -0.946372 -0.567955 1.91694 -0.99933 0.161675 0.262886 0.664357 -0.723523 -0.947029 0.539689 -0.992132 -0.575854 0.243049 -0.881527 0.327982 0.211341 -0.704306 0.282182 1.73073 -1.00849 -0.921817 -0.84109 -2.66869 -0.304989 -1.19075 0.775689 1.34883 0.017243 -0.723728 -0.107212 0.964489 0.272378 -0.423849 -0.840815 -0.771691 0.417371 -0.990478 -0.635239 0.60566 -0.0319784 0.245125 -0.112529 -0.727317 -0.304788 0.456191 0.165441 -0.70367 0.0738437 0.339091 -0.7069 -0.450117 -0.527823 0.0321359 -0.0872288 0.0699484 0.514915 0.331797 -0.424207 2.37923 -0.119147 0.202857 0.170568 -0.407666 -0.413221 0.455487 -0.889126 -0.0844142 0.486526 -0.914335 -0.438591 -0.585711 0.602018 -0.561724 0.328348 -0.296487 0.4532 -0.155309 0.93503 0.797021 -0.464249 2.68122 0.521409 -2.56184 0.241554 0.819727 0.948943 -0.10596 0.884426 0.691946 -0.534074 -0.783227 0.724391 -0.691366 -0.881606 0.657954 0.715036 -0.331767 -0.309641 -0.308359 -1.9347 0.0823695 0.721477 -0.551469 -1.91457 0.608203 -0.104601 0.0505692 0.00906551 -0.92911 -0.616993 0.648522 -0.141209 0.258243 0.991574 -0.665426 -0.233467 0.273751 -0.526353 -0.448925 0.530931 0.127323 -0.315622 -0.222907 0.553606 0.399182 0.260989 0.268807 1.47063 -0.185339 -0.260548 -0.677955 -0.0323496 -1.88851 0.962218 -0.355102 -1.38154 0.495376 0.222825 -0.28605 0.748298 -0.967101 -0.409131 0.902554 0.540597 -0.929167 -0.138676 -0.89581 0.437513 -0.486007 0.0553299 -0.76516 -0.627338 -0.488479 -0.967747 -0.591127 -0.711234 -0.242119 0.475814 -0.313211 -0.470449 1.2261 -0.842158 -1.00646 -0.337138 -0.168767 -0.264393 0.83871 -0.248731 0.397025 -0.00604266 -0.278756 -0.113772 1.06194 -0.666444 0.713982 0.791284 -1.71913 1.19322 -0.637562 0.23896 -0.0941811 0.942961 -0.560716 -0.637929 -0.162512 0.0526444 0.19248 0.247321 0.707497 0.206089 0.246529 -0.565555 -0.10004 -0.809423 -0.714095 -0.410352 -0.0627155 0.381296 0.364025 1.28016 -0.352144 0.269112 -0.757446 0.253314 -0.545274 0.378491 -0.395154 0.65865 -0.275369 -0.366771 0.311602 -1.31684 0.754997 0.767945 0.0119633 0.645729 -0.553026 0.0478835 0.848903 0.11561 -0.847615 -1.56874 0.488006 1.36425 -1.31024 0.555162 0.491287 -0.0980255 0.565712 0.675282 0.759789 0.242984 0.498093 0.054483 0.0673016 -0.955657 -0.148237 -1.70377 0.244331 0.870235 0.0105079 0.0599689 -0.0801416 0.456587 0.667557 -0.576067 0.364684 0.00155516 0.381664 -0.39433 0.173393 0.652547 -0.891079 0.509016 0.935728 -0.704154 0.677755 -0.277993 -0.0230678 0.368235 0.454573 -0.188208 0.0533769 -0.552507 0.411481 0.32256 3.54783 1.69381 0.215827 -1.63689 0.913449 -0.00390637 -0.566759 -0.38081 -0.876888 0.623249 -0.847652 -0.402264 -0.293252 0.649919 -0.959319 0.193537 -0.643269 -0.686758 0.194906 -0.0679342 -0.0222785 -0.655599 0.117148 -0.183172 -0.872005 0.439078 -0.166478 0.887785 -0.476974 -0.899914 -0.875759 0.274816 -0.305521 -0.80578 -0.260909 0.706076 0.539964 -0.704459 -0.883098 0.727142 -0.535417 -0.296365 -0.466323 -1.30311 -0.607166 0.582003 -1.00885 -0.442976 -0.33372 0.42747 0.728244 0.503006 -0.778924 -0.734846 -0.1299 0.922971 -1.43946 -0.255981 -0.768767 0.956236 0.686972 0.911766 -0.0120243 -0.537362 0.783502 -0.817557 -0.770044 -0.879818 0.309727 -0.878722 0.24308 -0.347796 0.853328 1.44459 -0.106722 1.81591 0.928004 0.179083 0.717616 0.235176 0.522019 0.903806 -0.10889 -0.973144 0.274435 0.439689 0.791284 0.134861 0.152346 3.2618 -0.364299 0.583453 -0.269358 -0.292933 0.895291 0.996918 -0.640614 0.626148 -0.278161 0.0964995 -0.36092 -0.00223606 -0.548631 -0.185231 -0.151808 0.417585 -0.0831324 -0.630787 0.358654 0.779104 0.690634 0.988403 0.137181 0.356281 -0.890408 0.500473 0.286785 0.6657 -0.990228 0.706685 0.598591 0.0378735 0.870876 -0.771264 -1.57579 0.923246 -0.986877 -0.486984 0.966455 -0.655873 -0.901639 -0.0706327 0.290262 -0.249763 0.344015 -0.468999 -0.648732 -0.665975 -0.97778 0.739753 0.365734 0.382824 0.00661954 -0.615802 0.44731 0.663014 0.379376 -0.17658 0.787713 -0.128758 -0.269504 -0.716303 -0.898469 -0.958103 -0.376629 0.735588 0.0121745 -0.871456 0.369701 0.903958 -0.463443 -0.827158 -2.08341 -0.281436 -0.58765 -0.728202 -0.324752 0.401438 -1.31912 -0.086581 0.0764787 -0.186832 0.591815 -0.687832 0.81106 0.363903 -0.863122 0.885495 0.2212 0.433334 -0.465061 -0.844928 0.360393 -0.0584429 0.840907 1.09379 0.721397 -0.674184 0.780293 -0.872952 -0.858184 0.831446 -0.4008 0.987396 -1.07944 0.131873 0.779443 -0.527514 -1.09974 -0.539573 0.967894 -0.89852 0.754326 -0.99192 -0.828333 0.115933 -1.61666 