-6.44768 0.51207 -4.00157 0.440687 3.78028 1.02072 -3.27371 -12.2493 -1.12792 5.62944 -7.12167 2.20633 -3.41976 -10.6704 10.2199 -12.23 -0.244741 0.187073 10.1804 5.5139 -3.58763 0.254034 -3.02542 0.182684 0.799037 -1.19816 3.64696 6.1107 8.07877 -1.92812 10.0286 1.0723 8.42282 -2.61007 -9.4095 1.22759 -5.24933 -5.15624 5.20232 3.29097 -3.56903 3.52885 0.761803 -0.823538 -2.92919 1.26141 0.760577 3.72618 3.76336 -3.99045 -5.1672 -5.66086 -3.73683 -0.216468 -3.49951 -2.79315 -0.0699282 0.277352 -1.67691 -2.10136 7.95053 0.151291 -0.526566 -6.30676 -3.77874 0.900195 -1.30243 0.958403 -3.63626 2.8592 -0.155886 -0.320025 -0.917085 3.58475 1.1964 5.93842 -6.98914 -0.11703 0.355542 9.76024 4.15894 -8.57756 1.93323 -1.05754 -0.686575 1.67371 -10.005 1.31859 8.53259 0.713584 -6.81008 5.44148 -5.54883 0.444831 6.00573 -3.15154 14.0637 0.978082 3.72975 -1.77781 0.247749 0.536407 4.27998 -5.32182 -4.07603 -0.857751 -1.48312 2.61226 -2.30703 2.0776 -0.0456573 3.70181 -7.6748 1.5814 -0.222097 -7.32717 2.65506 3.04445 -0.631027 -1.89334 -0.617145 7.21297 -2.35907 -2.86596 7.4673 -10.2424 -1.88096 1.35803 0.820177 0.602039 -0.456605 4.2395 -3.71506 -11.4092 2.30744 0.394726 -0.820734 1.06552 -2.21815 3.26631 0.00279359 -3.42894 -1.69614 5.76172 -0.3579 4.28938 7.88906 -0.630561 -9.15737e-05 9.95001 -7.56448 3.28837 10.531 0.308063 -4.89899 0.853084 -2.52599 5.44075 -0.467691 2.13139 0.119572 1.22092 0.0450251 -6.63381 -0.393045 1.95618 4.29442 -5.51681 3.47045 -0.171196 -0.861263 0.476284 -0.695609 -5.18298 -4.75979 -0.50322 -0.246923 -1.58629 3.94786 2.88711 -0.265053 -11.4559 -4.87089 -0.10181 -0.122846 2.01544 3.34659 -0.423954 0.492839 -2.58025 -0.979485 -8.7935 -1.0802 -1.62418 -0.0182501 0.857051 10.2902 -1.97959 -4.8419 -2.26591 -0.969391 -3.64492 -7.37482 -0.232826 -3.69648 -0.57939 1.31253 -0.375523 -2.0768 5.49092 -7.71982 3.18011 0.172225 -0.812444 -10.8195 -0.080017 0.357616 -2.50196 0.425733 -0.685659 -3.94815 2.29124 -0.0331126 0.616443 -1.38726 2.01601 -0.175237 6.74511 -0.278918 3.14288 2.57254 -3.09571 -4.12983 3.08837 -0.679646 -9.50566 2.11111 2.54289 0.520768 -2.02724 7.58771 6.23553 -8.23653 -3.06529 -3.3204 0.727565 -0.251869 -1.48049 -0.831612 0.980318 0.943869 5.55488 -0.691362 -9.64011 0.656301 -0.558519 -10.0719 -1.51693 3.12024 -0.879442 1.6309 -1.38906 -0.81698 -0.297217 -2.99821 -1.8855 0.0152287 3.18659 -2.01361 -3.34694 -5.10422 -6.20454 8.83972 0.219664 -2.57113 6.07293 -5.84136 0.667104 -1.83707 -0.52175 0.299171 -6.36825 0.603351 -9.0661 1.2358 -3.53685 -9.85581 4.34818 -4.74658 5.39084 6.87866 -5.392 1.12097 0.0100549 -0.36787 -2.81929 4.02551 -0.179001 0.19478 -0.256925 1.37169 0.890683 5.47782 0.0863723 3.23994 -17.0965 2.94019 -3.09325 -3.64512 7.07443 10.8477 0.272134 3.17548 12.5999 -1.9765 3.97349 0.525559 3.47494 0.0732444 -1.36239 12.0751 1.9049 0.0731681 5.70669 0.444044 -0.18925 3.43002 2.67686 1.10128 -8.68839 1.37402 -6.58049 0.565691 -0.434555 -9.63506 -11.3932 4.13282 0.194984 -4.19578 1.09198 2.20858 6.95991 0.163643 6.37756 -1.10324 -6.72692 1.66663 -4.92271 -2.31503 0.613239 -7.74752 -1.19858 -2.74267 -10.8666 1.2014 -0.708853 0.141788 -8.06347 0.802654 -1.81407 0.189856 4.60447 -6.35665 -0.833588 -3.75193 -1.58608 -7.65422 0.967071 -1.17782 -2.13554 -6.19004 -4.37151 0.466206 -6.42909 3.6056 -0.788018 1.82972 -1.56609 -7.48082 -3.26955 1.67713 1.91846 -0.362651 2.07366 4.98594 -0.912005 0.491409 -0.323954 -5.28449 12.0877 -1.53015 -4.47569 -7.88507 -0.388165 -2.51005 0.781487 0.506241 -0.409805 -4.54833 -0.989257 -1.49144 0.120792 4.29305 6.3801 -6.63567 -9.61788 -5.61048 -21.4327 -0.425916 -1.68547 9.70143 -4.07599 -1.04766 0.383149 -2.3891 -0.784054 0.603565 0.828194 2.62889 5.31492 -0.495773 -4.22356 -12.7359 -15.4147 -1.80831 3.74911 3.28677 0.574511 1.79429 -0.737846 0.618988 0.899228 0.712791 -3.3596 0.105197 -1.23892 8.77207 -11.2938 -1.48248 5.31874 -0.857479 -0.554766 -0.614859 1.68137 7.12005 -0.569079 4.58707 3.83057 -14.6413 9.91462 -1.59757 10.953 -3.62045 0.939329 1.117 -1.21431 -8.28422 -4.92664 -0.207404 -14.7095 -1.27416 0.426007 -1.04545 -4.83126 -6.02254 0.627461 -4.11135 -4.87594 -0.799066 -1.33237 -1.45829 2.60642 0.350315 -0.883406 -3.24788 -1.94768 -7.05987 3.73738 -1.11803 -7.88283 -7.50253 -0.312565 2.40996 -0.50267 -0.946226 2.08338 2.30934 -4.90076 0.217475 8.15552 -0.612629 -16.7686 0.148049 -0.452404 -1.16932 -3.84061 6.54855 3.02911 3.6515 -0.899655 -4.21706 1.24102 0.691244 4.71307 -0.308052 0.151991 0.0900746 -4.20587 -4.50949 -1.74529 10.1831 -4.25273 -6.82952 -7.4663 2.09664 -6.12711 -3.66889 -8.24947 2.87796 -10.6847 -3.57901 9.12935 -1.74453 -4.21996 -1.10843 6.65238 1.08505 6.24319 -1.19228 0.823542 2.14248 -8.99061 8.4476 3.55172 -2.5845 0.493576 -4.9919 -0.0936091 2.30251 -8.40092 8.05918 -0.792921 -5.70446 2.82697 2.00592 -4.88472 -8.54098 -17.1323 -5.38565 -5.03383 -2.80767 0.580016 0.855784 -0.514753 5.51665 0.482771 -0.391053 -5.22325 4.20223 -12.1015 0.146823 2.74547 -0.169656 -0.0529201 -6.24239 -8.07902 -0.592527 3.42286 -9.62339 -8.17295 -12.1781 6.06273 -0.429706 -4.01726 1.51473 -1.55758 -13.1075 8.5011 -0.76144 -0.667959 -3.02205 11.1493 5.05546 5.5715 3.98206 -0.636186 -2.36792 0.18302 5.45656 -7.85518 -1.4017 -5.14555 -6.6692 0.0782189 -5.1903 0.166478 0.444196 7.81675 -0.261588 8.59947 0.553629 -2.31472 -2.14729 -4.74299 0.3928 -0.652791 -5.50116 -1.34703 0.349972 -7.10803 -0.827658 2.62792 -4.14293 5.64438 -5.86978 0.812554 5.4237 2.01236 -6.18921 -5.07624 -9.10693 2.86406 3.58075 5.18791 -2.53558 0.910496 0.458266 -1.56659 -0.10437 1.63275 0.0822782 2.05074 -1.63283 8.03713 -0.936155 -2.60717 -11.559 -6.49573 3.76795 -8.01865 -7.41015 -2.73354 4.5447 -0.997757 -7.06063 -3.20247 1.54919 2.69349 -5.50512 7.07206 -12.6607 -0.825701 0.252235 -14.6408 -2.46453 4.45607 -0.943113 -0.260628 -9.77299 3.86419 -6.51451 -0.148076 -0.837701 2.24604 -1.56158 8.99079 -9.45435 0.510788 -1.43667 -7.63069 -2.257 -4.10875 -0.0119633 0.95412 3.25179 -8.40986 -4.23774 0.568987 -14.4952 -5.3008 -6.47087 -3.3327 -9.01519 -13.0084 -0.976226 -0.0846583 0.557142 12.3447 -0.889187 4.19614 -0.519272 5.17543 2.49611 -4.38641 -7.03343 -0.814997 0.749597 0.541581 1.15918 -1.60368 -4.27677 -4.572 8.03994 -2.98564 4.1107 0.395123 -10.3719 -0.903653 -1.30528 0.145854 0.208352 -7.68877 -1.72527 5.29259 -4.42962 7.41306 -1.40873 0.0778402 -0.402288 2.08469 -2.63071 -9.38771 0.615436 -0.235764 -1.81328 -6.14163 3.75741 -0.364177 -12.3215 -7.71588 -6.53503 0.640478 -4.22445 0.214849 -1.5673 4.29085 -2.28254 -0.0685994 -3.32104 -1.31819 -6.05702 -0.349773 0.561435 -0.91876 0.742023 -4.1058 -0.244423 -0.942351 -12.1963 -2.97959 -0.77231 -0.709733 0.75692 -0.249275 -7.5517 -9.15863 -9.29097 6.88598 -0.389231 2.6473 0.856685 -7.5881 -0.0463702 -1.66031 -3.29126 -10.658 0.654042 -0.753014 -0.268838 -0.390118 -8.49254 2.97107 -6.30774 -2.55264 1.59686 -1.75453 -2.2478 4.30198 4.55285 -3.17554 2.42189 6.26691 1.93691 -0.970519 2.52452 -1.70265 -3.94402 0.829703 -5.43897 -0.00329729 3.86628 -0.751274 -0.634133 -8.4573 -2.75294 -0.859981 1.58016 -0.814081 1.51808 -2.76059 -0.35207 -3.1959 1.67719 -4.55031 -8.96933 -0.957413 -4.23869 0.911359 2.60315 -3.51574 -3.28654 0.393353 -2.25766 -2.65669 0.688528 -0.819785 0.958342 -0.584796 -0.161735 -0.746826 7.3819 -0.104628 -0.551868 -1.32912 -0.64381 -0.203533 1.80142 0.936416 -0.878659 -0.344951 -9.94093 1.54868 -2.78811 -1.63943 0.828908 0.418922 0.546312 -0.0543844 -4.41022 -3.0304 -1.08682 4.33738 -0.370506 -1.16226 -0.624472 0.38837 0.619009 -0.461409 -2.42354 -0.571253 0.562058 0.277627 0.349437 -0.983856 -0.972013 -0.643806 -0.33198 -1.02756 4.91785 0.453505 -1.16676 0.409253 2.295 4.51653 -0.000152593 -0.878224 0.125037 -0.437783 -0.322307 -1.3778 -0.227482 -0.860347 -0.694176 -0.406745 -0.0489901 0.131886 -2.78124 -1.54618 -0.400555 -2.02714 -0.379606 0.299131 -1.09845 -0.452376 3.20585 1.71279 8.67362 3.41597 -9.26425 -3.95931 -0.469518 0.121671 -2.64951 -0.767968 0.444014 -1.56094 -6.39324 -6.46223 0.24972 0.212043 -0.0696127 -1.09554 -0.552539 -4.31709 -0.364343 3.20545 1.72703 0.0193487 -0.366039 -6.42519 0.569018 1.25087 -0.968138 0.150601 -0.78803 0.228929 -1.38938 -0.371756 -0.886363 -0.679128 4.51459 3.41559 0.789324 0.339335 -0.155728 4.67129 -0.855129 -3.22258 4.1539 0.202795 0.467177 -2.4237 -0.859617 -7.08151 -0.755528 0.624127 0.26487 -3.04962 0.666159 0.369316 -6.34263 4.62812 0.662184 0.0953157 -0.369884 -0.4568 -1.34616 -2.36222 -0.510089 -0.885647 -0.0684586 -0.411394 0.519272 -0.532456 0.39955 0.674288 -0.883328 -7.5416 0.76241 4.04407 -0.228194 8.02333 3.66242 0.791894 -0.428205 0.218787 0.388407 -9.67293 -13.6258 -0.264846 0.919025 -0.0995933 -5.46677 3.05353 0.787896 -0.0929901 0.76726 -0.508866 -2.49178 -3.34165 -1.35029 1.87271 0.907804 -1.21903 -2.25756 8.81989 -0.661611 -1.74323 0.959716 0.939146 1.44497 -0.347963 -0.718693 -1.39986 0.353313 0.137669 1.91319 0.300394 -2.32789 -0.797581 1.46512 -0.362316 -0.112171 -0.110558 -4.41835 -1.88023 0.709922 0.282052 2.27667 -0.0113236 -0.565818 0.389752 0.226905 -0.975402 -1.2015 -3.42823 -0.987365 0.0493484 7.95119 -1.02425 -0.499466 -2.10991 -0.231452 -3.56633 0.401948 -1.71828 -3.61023 -1.87613 0.530229 -1.95806 2.44362 -0.871863 0.0169378 -4.26135 -6.05267 4.08015 1.6872 8.74282 -1.22707 -0.815699 -0.150975 0.509499 8.07498 -0.679621 -2.34298 -3.97137 -4.11993 -2.10413 0.854823 0.797296 1.95899 7.96101 5.41044 15.4343 -0.700792 -0.357616 0.38139 -3.40395 -0.660429 7.94005 -0.108676 12.7995 -1.86233 -7.65995 -0.284262 2.39559 -6.52419 -0.495874 -1.19118 -7.47819 6.61028 0.714682 4.13952 -0.690732 -0.0205469 -0.536988 0.298929 -2.65292 1.71029 -4.97785 -6.02715 0.287209 0.0535215 -6.77673 -3.62716 -3.24335 -7.15779 -1.98152 -0.840571 -0.563005 -1.42251 0.568786 0.180273 -0.231148 1.22328 0.50888 -0.208562 -1.77314 -0.749829 -2.57433 -1.43273 -3.15061 -0.515743 4.27212 -0.393676 0.522263 0.134707 -2.1328 5.93048 1.92945 -0.363445 2.08519 0.803003 0.682485 -2.09131 -0.721402 0.0496679 -1.42775 0.508499 -4.78663 0.327128 -0.753302 -1.35089 0.218142 -4.85243 6.18117 -0.0397351 -0.988006 -4.43941 1.7875 0.838464 12.7429 5.01548 -0.678718 -1.81866 -0.847926 -0.913689 -1.16469 -0.45735 -0.688233 -4.36802 0.467224 0.466567 -0.0795601 4.32329 -2.41196 3.55823 -2.87693 0.358373 -0.367077 -0.914617 4.97356 0.27637 -0.846156 0.919429 0.723069 -4.70723 -1.67516 1.3223 0.829962 -0.424381 0.686392 -1.2985 -1.78791 -1.0321 3.30367 -0.947311 0.275584 5.91998 -0.415693 -5.52176 -2.51311 -0.0297878 -3.62557 -0.891791 0.273385 -0.539349 -8.84999 -3.00625 0.000976322 0.833522 -0.268384 2.90047 -1.01404 -0.311984 4.47427 -7.89133 0.65746 -4.60576 0.643147 0.890622 0.549699 2.41058 0.436506 0.10303 0.660207 1.24502 -1.7507 -6.12203 4.68985 0.282876 -7.81817 -0.518174 -0.364238 0.967704 -3.1466 0.101711 -0.639823 -2.10598 2.74918 0.895062 -1.99479 0.451704 -1.78627 1.7948 0.641569 4.1176 -0.000429435 -0.592669 -8.5294 -3.70016 0.455428 -1.3707 0.441328 -0.220452 -0.503464 -7.24503 0.890048 0.887844 -2.65697 -2.43256 0.603516 -0.664083 -2.11029 0.0419935 -0.436257 -0.585423 -0.399152 0.272622 0.825526 2.42343 0.427259 -6.27805 5.76379 1.24218 -0.83776 -1.26743 -0.0375701 4.41355 0.238563 -1.18504 0.12479 -0.912717 3.57111 -0.744011 -0.830317 -2.24634 0.316233 1.04486 -0.389294 0.510797 -1.37576 0.987091 -1.23596 -1.189 0.000225178 9.35862 2.86897 -4.6518 -0.274983 10.6632 -0.332929 -10.213 1.33961 -5.17524 0.57976 -0.122684 -0.441359 4.55539 -4.00882 -0.757408 -1.29985 0.708213 -0.396215 -0.0368358 5.50122 -0.517078 0.0693426 -2.54604 -6.7063 2.5867 -7.4018 -4.77546 -0.950346 6.4702 -1.50016 -0.945799 -0.82173 -0.712394 -0.666189 0.883839 0.245243 5.03432 -1.11859 -3.98247 -1.65201 -0.569133 -0.339646 -0.909665 4.37539 8.9276 -1.82763 0.490836 -0.502144 -0.543017 -2.00353 -1.90156 -6.4053 -2.60075 9.64113 -5.19068 -2.28391 -1.34053 -0.768609 0.365367 -10.6149 2.9303 -2.34387 -1.3189 -0.937256 -1.08438 -2.22692 0.153294 -8.94454 -0.103303 -1.48474 -8.46004 2.39866 0.47115 -4.42175 -1.97032 -6.70751 -0.636155 -4.97795 0.0909969 0.0871914 -0.534165 3.12235 -2.42777 -1.53083 -3.32794 -1.30522 2.5128 5.23237 0.519639 -6.02074 -0.386721 0.525651 -3.67761 -6.15684 -4.44449 -3.60824 17.9268 4.48816 0.864852 -0.147189 -0.693957 -0.68865 -2.80977 1.54907 -1.61679 0.0256348 -5.32303 0.572924 6.62561 6.61442 -0.943061 -1.19449 -2.22214 0.933995 -2.07405 0.251686 6.16561 1.70288 0.190527 -0.455663 0.714435 0.307871 7.08939 0.678701 -5.33015 -1.70213 -0.732719 -0.808253 -6.15029 -0.577645 0.174474 -0.72275 0.452664 -0.587237 -4.91668 12.2692 -2.6173 -3.32345 0.81933 -0.719244 0.552971 -0.823775 0.80694 -3.57571 0.838136 -0.448286 -0.788027 -1.52816 -7.13735 -3.36927 -1.61218 2.93632 0.776696 -3.37713 -0.197058 0.350352 0.106031 0.238721 -0.378997 0.648401 -0.689107 -0.827632 0.872036 -0.923566 0.953342 -0.706688 -4.38264 -0.543768 -10.6307 -1.23005 0.250051 0.412027 -1.31101 -1.53193 -0.0338781 0.937535 -0.133049 0.670797 -3.45972 -4.62469 0.057741 -2.22661 4.21544 -0.317423 -0.332499 -0.0169073 0.692075 -6.70551 -2.07946 -0.209174 1.82639 -9.43419 6.07042 -0.611598 0.462591 -0.640461 -0.876003 -0.489323 -0.815721 -0.0263497 0.778938 0.335856 -3.06104 -1.04197 0.30064 0.733604 -0.119061 -0.180868 5.14603 0.4232 -0.526037 -0.217665 0.116062 -0.378826 -0.27332 -0.984712 0.863552 3.8915 0.223677 -2.14277 -3.00805 -0.932013 -2.57169 -0.515763 0.407523 0.853267 -2.35216 0.572324 7.85661 -0.978052 -2.05387 -1.39921 -5.19733 0.951842 -3.93008 -0.475997 0.704946 -0.822964 -0.484512 0.60624 -0.896786 -0.351029 0.966018 -1.48658 -9.02052 -1.13102 -0.199744 -3.11441 -0.0901624 2.4167 0.155431 -1.55631 0.268266 -13.1 -3.82102 -9.7382 0.949733 0.138906 -1.178 -1.53191 -6.59429 0.572384 4.8681 -1.19108 -1.14844 -1.4148 -1.63943 -0.654945 -4.28585 0.178961 -3.85745 -0.292673 -0.450423 3.29486 0.0972591 -0.360546 -3.26341 -3.68016 -4.97909 -0.324103 -0.860317 0.963073 0.0931582 -2.02276 -2.26071 -3.85942 -0.344745 -6.2973 0.499252 0.437808 -0.234893 -0.533742 -0.914903 -7.78033 -0.0590533 0.116367 0.960021 0.422834 -4.31209 -9.89516 -7.14876 -0.75399 2.86844 -0.13937 -0.16426 -0.0102965 -7.68287 -7.07675 0.383126 5.92147 -3.23761 0.926145 8.93137 1.03313 -3.18964 -0.982421 -3.80519 0.727348 1.14317 -0.949614 -2.79969 -4.95183 -2.14462 0.0325938 -1.72007 0.210547 -3.15031 1.9453 5.7519 -7.12599 -7.48591 -0.183473 7.23092 -2.99448 -8.64787 -7.0909 3.97426 -4.47162 6.24835 0.626728 2.50743 8.6277 -2.16368 0.523972 11.6353 -0.170415 -0.736644 -2.59475 2.54846 -1.07378 4.02943 3.18492 0.270421 6.58172 -3.42432 9.77065 1.60958 -1.84906 -4.4917 -3.10227 6.96741 -14.9268 -7.09727 -9.20376 -0.205451 -0.496949 1.42302 -9.09645 -2.6823 -3.53329 2.05613 -6.66644 -9.35278 -5.46691 3.52684 0.286843 4.41844 3.18822 1.55143 0.372173 -7.8016 -6.40208 3.97267 2.14684 0.392499 1.05222 3.07766 1.50151 4.69522 0.0641804 11.9063 5.77434 0.222144 4.71272 0.421711 -4.87895 4.93005 0.972956 -0.846915 -2.40406 -3.05636 -0.263987 3.01065 3.19212 -9.32513 -1.92704 0.484661 -1.30632 -6.5108 -0.560096 5.00922 0.401044 -1.10903 1.28799 0.8721 0.0732826 3.68025 0.110745 -9.10424 1.85078 -2.09868 6.28667 -1.58911 2.63233 -0.0334852 2.56106 -7.31592 0.39613 -0.350749 0.178491 -1.02443 1.36555 -0.261224 4.58506 0.218085 0.163039 -0.390576 -9.84647 -1.2591 7.65482 6.04991 5.80379 3.27593 -0.725172 -10.0083 7.43417 -5.24261 7.02322 -2.00591 -2.22706 -0.645109 0.712394 3.22457 3.53688 8.36857 -5.47227 2.39041 0.0306101 -0.262185 5.09056 -9.89613 0.0594286 0.080546 -8.86284 3.28567 -0.618023 -6.59451 -2.72844 -1.88302 -2.94781 0.543884 -10.4305 1.42078 -3.82552 5.82648 -4.44259 4.80094 0.801782 6.5764 -16.8468 0.0920743 -0.534488 0.623035 1.95741 -1.78422 -4.36706 2.82078 1.34081 2.74467 5.82397 -1.47168 -3.01952 0.0744957 0.836787 4.78209 -4.02368 3.31286 -3.46031 -0.444999 -6.84092 -1.72782 -1.99206 0.0630512 0.254882 -8.60886 -0.450235 3.11502 -2.01505 2.0002 2.84999 -2.54716 7.47427 2.9647 -13.9823 0.077029 2.53176 0.27131 -0.904472 -3.81214 12.0945 -1.52241 -0.427747 -2.94528 -4.65912 0.519444 0.256722 -0.137898 5.69633 -2.34658 1.77989 5.41681 7.71525 -10.1465 -12.4672 -6.47944 -1.3875 -3.83663 -0.201496 0.345661 3.29802 -0.747307 0.142949 -2.46207 -6.87758 -0.0982391 0.419019 -7.48263 0.438315 -5.25874 -1.16636 -0.297682 10.2573 -6.9173 9.46373 3.12195 -11.1964 -0.488083 -4.05866 1.88743 -3.01302 -3.62846 -3.4238 8.10707 -3.11777 -4.38061 -3.91696 2.773 -0.766076 -0.748741 -0.396602 -9.88725 0.606468 2.13125 4.01016 4.11921 -5.6282 0.313608 -0.358196 -9.73008 4.96014 1.83825 -8.31807 -0.354667 -3.59837 0.601917 -8.23866 -5.37371 -10.989 0.859432 -3.18064 -11.2319 -8.33581 -3.51453 -6.98381 -0.558484 4.52801 1.99938 -2.79022 -1.74867 -0.312816 -4.34178 -1.48003 -2.84972 -5.68386 0.505173 -1.76483 -2.55374 8.70517 -9.76799 -3.38949 -5.97196 -4.38545 -2.97329 -4.34759 0.772688 -1.38086 -0.312998 3.80971 -0.551271 7.73254 -1.40629 -3.81921 -1.14577 3.0156 4.91934 2.39335 10.5424 -1.10906 4.57987 -1.53846 -2.99247 4.56304 3.74909 -0.553301 0.727927 12.0022 -4.88029 -1.25056 -0.44911 -1.89422 0.648579 0.848867 -12.3073 -1.99158 -7.21534 0.996152 0.625568 -1.74287 -5.85719 6.4457 -2.06953 -1.63769 -5.80616 -7.75387 0.183294 -2.70314 4.99994 -1.26681 4.12521 -0.278259 7.05525 -2.32708 4.94951 3.88249 -2.35553 -4.74214 -5.70648 -0.120238 0.444147 -3.54112 -1.16974 -1.69955 -0.949086 -2.53059 -5.07877 -1.99348 3.50897 0.590228 -3.40439 -1.48397 -0.34954 -1.27646 0.89072 -2.86731 -8.07484 5.74315 -4.08707 6.33591 -4.03416 4.85927 -0.547172 10.4075 4.14067 -2.98116 4.05709 -4.52169 3.17505 0.178717 -3.6145 2.42134 3.68887 -0.525401 2.29907 0.417429 -1.13694 4.51337 8.75304 9.42625 -0.880537 2.17614 -5.76379 0.118608 -3.50251 4.22346 -9.78447 0.232349 -12.716 -1.20233 0.770165 -0.106235 7.08055 3.59921 -2.53279 0.743014 0.707391 5.13248 -1.46173 -8.18 0.156664 0.744553 -0.842616 -1.71218 -12.5912 -1.33861 -7.6361 0.766572 12.957 0.471965 -0.289111 -2.36921 7.0993 0.230113 -0.813959 -5.14314 7.89623 -4.87592 -3.27472 -1.21713 5.25181 -0.19602 11.6448 0.401646 -0.949468 -0.264626 -1.85672 -5.34018 0.956511 -2.91678 -0.965161 -11.0222 0.166363 -10.0846 0.844844 -3.15332 0.787984 8.52524 5.55771 0.654622 3.43975 4.08933 3.83992 2.0211 -3.06838 1.56533 -7.18345 0.729134 -5.37686 -0.334908 3.83813 3.25535 -2.31161 5.74898 -1.39766 -0.908048 1.72614 -0.663049 -1.25393 0.165502 -4.47589 -0.160612 -0.69097 6.02026 -7.32495 -5.23849 2.53151 -7.0688 5.17942 3.39069 -2.15754 -3.04736 -6.19584 8.89706 3.9238 0.311848 -0.814513 0.0620136 -4.17052 -7.1745 0.0949059 -4.61741 0.585257 -3.18339 -0.7669 1.75732 -0.325995 -5.62705 -6.46863 -1.77853 -1.07855 -0.789075 -0.445913 0.876705 2.41494 4.56553 -0.881588 2.35549 -0.632588 -0.830079 0.278856 -8.99217 -12.303 7.24755 -1.20665 -4.80685 2.18376 -6.85848 -13.2905 -13.555 -7.76488 9.46399 -2.27336 0.473488 -1.31048 -0.485298 7.01024 6.07149 -10.3121 -16.8691 -6.76575 6.10677 -4.5267 -0.643666 0.505912 -2.39149 -7.69239 -2.34779 0.675989 -0.74102 -3.7714 -11.9439 -0.450808 -6.20593 4.44104 -0.538846 -2.18289 -4.21211 10.631 -4.80435 -3.15103 4.78059 -5.11123 -1.6738 -4.93213 -4.88488 0.465468 -14.3442 5.83819 -0.984087 2.20515 -12.8199 -2.67052 3.70503 0.964011 5.49985 -3.27556 2.79343 6.15186 5.92089 -6.29307 -3.17591 4.60714 3.38234 4.33126 -9.20503 2.9011 -2.42918 -6.5999 -7.23124 11.2077 -3.57691 -0.733682 -0.425733 -4.7375 -2.49445 0.355122 -8.09154 -14.3268 -2.85523 0.354711 0.442873 3.32658 -0.546765 0.520412 -2.30815 9.81497 0.762597 4.64138 -0.0640278 -2.20701 7.28733 0.195716 -0.292779 2.47489 -1.64327 4.4527 -1.65353 -0.528517 -0.727226 -5.16938 -6.51233 -6.02978 6.02468 4.28868 1.18658 0.572378 -2.68125 -2.35606 2.52048 0.327677 -4.09819 0.088609 -6.37045 -7.75317 -4.8289 18.4925 -3.88822 -2.67479 1.72758 -0.0531022 -1.4067 -11.5547 -1.01105 3.08706 5.10584 11.0217 -6.83777 -0.769921 -0.409758 -5.5939 -3.97175 -2.32887 2.77491 17.2391 -7.7084 1.35521 -1.39001 4.53504 -1.49194 2.6013 5.54182 3.9663 7.68408 2.16103 2.00266 0.568285 7.07297 -2.64003 -1.97425 -0.13358 0.297617 -9.79551 3.16082 -1.71021 0.0526444 -1.95287 0.193029 -8.40926 11.8756 -3.42762 -0.402814 -0.29603 -4.52506 -8.31921 -5.62783 0.348277 0.144658 -3.49422 -7.25807 -9.78329 -0.812433 0.340406 2.76084 3.39755 -0.376904 1.41521 -3.26586 -0.547014 0.789544 0.348009 -0.454523 0.118778 2.41066 0.584091 -0.313005 -9.41135 -0.372648 1.72305 0.124546 7.62404 -0.678915 -4.26888 -3.0665 2.8233 -13.9382 8.99145 -7.55486 -4.43474 0.736363 -8.39509 -0.945047 -0.589373 -12.1109 -0.150365 -5.97036 0.340464 5.06302 2.8228 -0.273332 -4.47246 1.67764 -2.89666 -7.46141 3.90347 3.69986 0.871364 -4.35324 -2.55647 -6.11059 -1.20148 1.66567 2.35558 -16.1391 8.28932 11.8196 0.520035 -0.445967 4.15737 -0.712226 -14.4477 7.60939 -6.07801 -2.33266 3.62025 0.44557 -1.72665 -0.546342 4.49727 1.23345 0.988708 -0.868007 -5.39663 -9.13905 -3.51402 0.460958 0.602575 -0.393479 2.64494 3.42996 4.99707 4.05866 12.272 -8.82416 -0.128727 5.76003 10.3847 3.06146 1.67255 0.243559 -0.35609 -0.0473342 0.819117 0.535081 6.60122 -3.05786 -2.90506 -0.478786 -0.195723 -5.77466 -0.939849 -2.69274 -5.47572 5.02001 5.5753 3.27148 1.52029 0.846217 -13.6091 -3.72989 4.60245 -0.166601 13.7165 -4.30152 1.36434 -0.483047 -0.941282 -1.24676 10.1659 0.451979 -2.31227 0.212592 -4.52428 0.323475 -0.253375 5.61057 -0.703121 -5.98814 -0.147442 -5.013 3.40232 7.38089 5.20867 5.49468 -9.43601 0.942289 -1.28944 -1.75094 4.01663 -0.443123 2.52368 0.399884 0.203832 0.586283 -8.55347 3.59697 3.08336 -3.51277 4.30658 -0.228199 0.634679 11.1931 -2.72588 9.70011 -0.280133 2.8895 -1.19153 3.71183 -1.55534 1.39278 -0.717277 10.2119 -2.67473 5.34894 -0.132056 0.954165 -0.450179 0.0357407 -6.02515 5.51568 0.830468 -0.965209 4.04661 3.13977 6.17389 0.997406 -1.12402 -3.62361 -1.19887 0.471053 0.772637 6.77406 2.49677 -6.91568 -2.12434 -0.756366 -13.6537 -0.268534 0.560216 0.203009 -2.39771 -2.45186 9.50361 -1.31383 8.74457 -4.0555 3.96724 -3.95667 2.90665 -4.02274 -3.69356 1.25687 1.80942 -0.331013 10.1697 0.762596 4.78204 0.186773 -2.38919 -0.786624 1.32123 -9.58171 3.88496 -7.86911 -5.30254 -15.514 -1.48852 0.0744417 0.8445 0.20057 0.536968 2.51767 -1.95651 0.2626 -2.39933 -7.35825 -1.94118 5.92499 0.893797 -11.6169 -1.63648 1.01168 -2.54311 -7.7875 -0.42381 -1.17041 -10.8461 -8.50915 -2.59614 -13.499 -2.09813 -1.13742 -1.37111 5.11899 3.64658 -1.40952 -2.07655 0.416913 8.14874 8.06093 -4.31732 1.54146 -0.820204 -0.309 -0.245613 -3.81479 7.05732 0.753077 -3.13074 7.16735 0.475326 4.92921 -6.00661 -3.50213 -5.56105 10.8097 -2.54581 6.1149 -2.53481 -1.4406 -2.49341 -3.09751 -1.6853 -0.841487 5.61019 -12.3464 -0.692892 -0.104474 4.89567 1.62878 0.904935 6.84502 -3.15144 -3.84973 -1.4148 0.363806 4.37299 -0.896812 -0.774499 -0.515086 -2.73825 6.47549 -3.22982 -3.00159 -0.670797 0.0473952 -1.64347 -0.13724 0.587451 -11.0778 -1.5055 0.35377 -0.547701 2.07408 -4.7569 -3.20474 -3.97649 8.76881 -3.02334 -11.595 1.73624 -4.90101 0.481674 2.89817 -8.30523 -5.70041 -11.0368 -0.761803 -3.60437 -1.04325 -8.42628 -0.615436 -8.45937 1.49444 -1.60947 -0.862026 -16.774 6.20091 -5.70222 2.06736 -0.203253 -0.141854 -2.32703 -1.84216 15.7206 -1.49992 0.774346 0.825617 -2.27058 -2.02906 0.570788 0.325785 -2.06678 -1.78075 0.991699 -4.66456 4.73156 -9.53653 -0.435724 -3.78793 -2.25422 -1.19211 -0.0631706 9.41046 -7.77254 7.12256 0.032075 -8.42786 -5.61414 1.04811 2.38152 0.509885 16.8955 -4.35477 0.694967 -3.19726 -4.11942 6.54969 -18.0449 3.39596 -1.21339 1.89723 0.181188 -0.300119 -2.13602 -0.71361 -6.3131 4.68724 -8.28785 0.211341 -0.770318 -9.78293 9.69251 -3.72476 -0.116398 3.38088 3.48005 -4.79351 0.904862 -6.22893 -3.81819 -12.6889 -0.581161 0.979125 3.13343 -0.728887 6.91366 1.41264 -6.47031 4.47762 -0.0945769 -1.94352 -1.12363 -6.01131 -2.55319 3.12786 -2.38227 6.71544 4.18092 -6.08315 -9.0178 4.71176 0.041261 -3.30757 -4.82682 2.40487 3.03673 -2.74383 7.44396 3.93244 -1.11088 -6.01673 -5.00455 1.35046 2.96846 -1.32902 5.49345 2.72264 -4.52688 -0.827937 -0.336973 -20.4889 -0.72432 6.39886 -0.181532 -4.05818 0.961058 2.84077 -5.23531 0.37885 0.477425 -5.27143 0.70748 -1.95091 -0.161534 -2.23108 -1.24152 -3.05552 -3.94772 -7.26885 1.59355 0.326625 -6.70619 1.14654 -5.65506 -5.2042 -6.60001 2.02745 6.56711 0.367898 1.73741 -9.6094 -0.878293 5.55464 -10.2816 15.3338 1.61023 1.27741 5.64511 4.95401 4.31362 -6.95059 -1.30952 -0.0515763 0.0972578 4.9465 -5.14969 -1.74911 -1.90375 -3.20037 -1.3654 -0.516807 7.84864 1.13792 -2.41393 6.47323 -2.92479 3.5706 -3.42006 -0.548805 -5.95615 -8.24908 -5.61937 -0.606189 -0.120406 -1.35141 -0.00130676 -5.14308 2.53183 -0.799799 -2.2644 -3.51151 1.14039 -21.2952 -0.0532159 -6.72488 -2.09324 -3.85364 -0.229015 0.757772 -0.748899 0.84861 -2.56986 0.201757 -0.460891 -0.203871 1.72067 0.605382 -2.82526 -0.612415 -10.1598 -17.7879 -13.3444 0.00821662 2.06166 -1.42585 0.941099 0.388256 -10.8621 6.32381 4.4895 3.00234 -7.6096 4.9157 -1.75921 1.88726 -5.13646 1.67823 -0.879879 -3.6034 2.82691 5.94404 2.06006 -4.31839 -0.475577 -0.445112 -1.53454 -0.461528 -1.87939 0.835963 -6.09321 -4.65679 0.534623 5.81809 7.21627 2.33427 -1.98839 10.4713 -0.760216 -2.14837 0.336626 -4.32903 -5.91079 0.614185 -0.545996 -11.6526 14.2395 -3.94383 -0.262387 -4.434 0.725738 -0.687918 1.6927 -0.231483 -0.235967 -0.766381 -0.679064 5.70786 0.422101 3.31583 -6.35927 -0.457835 -8.14939 -0.644307 -5.75202 -1.99883 0.232643 -5.4983 5.3691 0.080111 4.49143 -7.32777 0.807341 4.04307 -6.21273 3.89004 10.5788 -1.00949 -9.19288 0.15488 0.261147 -1.98196 -0.709782 -4.93151 0.350992 0.179496 -0.0274972 2.06351 -0.36729 8.44327 3.20579 -1.73546 -1.08106 1.79296 4.62169 -6.05728 -2.69666 0.445875 -0.0697543 -11.7388 -1.76556 4.6848 -0.222757 2.24033 -1.65829 -1.90956 -6.56946 14.6297 -3.06458 -4.23094 6.75647 10.6458 -4.24454 -1.36616 3.28478 -2.71784 0.75914 6.23561 -4.22786 2.99439 -0.421592 -2.0529 -5.16486 4.45947 6.4954 -0.396771 2.42809 0.905667 3.32379 0.7026 2.86259 -0.53954 0.10478 -0.227227 0.748841 5.95693 -3.37881 -5.48928 1.04513 8.95655 5.5414 -6.46739 -2.22636 -1.15951 -1.42241 6.92201 -8.42731 1.09377 -3.90592 -0.600727 -0.653493 -8.40591 5.46236 -4.64494 -3.78184 -14.5118 -4.39641 -9.1715 -1.47656 -0.70783 -3.08683 -1.19051 0.0511249 -4.99508 8.69861 8.33409 -3.51999 -2.97309 -8.85398 -0.0239567 -1.14702 0.597362 4.71975 -11.2836 -6.70786 2.6249 -3.65405 4.72535 9.66257 -6.16754 -3.55608 0.536339 7.73773 -1.16142 1.32282 -0.527033 -1.96965 1.44955 -5.13667 -8.0779 4.50442 -0.0624409 1.25382 -0.758538 5.85867 -10.3086 0.710562 2.51421 -4.64727 -4.38462 -10.7946 1.46642 3.50164 -0.348094 -5.6544 -4.26444 -8.99213 -2.17969 -3.02335 12.3673 -6.01107 -10.3644 -11.2528 -1.55458 3.32954 -0.125156 8.47794 -3.91213 4.59826 -2.13415 3.73794 -8.73173 4.47209 -4.84975 -0.35313 2.14334 -3.79877 -2.11663 2.01834 0.805267 -5.57213 0.822586 0.297678 -7.40228 -1.98814 -0.572347 8.52028 2.24051 -1.42035 -1.99086 -6.81175 -12.5174 4.31943 -5.28143 -3.83033 8.31399 -2.42707 -0.359089 10.1588 -5.20641 -0.446364 -4.59444 4.32758 4.19061 0.973632 0.28074 -9.07788 -4.2149 -9.13597 0.534165 -2.80442 -2.6135 -2.77787 -3.87525 -8.51525 -0.137577 3.69179 -2.93179 1.24039 17.796 1.61368 -2.68868 -3.20496 14.1704 -5.71071 0.769219 9.82066 -6.21215 -0.611555 1.51728 2.6891 6.72821 1.85054 -0.979064 -0.16798 -1.76673 0.236152 -5.15277 3.05948 3.66049 -7.95311 13.8144 3.55857 0.925352 3.37758 -0.447584 8.89922 -1.68818 -0.721796 -14.5316 -5.77878 -4.12783 3.4711 -0.429353 0.706112 0.627025 -0.650466 2.3671 1.54705 0.797969 -2.28059 -5.83773 9.67413 -3.96614 -5.95204 -3.95557 -0.154796 7.51283 5.65381 -6.19407 -0.646809 2.35123 -3.60434 5.17088 2.32609 -4.30027 2.56312 3.44737 -7.61806 -11.0319 -5.01299 8.6936 -11.1281 -2.61379 -12.4356 -4.47589 2.37506 2.12154 5.24762 0.456526 4.05438 -0.26719 -2.85921 -1.54743 -0.60799 -0.50029 -9.6989 0.783099 2.06444 -2.79069 0.855739 -0.841499 -7.17843 6.22318 9.5811 5.51663 2.94458 -0.46259 0.965209 2.12778 -5.66598 -6.54869 3.66993 0.176163 -0.422803 0.0423902 0.530778 0.463057 -1.41219 4.31734 11.0981 0.539735 5.232 3.73984 7.48043 2.01362 -4.58742 -2.34149 17.2534 2.26375 4.48366 0.603777 5.97404 -2.12354 1.77298 0.836695 10.8743 -1.37292 3.03204 -0.915647 -3.21292 -0.323851 -13.4374 0.740501 -6.65443 -0.508377 -9.74986 4.84857 -1.48706 -5.28689 1.59574 -8.22234 -0.645904 11.0117 0.604684 -0.296379 -4.29319 0.466078 -11.4408 -0.430036 -2.77845 1.8744 0.0683004 8.91337 5.57308 0.634053 -0.922753 1.50254 -5.12024 -1.97245 -4.59735 1.39297 2.87104 -4.76115 -2.39424 -0.854572 -2.35219 0.604029 0.497363 1.62493 -3.51749 -0.508135 -4.97722 3.33412 0.0580157 3.73304 -5.36946 -9.42167 1.20682 -1.06824 1.42546 1.11286 -0.854098 1.23036 -1.15039 3.96901 -13.0448 -1.46452 -2.32872 -0.598102 16.2122 6.45195 -2.57247 2.48827 0.866024 -0.407357 -6.80111 -0.720329 -0.757751 0.935148 -4.04228 -12.8771 0.320566 -6.64377 10.3491 -7.3673 5.78166 -4.18378 5.01494 -4.79538 -4.76387 -7.84313 -1.15831 13.8792 -3.05595 0.432394 -0.0832545 7.20175 7.44833 4.14499 -2.31884 0.687613 -2.42059 4.1535 -3.26778 -0.41346 -4.74944 -10.6089 8.98405 -2.42372 -5.23496 -0.587329 -0.248207 -9.32228 -0.196883 2.55628 6.44304 2.08103 -2.16017 7.0478 5.13955 -5.64895 -0.416627 0.617724 1.26972 0.51204 0.185446 -3.59194 -0.113424 2.2392 5.45173 -1.87077 3.03732 7.2681 -2.85917 0.592578 5.82345 2.08723 -0.083866 -5.07876 1.78965 -0.0611896 3.26971 -6.45491 -5.6655 -0.811729 9.6883 0.605029 0.385174 -6.21571 3.48656 -0.169619 0.148808 4.27041 -1.75287 0.70275 8.49725 -3.0591 5.56841 -0.802505 -0.317972 10.1466 -0.28489 -4.19342 -0.814055 0.952452 2.42867 0.09888 -2.72355 0.154558 -0.499194 0.665059 0.0696127 3.56938 -0.169337 6.25798 -4.42658 -4.37106 9.76345 -2.75495 8.06598 -0.0722068 -0.747002 0.203925 -1.27598 -10.1246 8.87389 -0.350465 3.17192 1.02185 4.73399 3.65141 -0.450026 -6.73319 3.81029 0.104678 2.20202 -8.80902 -0.767007 6.09653 1.90645 -9.5771 2.53048 -4.09231 14.7147 -2.82291 -0.997284 -0.292413 -8.58288 -0.27051 0.900712 -0.739446 -2.74588 0.976812 -9.08453 -0.126347 7.32806 5.92889 1.77103 4.98189 0.907377 -3.54229 -13.2113 0.0788357 -3.37476 -2.09633 1.51611 -5.40011 -0.301159 0.503922 -0.257668 -0.746788 -3.88419 -5.06177 0.888607 0.927427 1.01864 2.30545 0.518937 -9.71029 -0.610981 9.67276 0.304998 3.53151 -8.79001 -0.355259 -0.240852 2.28636 -9.0673 0.267547 0.633166 -4.37892 -3.25087 -2.92338 -1.82127 -0.759811 -4.47265 -0.904447 -0.145878 -0.178107 -1.5089 2.1656 4.22954 -0.950195 0.682624 3.14473 -0.904355 -0.242988 -3.81166 1.64181 -0.95468 -0.506764 -3.33961 -12.0067 0.860622 2.01353 2.06932 -3.90089 0.0992462 -0.5893 0.962157 1.89419 -2.46184 -6.80199 -4.30553 3.28955 6.6662 -0.133838 -4.12441 -0.911252 -1.23483 -6.56997 5.46196 1.83329 -0.139042 -2.46995 3.90414 1.09205 -3.005 -3.04333 2.25496 -2.32629 -1.55314 3.25164 2.19231 1.21538 -0.73516 1.25646 -1.46694 2.38742 -6.17512 3.24195 -5.53006 -9.42442 -4.14394 -5.98816 -2.54365 1.09868 0.114802 -3.40093 0.664231 -1.39439 -5.62258 0.475112 -0.267586 -9.99846 -5.0258 -5.8516 0.1077 7.00868 -0.858394 -3.99396 -0.424785 -6.46142 5.05264 -6.67084 -0.871883 -6.60957 -0.897763 -0.317721 6.89792 -0.509754 2.57801 -3.91913 -4.48362 0.180273 -1.92761 -2.20634 -2.75635 -3.75492 -6.44843 -6.02337 -1.13253 2.27489 -0.883769 2.62767 6.53252 11.8312 1.48092 -12.501 -2.72646 -0.990844 -11.0521 3.22218 -3.94032 9.76306 -6.24679 -0.301065 2.41632 -0.534419 -5.93509 -6.41031 -2.17134 4.42793 -10.1128 3.05587 0.021821 -0.371315 3.02968 1.48945 1.52841 -5.47497 2.77275 14.4837 8.4998 -0.884126 -0.955902 0.161687 7.38989 0.406701 6.35219 6.63309 -2.70116 0.780114 0.0727561 -0.818782 -12.0169 -0.0862886 -3.91139 2.82921 2.46108 1.18378 2.10691 -9.76153 -7.73469 -0.654408 -1.82535 -0.46883 -0.576622 -1.43599 0.248715 0.120548 4.3162 0.197455 -2.33056 3.75173 3.17738 2.40597 -2.8842 5.92682 0.535997 0.600691 -2.99146 1.61137 -0.952992 -1.1653 -1.75389 -1.07148 -1.33397 -3.14286 6.97059 -1.13724 0.462029 -2.24363 -4.57084 0.153531 4.02056 -0.0418389 3.46706 -1.00481 -2.59892 -8.05114 -4.88022 -0.584094 -1.98672 -0.928953 -0.339732 -5.77345 -1.15434 -1.25736 0.567351 -12.2536 -0.33256 3.74806 -0.365491 7.04874 -2.76446 0.528642 -4.91181 -0.0256873 -2.86701 4.64288 -0.385693 2.96147 0.257104 5.63276 2.57487 -0.762871 -6.40869 0.615284 0.885617 -0.153797 4.33503 0.549486 0.985167 -1.20076 9.18505 -0.218818 -2.87435 -4.09548 -0.137669 -1.1236 5.06678 1.71426 -1.83242 -1.29112 -9.86076 -0.611379 4.65283 1.5674 -0.234338 -21.7065 -0.0264393 3.12894 -2.66829 0.76043 3.32197 -2.50916 5.6926 -1.82943 0.32667 -2.28759 0.872372 2.49065 1.34441 -0.327959 -9.61564 -6.22131 3.52555 -12.6329 1.31093 0.274697 -3.12588 0.409468 -0.962951 2.0409 -0.515143 -0.162722 -0.0280346 -2.16192 -12.775 -2.41259 -3.57302 8.41089 4.95834 8.08756 -2.32481 4.49151 -4.36812 4.24663 -1.88778 8.11562 -0.400555 -8.90221 -0.493393 -5.4976 2.72053 -1.99613 -8.3576 -1.78167 -2.88667 0.408399 1.29869 4.62622 -1.89363 6.19156 -4.30487 0.715362 0.81579 7.31882 -0.114517 -4.36646 -0.617915 -1.65466 -5.32454 -1.2087 4.73831 1.48504 5.9915 1.66206 5.81025 -0.71227 4.51192 -1.31399 0.0166599 -0.716693 -0.752597 1.58789 4.07685 0.0138558 4.20405 -0.285137 0.388714 -6.56002 -0.241716 0.93994 0.412572 0.696429 -12.1725 1.64478 -0.922315 -4.38977 -1.16975 3.31834 -0.440387 0.700919 9.76221 -7.18237 6.92122 -3.57233 -4.91841 0.475808 -2.40131 -1.65946 -0.300729 -2.74832 -3.16671 -0.732035 -2.84704 -0.907864 2.39517 -3.5639 -5.82761 2.39209 3.68281 0.447859 6.79587 0.393994 -0.232854 -1.49341 -1.26599 -14.4232 2.78815 -3.30987 0.743693 -0.989845 3.32608 -0.99823 1.44974 4.42127 -0.0350354 3.1755 0.683706 -6.34755 1.51058 -3.01132 -2.2389 0.622931 0.43025 0.0372326 -4.12868 -11.368 -4.5904 8.19942 2.99872 6.4281 -1.20717 2.10988 0.174078 0.21189 0.653815 -0.886096 -9.76583 -0.572502 -7.72847 -8.87736 0.164037 9.99247 -4.19488 3.68035 -2.68435 6.71028 -5.15789 4.92384 -7.79193 -6.64476 2.48258 -3.89152 0.896724 -3.2574 -4.73953 -0.2432 -6.98365 -7.2401 0.999756 -16.7767 -4.32998 -6.86528 -0.898755 -0.518815 -4.7153 0.977422 4.99268 -0.416547 -7.77147 4.16467 -4.55057 3.50651 0.296786 0.770074 -0.054445 -2.77636 7.73989 -2.96112 2.34871 0.897488 1.74943 5.22271 9.52678 -0.852596 6.48157 -4.52111 4.78142 -0.541016 -3.26204 1.6524 0.553209 -0.084109 -0.891221 -4.72604 0.79458 -0.0856419 2.69063 4.33812 -0.630192 0.144902 -0.029892 -0.249153 0.843348 -0.180883 0.0207239 2.59425 -6.35939 0.641234 -3.32944 -3.31562 -6.39138 -0.224159 -0.966162 -0.226386 -1.92718 -2.09926 -0.575292 3.1848 -0.2866 -0.832077 5.31763 4.87707 -0.669731 -5.21322 4.4846 -7.54788 -7.24697 -0.321386 0.61507 -1.16003 4.60942 4.05121 -4.60219 -0.552156 -0.828491 -3.77804 -1.83338 -3.07681 -1.94862 4.95563 -1.6283 -2.33344 0.0238842 -4.00509 3.08131 -5.1182 -4.52799 -0.958495 1.53848 -0.318003 -0.240285 2.82351 0.597247 -0.00946074 4.42358 -3.44084 -3.79737 4.29141 -1.49088 0.218329 3.20283 -0.152441 -7.07012 5.98773 -1.74805 0.917987 0.124241 -11.2891 -0.535212 1.70987 -0.687913 2.24296 0.560961 -0.781152 0.363567 0.0964856 -1.5374 -7.5584 -3.77497 -4.14058 -0.866268 -4.47996 -8.12482 -2.28282 -2.34389 1.203 2.04637 3.60085 -9.62778 -0.0957976 -4.78951 -0.443603 -2.83624 -1.23969 -1.24988 0.680239 -2.88123 -0.410627 3.30761 4.56047 0.0362585 -0.85165 7.15349 -0.824458 -4.18753 -4.84403 -4.06305 7.69209 4.30604 -1.43318 -2.55747 16.5554 8.4444 -2.46965 -3.2279 -2.17076 6.81932 -0.355174 -5.40225 -2.36529 -4.52704 -13.4089 -0.0610673 -0.0689718 2.65169 23.8248 -8.23869 5.10139 -1.14691 -1.90718 0.294785 0.00655991 -0.517474 -0.745041 7.02081 -5.4516 -2.98136 0.823074 5.09263 0.867858 -0.458276 -1.67282 -0.496475 -13.7049 0.89871 1.77132 1.38512 -0.594563 -4.39288 -17.6854 8.32149 -0.558054 -7.17531 -0.787433 -9.17007 -11.4429 0.180234 -0.665059 -3.57523 3.08572 -1.33804 -0.787355 0.977111 4.0783 -3.16409 -3.41386 -5.52126 3.15394 9.37971 0.978414 4.32831 -4.71898 -5.1773 3.31642 -15.4573 3.79369 4.9385 -6.68314 3.73519 -5.87913 -2.01117 -9.30003 -3.36193 -3.38256 -0.640614 0.593334 2.73307 -7.20681 0.53853 -0.5627 6.38031 5.69157 4.43812 6.44788 1.36532 -0.379922 5.61818 8.91737 2.41452 -0.834698 0.0200507 -2.4727 -8.35786 -11.0966 6.70441 1.84175 -0.199503 -5.13402 1.75783 2.60103 -2.04251 0.644858 6.46147 -1.2879 1.50072 -2.05407 -0.902185 4.00591 -5.88099 -4.94298 -2.04855 -0.0738458 7.525 0.830543 1.28108 -2.1328 -2.36733 -10.0264 -0.75594 0.45497 -1.42778 -2.43278 -6.53736 -11.0996 -7.05708 -0.243843 0.136204 -2.38807 4.99984 -1.49381 -4.09643 -6.28213 -1.45037 -0.82879 1.18743 8.56221 -5.9584 -3.23265 1.82431 -7.86935 -0.871722 10.74 -20.5536 5.42657 -6.0334 0.608509 -2.95408 -7.1027 0.966063 -0.567394 0.741295 -11.9091 3.70638 -4.0519 -6.96765 11.7674 9.11701 -2.77373 0.810737 5.91238 0.0875576 -0.707846 -0.914548 -8.09795 0.514624 0.689169 3.9237 -0.433255 -9.59429 -13.5761 -0.310612 -1.54959 2.44581 0.703482 -4.27251 -2.07664 3.17765 -2.97607 8.84872 4.86679 -2.45167 7.30768 -3.51837 2.58209 0.0810877 -1.80556 1.28105 -0.381642 11.1065 -0.192469 -3.80329 -2.5669 -12.4007 -0.911252 0.376881 -5.32405 1.46082 -3.94748 -0.832843 7.48346 8.82065 0.066499 -0.793298 1.62371 -2.1256 -0.560543 -9.71024 0.132119 -0.513169 -0.857906 -2.87675 -0.152346 -0.919523 -0.688162 -1.15301 2.61651 -3.7587 -3.55206 0.607285 -13.1938 3.4278 4.65993 5.798 3.04868 -0.662252 -2.74254 1.37077 -0.869748 -0.209973 10.4805 -0.291333 -0.713314 9.76376 -0.671409 -8.78627 0.0757034 0.698965 4.99113 0.494822 9.06272 10.7933 4.00364 -1.47272 0.159956 -0.92584 -0.840236 -1.63107 3.59709 -3.32614 -2.84507 -17.5979 2.25849 -0.275491 4.62703 4.62978 -4.40466 -0.190133 3.96636 -5.40915 3.08077 1.69159 18.3822 -2.97974 -9.99772 2.27829 -4.55355 3.37788 0.596088 1.56711 12.7638 -1.47235 -1.47826 0.345378 9.85632 -2.16783 -4.61705 5.1205 0.274955 1.46222 -2.10613 -0.466717 -3.55741 -4.34778 0.72527 -0.850154 -6.07732 2.59029 -4.91003 -2.57592 -1.26539 1.02569 -3.75909 -2.91483 -3.5541 -1.06837 2.03413 -0.475883 0.671386 5.37682 4.44954 -0.877242 -0.155278 -0.44594 -4.19991 1.81313 -7.20553 -0.950713 1.36269 -0.79577 14.0173 -3.23479 -0.972626 13.9226 3.03326 0.20426 7.69888 0.887539 6.53153 -1.44755 0.313063 -5.86554 -10.0797 -3.67984 1.93809 -1.76769 -6.62895 -4.60644 -5.89982 -0.267394 -1.76445 -0.970746 -2.77576 -3.61722 -0.861766 -2.87287 -7.98172 -2.39432 8.67125 5.49823 0.412031 -0.661406 -8.95444 -1.08857 -1.82241 3.83031 -0.144169 -1.84932 -5.09582 0.705901 -2.90643 -2.53029 -0.607793 3.61291 2.14539 -2.03118 -0.759573 2.01975 -4.89297 -2.63593 0.41739 -1.95136 0.985117 -15.3175 5.93897 9.45603 -0.017304 -2.65757 -5.92825 -1.65029 -5.87172 -9.62454 -0.518693 -0.779168 -13.2809 5.40356 -14.0641 0.874691 6.79969 4.02295 -19.9669 2.74978 0.0272723 -8.52048 -1.15872 5.36211 -5.80849 -0.176 -0.582825 -2.62154 -1.4914 -0.255657 -0.999221 4.23911 -4.19299 -1.55165 0.0165471 -0.938545 -0.786347 -0.806207 -2.04966 -16.0916 -8.77723 -2.23706 -3.51342 1.62977 5.92634 4.01348 3.30103 3.41688 -1.63159 -2.02557 10.2886 4.46079 1.49201 0.931669 -0.487033 -1.07952 4.10572 1.3468 -1.531 -3.2941 -0.374706 -2.82797 1.8742 -0.742546 -0.860052 7.26109 10.2325 3.90038 -5.82835 -0.122471 0.292662 4.00253 1.25162 -3.74762 -0.182348 -0.241712 -5.25826 0.960166 2.38744 0.517698 -1.3782 3.38958 0.976171 3.17105 0.774529 4.21523 2.3497 0.728621 2.13883 -10.0239 -2.77034 0.21703 -11.7344 1.32133 -0.54265 -1.1219 4.10843 0.974853 6.29875 3.81458 6.9573 0.690007 1.69312 11.2044 -0.441831 -6.04607 3.82114 -17.8428 -6.60357 4.3958 4.36166 -0.29294 0.545854 1.04803 -0.512343 -0.648624 10.8527 0.0910563 -2.17614 -0.63802 1.38824 8.01786 3.20374 -0.0404029 -3.36442 -6.33427 2.53034 0.231164 -0.506149 8.99043 0.618575 -0.780469 -1.9585 -3.70845 -0.278502 -2.79829 -7.64221 -5.63557 0.863088 4.74796 13.3153 2.64488 -2.3117 -11.753 -0.0817148 -15.1824 0.60562 -4.7381 -1.96724 9.93434 -2.26991 1.39123 -6.16888 -0.167793 -8.06116 -2.9365 -3.50771 -3.79777 0.974853 -2.24754 -0.00789418 0.553305 -1.84415 2.92057 0.902615 -0.807168 2.87658 -3.63968 5.40906 3.10215 -5.2733 -5.40691 6.77261 -7.50796 1.51811 -1.98846 -9.95518 -6.30153 2.75772 -4.88006 -0.977844 0.408887 -11.1542 -4.76316 3.72951 -0.23187 1.25504 -3.03417 11.0498 4.53674 1.31403 5.81954 2.58951 -1.5235 -11.072 -9.64342 -3.75443 3.57691 -2.51942 3.1565 -2.53427 8.49364 0.957599 -3.96902 11.438 -9.96856 -8.37815 0.232162 0.407758 -0.0529575 3.07159 5.73395 -5.86167 1.12943 -0.191184 -8.87968 3.7923 -1.08956 1.74295 -3.73554 -2.61674 -4.81108 -0.618061 -2.80052 -0.604846 -1.91338 0.225211 -0.590564 -0.494791 -5.89093 3.42869 -2.12896 6.35159 -2.56759 -0.600909 1.70193 6.23058 2.13749 -9.19158 -0.532166 -11.9722 5.29172 -8.97163 22.1265 -10.6055 -5.45788 -1.51722 4.69554 -2.70553 3.82199 13.1737 -12.2199 -9.86494 2.63644 0.875852 0.727958 4.23387 -1.39916 5.64247 10.5614 -3.7575 4.45249 -6.19593 -0.0458083 2.21521 -16.6809 7.66566 -8.5563 2.20628 -13.5871 6.20942 -8.98169 -2.07921 3.5048 -11.9965 -1.84444 -5.84054 0.622992 -4.32245 -4.23181 -1.66243 -0.656148 7.67956 5.84123 -4.69302 -0.037965 0.294504 1.8562 -2.18681 -8.3868 0.795251 -7.03196 -5.58589 -3.12412 -8.76969 18.5277 0.342662 -0.044496 -7.69836 4.46459 -10.1664 2.42051 -0.882474 1.71869 -5.35603 -11.5983 -0.615253 3.71287 4.68567 -3.06901 8.09502 3.86265 -8.62716 -0.956603 0.264473 7.5705 -3.89311 0.708884 -1.88505 0.444684 6.87724 10.8857 -1.99536 -2.95678 0.954283 -0.453609 0.759178 -5.61424 0.454471 3.56826 -12.0811 2.40477 1.19186 -5.9088 0.377666 8.21409 0.85284 0.877431 4.84651 -0.206946 -0.258593 0.0414424 -0.403486 -5.21021 1.75485 -5.81568 -3.09616 -0.798718 -7.89253 1.21516 9.03648 0.749992 -4.77384 3.54506 1.56367 2.79799 2.61466 7.67905 -3.10038 -8.0679 -3.31803 6.76841 -5.61037 3.16479 3.65939 -7.137 8.10427 5.10403 -4.20549 1.24602 -0.0643635 3.15563 -1.51348 4.2802 5.90465 -0.0909965 -0.285501 -4.6781 -5.31234 0.443808 -0.910127 -4.49499 -0.647598 9.45901 -4.42165 3.48313 -1.92094 -3.82918 5.86904 -0.91998 9.52189 -2.56717 2.70603 5.26173 3.29644 0.171087 1.06097 -0.842555 0.532365 5.30139 6.87507 -0.110548 -4.51455 -9.48834 -8.2615 5.4526 4.68555 -3.57819 -0.39228 -4.48919 -9.45491 3.1294 -0.514603 7.24723 5.11968 -5.11217 0.913053 0.570679 -2.00814 6.12776 0.395764 -2.6881 -2.77868 -3.70886 0.962584 -0.344805 0.530869 8.23974 0.845156 3.83521 -1.23274 0.384289 7.30862 -0.281934 -4.72539 -6.17869 -23.588 -0.147906 1.47771 -3.26365 0.197485 -0.11142 -1.69078 0.450941 4.28901 -17.3761 -0.601581 -0.0126877 -6.89152 1.80662 -3.07706 -3.61819 1.05627 -1.54586 -2.57384 -2.45446 -1.28971 1.28136 1.47235 3.04722 1.51448 1.334 4.96294 7.47372 -0.535375 0.270028 -0.921886 2.86752 -0.547471 6.42082 11.3787 6.57319 4.07955 1.43785 -4.41731 0.977264 -0.769625 -12.7496 0.0088208 -2.23043 0.639424 0.000702972 -2.40316 -0.583715 0.778997 0.943907 -3.18694 -0.399365 1.3223 -6.36885 0.872646 -18.4501 -11.4716 0.358379 -1.94764 -2.66328 -0.402999 -0.55761 -3.1299 -0.758008 -8.49928 -2.68739 -4.37772 -0.660492 -5.58217 8.71491 -0.411237 -0.610187 -6.26572 -0.755864 -2.47633 -0.451195 0.325236 0.247068 2.05386 0.832249 1.815 -10.7138 1.55832 -9.06384 -1.20488 -1.07026 -0.685842 0.964507 -1.75252 -6.8863 -0.902604 -7.5294 -0.131748 -0.816735 -6.68194 -6.3699 3.19598 0.276315 8.64497 0.047747 -0.568468 3.78619 -6.68613 -1.42525 1.06478 1.64362 -1.70386 -1.33466 -8.48722 2.16967 -7.44545 -1.88579 -2.27681 1.27945 -5.52387 -0.69494 0.863277 -0.899503 -7.16018 -4.98092 -4.31659 -9.33841 -0.117527 0.222755 0.153711 -0.811353 -14.3181 -3.39888 -4.8062 -0.187353 7.19526 0.738942 -7.9375 1.81363 8.50938 -0.228067 -4.54162 -3.52893 -2.18656 3.44022 1.78447 -4.337 0.790246 1.33425 -8.21388 6.51708 -9.14531 -0.958827 0.146057 -1.55171 -4.26759 -1.33981 1.96165 -5.73538 -1.49393 -6.95064 0.322671 0.673238 0.0267195 3.68274 1.71299 -4.21851 -0.420077 -2.15093 -0.502275 -2.64843 -1.74929 0.168151 5.8758 -2.29692 0.95526 -2.64327 -0.0323506 -2.17465 -5.00013 -0.0817896 -2.94545 1.98474 9.66362 0.831341 8.73766 -0.661794 2.08104 0.673956 -4.30772 -4.47661 -0.845698 6.27695 2.09017 -6.25014 -0.519059 0.809185 -4.76149 -3.14992 -4.83549 2.51652 -9.00871 -8.05785 2.08341 -0.431593 -1.12725 1.43787 -0.575461 -0.13648 -0.790885 0.721244 0.503433 5.92456 -3.01416 0.988128 -0.634358 12.3228 2.38159 0.636006 1.98065 -0.781976 -2.40715 0.265892 -4.64113 -4.09322 -2.51123 0.0138554 -0.340189 -2.18685 -0.463455 -0.635762 -1.65796 -7.9515 -0.395551 -4.68899 -1.85183 3.10164 0.406507 -0.273476 -0.0679994 5.81271 0.2949 -8.51801 -2.4355 -0.778364 -5.72197 -0.634571 -0.901761 6.93847 3.36199 3.05673 5.09703 -5.21057 8.82886 0.306528 7.34282 -0.855681 -0.366263 0.637356 -3.59891 11.3196 4.79608 -4.0287 -3.88666 -0.162449 1.50671 -3.47452 13.0859 -0.500462 0.555956 -12.4 -1.96908 -0.334485 -0.860305 -0.230354 -3.53418 12.5826 -4.44263 11.1488 -14.1103 5.98482 4.13067 -2.45339 5.76327 5.54953 -9.95138 0.00308237 -0.876551 8.69441 1.7738 -0.696651 -1.62815 1.07965 -2.15624 -1.06058 6.8961 -9.50657 -11.0562 -0.689151 7.21961 -0.957248 -1.69886 0.0516404 0.0317087 -0.460982 -0.316432 -12.0978 6.29649 -0.117252 -3.59066 -0.457686 -0.109569 -3.17825 5.83257 -2.72643 0.945791 -0.0726035 -5.27629 3.10827 0.973594 -3.89535 -5.74294 2.30343 1.88988 -0.489764 3.00832 -0.544548 2.48359 -1.24768 -0.440669 3.14924 -3.03426 -10.8675 3.6697 7.36682 -2.86785 5.39094 1.81677 -9.72277 -0.0649234 -0.531882 2.18338 -17.0067 -1.03846 -1.16398 -0.284689 -4.61635 -0.471267 -0.593767 -5.42655 1.95329 -0.543598 -0.802973 0.044553 -0.540929 0.732333 1.57795 0.997637 2.49867 -4.04911 -0.383798 -1.25188 -7.35852 4.72649 -1.28558 0.0454237 5.3917 -0.575931 1.02828 -0.900976 1.38419 -0.87297 13.7138 -0.557757 0.335734 -3.38473 -6.77978 -3.51441 -1.45051 -0.0406812 -4.0227 4.47091 1.06082 -12.12 -11.4256 -0.872311 6.07348 -0.0495728 -0.192267 0.621906 -3.80998 -0.800035 -0.517353 -2.56063 1.45046 -2.37624 3.55896 -3.6173 4.25845 13.9048 -0.948485 -1.043 1.4746 -11.2711 -0.765016 7.11208 -7.7964 0.973668 -0.908109 -5.31435 -7.16002 -4.30164 -0.0249947 5.19716 -1.92919 2.41177 1.69265 11.1433 -14.3837 -0.515154 -6.96448 0.565813 0.312213 0.241249 0.0749049 1.75544 0.176153 2.8429 -2.24539 -6.41472 0.997376 -3.44961 0.899472 -1.6569 -0.654012 -3.35929 0.780653 -0.702597 -4.37585 -0.470781 -12.6553 -1.33592 0.199255 -8.71216 11.6004 0.520484 2.81789 -0.236549 -2.25407 -0.486404 -1.00828 2.09596 2.39603 -0.133427 -1.03904 -5.97732 2.94344 0.896481 9.78317 6.60334 -0.140782 -1.94124 -3.21942 -9.20109 -0.761 -0.850144 -2.09834 -11.6229 -0.210675 -10.9692 -1.86833 1.50886 -3.0135 -0.0128428 -3.46843 0.81286 0.551626 1.5988 -1.92463 0.233002 -0.031251 -0.122428 0.192907 -3.37591 2.81197 3.98896 -3.47968 2.01525 -3.04787 4.39099 -0.902281 0.0546892 -2.01906 -1.78105 0.445662 0.272845 -0.493394 0.561663 -3.19247 -8.19556 5.37149 -1.58899 -5.54863 -5.41513 0.806018 6.29873 4.3597 8.43127 -6.506 -7.35605 -0.703543 -7.1661 -0.765069 4.79949 -2.63054 -7.40866 -9.85508 9.09565 -7.80897 -1.96028 0.108363 -0.381756 1.40478 -7.4725 -6.93497 -1.90351 -2.6026 0.331645 -1.89051 8.65339 -1.70322 1.48808 -0.580784 0.618503 -4.25636 10.6089 -7.60028 -2.64317 -2.57507 2.52247 -10.2112 3.91134 3.14169 -2.2386 0.830927 2.60247 4.91271 -2.41117 7.30404 0.502986 -0.540205 3.68085 0.147679 4.76811 -0.366462 0.464177 -4.40783 3.02972 -0.653019 -4.43226 4.17188 -0.229373 -5.44053 -4.17857 -4.39496 -0.85464 -7.53415 0.087766 -3.77394 -8.13537 3.05511 1.82911 -5.28643 0.417649 -1.81249 5.99829 0.170533 1.77716 7.96262 -0.0622578 -0.587144 8.95198 3.37096 -7.71526 -10.3685 0.584216 -5.11028 0.775018 2.0822 2.56017 4.15781 3.82475 -1.36863 -4.93662 -4.95482 -8.84189 -1.94961 -0.937712 -2.07044 -2.24338 -4.4991 0.357512 -0.560106 -7.50589 -3.34805 -1.63744 4.62779 -3.20003 0.131719 6.06318 -12.1533 -7.48555 -0.73364 -6.40656 -0.330383 0.000180518 -0.918363 4.18895 0.582568 0.114733 -6.15133 4.49839 -2.44919 6.86158 2.81692 -6.59533 -0.953978 -0.324385 13.7676 -0.979875 2.32092 2.80838 -7.50677 -8.77869 1.10684 7.13344 1.14571 1.0677 -0.67852 -4.90125 -1.43727 -3.63844 -2.68774 5.51258 -0.514939 -4.85111 0.666986 5.14628 0.61446 0.591723 -7.0835 -3.79253 5.52356 -0.0244453 2.95952 7.51657 7.26894 -0.720158 -4.38764 -0.217872 -0.526322 6.94758 -9.33548 0.514869 0.767395 0.29487 -0.240928 -6.75342 10.8761 -0.428419 6.14673 1.54708 -7.43512 -2.75542 -2.71022 0.0973621 0.0457167 0.165746 8.58669 1.71043 -0.231544 2.80834 -0.699515 0.514233 -0.684684 -4.13486 7.4044 0.2472 -1.73001 -0.569964 -1.31295 -11.2756 1.24192 -3.40469 1.18322 2.67627 -3.29429 0.118717 5.72788 -1.48977 -2.80942 4.68219 -2.28204 10.5073 0.31501 -3.17707 -12.8417 -0.632765 0.305328 -3.39397 -1.11185 2.82149 -9.46044 -1.02372 -0.836695 9.70719 8.22645 -0.906111 4.5129 -4.72027 -2.22661 2.83787 -9.97353 -1.37477 3.20069 -0.975252 -10.1132 8.50269 4.70523 -2.86295 4.93152 -0.333637 -10.4611 0.901547 5.52421 0.871395 -2.55992 1.18034 0.0219733 0.341716 -8.89003 -1.48907 -3.22123 -1.4754 1.98593 -0.75396 2.66662 -3.12958 -11.6896 -10.7484 -6.04957 7.49184 -0.30842 -3.55793 0.288522 -7.5403 6.57095 2.24584 -0.24134 -0.343394 -0.313761 0.187963 10.3747 -2.40463 0.456896 3.69939 -4.09574 2.41038 -1.08704 1.16242 0.859966 2.83778 1.45185 -5.2407 -7.12431 -0.342144 8.95064 -0.44972 7.9009 0.0622881 -4.26158 5.86469 9.57624 -0.62801 -1.01229 0.387766 3.51842 -0.366741 0.716568 -0.556902 8.89545 -13.7191 -1.50752 2.90247 6.05272 -0.664981 -2.44265 0.0944761 3.844 -0.356533 -3.39655 -2.9827 -12.4941 -0.419141 -8.41177 -4.61138 0.804559 -3.57995 8.86911 -0.564898 0.0705511 -11.2478 -3.47163 5.74963 -5.57783 2.78914 0.17894 7.80939 -3.0699 -4.90653 -1.80518 0.142091 2.73736 -0.281876 1.31825 -3.99278 0.0275277 -0.966578 -0.876217 4.44746 1.60783 2.9593 7.05493 -11.3969 -0.906665 -3.78315 -0.100654 -3.04697 -2.98226 -0.531968 -2.39369 0.823542 0.453291 0.413495 2.15591 -8.28833 -6.9097 0.686178 0.725669 -5.84058 -1.65648 -0.104283 6.49993 -0.255989 -0.711039 -3.32105 -0.982849 -0.579366 1.66684 6.04966 5.78497 1.00948 7.04733 -0.28361 -13.5368 6.5098 -0.834971 7.72438 -3.75218 -0.445723 0.596698 0.90237 -4.19397 -0.292364 -5.63203 0.468642 -1.97595 0.624188 -3.66099 -2.62065 3.3061 0.789014 -3.10965 2.13269 2.1177 0.507423 -0.946043 6.7223 1.23595 -3.72329 1.19565 0.454448 -1.86134 -1.67267 -5.09484 7.76439 0.254396 0.37846 -0.161111 -0.247588 1.03045 5.05873 0.276955 -1.74195 -7.0789 1.12942 -5.09865 -4.00394 -6.51287 0.288736 -0.776307 2.46754 2.85966 -9.08046 -0.337831 0.58861 3.03982 -2.0311 -1.19776 7.68025 -0.0372722 0.478683 -0.494705 1.96883 -1.189 3.52755 2.03082 4.63856 -1.25535 -0.994629 5.85199 -10.3071 3.42333 0.45916 -0.00381481 -5.35007 -4.39172 4.96358 -2.37368 -1.89065 -1.05717 0.41554 -7.71607 4.19313 0.410718 0.545427 -1.14935 -1.70244 -0.0608197 -5.7019 -0.457605 -6.55107 -2.95086 1.88116 0.598099 0.16654 0.197851 -0.110248 0.255019 -4.51765 -3.64561 -3.80615 0.905266 0.0684571 -7.47307 7.31836 0.615375 4.1835 2.55381 0.781365 -0.236129 -0.735007 3.41008 -3.35012 0.391852 -0.746301 -2.00494 -2.23891 0.623918 4.58055 0.44789 4.76696 -13.283 -2.11397 1.50411 2.42347 1.03244 -4.837 6.8132 0.609485 -1.58741 -2.34675 -2.1574 -0.519211 -0.249387 6.28359 1.35378 -0.425694 0.105991 2.80556 -5.47882 15.7667 -8.15483 0.220775 0.0617084 -0.832972 -0.290815 5.33063 -0.620197 0.249794 5.07392 -11.317 -0.248238 -3.95946 -1.18849 -4.25358 -0.647339 8.77085 3.861 -2.2669 -1.95339 -0.2412 7.2924 5.97852 0.868526 0.145403 0.576224 5.88782 -7.03164 -1.40402 -6.49722 -0.815667 0.135441 3.53505 -0.650447 -0.0238129 5.63189 7.70887 6.47703 7.87881 -0.428846 -0.833064 -1.72396 -11.3648 -2.30374 -1.60882 9.35517 0.053425 0.0838954 -6.66408 -3.55125 -1.48479 -0.199011 -1.21129 -5.28353 -2.76072 -2.75363 -0.497355 -14.2262 -4.59306 -4.58926 0.373623 -6.29026 -0.622059 -0.863051 2.90266 -0.336381 0.661046 0.690268 -0.912568 0.675225 -2.57705 -0.786386 0.689199 -1.47537 3.27789 -5.81944 10.2466 2.89028 -1.58 -0.443983 7.71584 -0.131283 -6.05192 -3.62214 3.62866 -1.20116 4.58758 0.173831 0.0668362 -14.1921 3.54846 -0.396311 -2.08462 -4.60141 -2.93819 13.2828 -0.568834 0.532456 -1.3651 2.67501 -0.643949 0.971404 -5.28734 -0.146519 -5.5007 -8.95119 4.63514 7.39333 1.91854 -0.39317 -10.1546 -0.585803 0.894622 6.83231e-05 -6.71376 0.85344 -2.65807 10.5792 0.436201 7.2348 3.58775 2.85869 -4.18963 -8.41961 -1 -5.24472 3.80878 -4.73398 -0.63064 2.49294 -6.33563 -0.984906 -3.04998 2.92149 -0.600055 -4.55713 -1.26401 -0.634716 1.37516 -3.17531 0.518418 -2.50295 -5.13796 3.25937 7.62544 1.16033 0.579392 4.86091 -3.70736 0.369273 -0.630161 9.3235 0.563944 -0.252349 -4.77624 -1.50807 0.438484 8.05309 -3.05638 0.978714 -0.180883 -14.0551 -5.85796 -3.7417 -2.53686 -6.68226 0.74453 -0.327891 -6.10547 -6.32548 3.56336 0.77364 -3.62864 2.13361 -0.72578 2.85846 -0.723706 -6.38118 0.242561 0.642621 4.02578 0.488479 6.37126 5.08938 -1.7557 -0.826785 -0.386792 1.69237 2.19062 -3.97633 4.56997 0.740198 -0.0832555 -0.333018 0.833167 -1.77082 1.80997 -3.9665 5.2888 13.8652 -2.93782 0.659963 6.85369 0.626958 1.79685 0.557329 -2.2608 -3.82789 -7.3302 0.645109 -10.3083 -2.365 0.315311 1.4248 0.712638 2.23508 0.0237129 -6.64772 -0.805811 -0.192877 -12.432 -4.19506 -8.52141 -0.713935 -13.2893 -0.776238 8.23376 -11.4846 4.82252 -0.885258 0.115574 -1.57094 -1.39774 -0.0435655 4.41613 3.94112 -4.67898 -1.59784 4.58153 -0.33738 -0.558916 -4.41392 0.818964 -0.0635395 3.14433 -0.404096 0.240913 0.0133579 -6.43129 -0.752192 -0.43141 -0.402835 -1.90283 -0.566698 -5.06484 -2.69252 0.109202 -1.37607 -0.783459 -1.4456 -1.71669 1.67437 -2.42002 0.872721 -1.1608 -4.81174 1.83941 -0.654347 -0.625169 0.97711 -7.01461 0.955373 -3.10768 -0.743858 6.74576 -0.509171 3.5504 -11.4115 -0.528397 -8.7455 5.77143 1.30487 -2.23996 -10.8255 0.543229 -4.99462 3.68455 0.331829 -0.192657 0.712931 -0.325419 0.00714129 -1.7418 2.74401 0.629523 -10.0495 1.55069 -2.73655 4.73182 7.54338 -2.64558 9.62711 -2.45968 -2.66312 5.78486 4.77217 7.33837 0.348087 -2.65186 5.71681 -3.57924 -7.82404 -7.96933 -2.76553 0.385357 5.44586 -3.61787 3.5226 -0.534288 -2.60926 -2.84311 1.29413 -7.188 2.65382 1.44798 -0.453284 -7.50254 -3.88178 9.60559 0.226408 -4.18164 -2.15416 -0.898565 3.70661 -8.11806 6.95262 -0.103061 -0.979247 9.63035 -6.45949 0.222013 -4.43311 -4.68712 1.97716 -4.93308 0.685166 0.310937 -0.994812 0.84637 9.25012 11.858 2.89773 -0.314241 -0.631401 -3.8497 2.72867 -5.02903 -2.33408 3.7116 4.50255 7.21847 0.236223 -3.65288 -8.23208 0.873409 0.887839 4.91301 -0.486221 0.679896 -2.65098 0.543635 -5.36996 0.223365 1.72186 -6.62678 -0.952217 3.45208 2.03541 -0.727226 -9.02606 -0.941099 -4.01178 2.19095 -0.104068 -4.57974 -5.14817 3.32097 1.50949 -2.31039 2.96841 0.401959 0.97992 -11.5114 1.73129 -3.11788 0.0932035 0.336351 5.35562 2.92817 -0.889433 2.99867 -0.474746 0.0286145 -5.46954 -2.25495 4.79252 -0.518006 -9.70036 -0.854369 -0.499898 2.50316 -0.0530717 0.559435 -2.87691 7.51092 -4.99927 3.87072 -1.28118 10.57 0.911832 -7.02566 -3.15195 2.79876 2.21475 -4.70544 -1.86894 -4.94611 2.00691 -5.5655 -6.44445 -0.0764661 -0.163091 -2.2364 -4.58879 1.20675 -2.36965 3.43351 -0.788476 -12.676 2.59174 -2.4808 0.135044 0.435469 8.09294 -5.88083 2.19843 -0.151463 -2.90058 -0.253645 4.60577 -3.49222 5.98348 -0.61446 -0.948424 1.39215 -13.841 2.79619 0.227118 -0.355511 7.77814 -6.46924 -2.17455 -0.639119 -5.56627 1.90763 10.1342 -0.0503642 -2.55637 5.60984 -0.199042 -0.389142 3.91222 -4.70688 0.856105 -3.33712 0.731736 -4.28869 -6.66542 6.06514 6.68742 0.940184 -0.125481 -0.893704 0.146678 -0.897061 -11.4682 4.38728 -7.16356 -3.49704 -0.457086 5.49231 -1.12812 -2.69813 0.709282 -9.87154 3.28866 -4.86967 0.539079 -2.60997 -1.38678 -0.948126 -0.612122 -1.93447 4.16495 1.69227 7.88386 5.01333 0.123936 0.189655 -7.51348 -5.13696 -0.88399 1.75135 -1.748 -4.43593 3.90889 0.203413 -13.1309 -1.15747 -0.0625661 -0.0585733 9.27274 -11.0929 -10.2757 8.82301 -4.52111 -0.691855 -12.2537 0.396924 -1.33515 -2.80879 -0.880245 0.104068 1.00354 -3.32706 3.33423 -7.06998 -0.620125 0.805841 -1.12967 -4.73015 3.13264 -10.5516 -0.661179 4.19691 -0.249855 0.680298 3.93408 1.66771 4.57974 -0.00196118 0.0123295 -0.307382 -0.154393 1.60806 1.38113 -2.20727 2.05709 1.38104 -5.60169 -3.57839 -8.7585 -6.05455 -0.0663962 -0.373455 -10.4335 -1.34912 10.7574 0.998535 -5.18924 1.04542 0.80969 -0.143925 3.94357 -1.71819 -11.304 -0.346751 4.34941 -3.27569 3.72861 -0.152532 -4.09346 -0.194525 4.68659 5.04154 2.34218 -6.99711 -3.66429 5.10886 -7.31529 -0.556881 -11.8141 -3.99561 2.56245 2.90186 3.55011 -0.262825 -6.99414 -4.28587 -6.19726 5.92439 -9.27858 0.99234 -3.07589 -1.13146 -5.18871 5.34631 0.744521 -4.18103 -10.8618 0.882257 5.05889 0.681621 -3.95449 1.30012 -3.22637 1.54622 -1.53236 3.97248 4.21657 -3.51185 -0.877377 -3.82955 2.9128 6.49315 0.00347463 -1.01064 4.82501 -5.26088 -12.0427 2.55965 4.85255 0.295907 3.03804 9.4635 -7.58417 0.89404 -6.94543 -9.75638 -3.77635 -0.800089 0.952025 -5.83608 9.54371 -8.90674 -5.28809 0.642445 5.36727 6.29395 -0.54796 7.72288 -6.68555 -1.78519 -9.53401 -3.35113 -6.85158 -5.83076 -4.88722 -0.423032 -5.38038 12.4374 3.76404 -1.859 -2.53676 -10.4101 2.66646 0.851111 3.78888 0.143742 -4.81402 -2.2421 -0.0688857 -8.39705 -2.86203 -7.38766 -8.87715 0.347656 6.95178 -0.266114 0.455 -4.8373 -11.2333 5.01386 -9.15485 5.599 0.168827 3.58998 16.5411 -2.4913 0.257366 3.70849 -0.784555 2.01106 1.00603 -3.04156 0.488632 -4.50292 5.81277 3.5903 2.5998 -9.89432 -11.5025 -0.820869 1.75699 5.45634 -0.174376 -6.69884 8.94762 0.79223 -0.584316 -2.55718 -0.711903 -3.9552 -7.32906 0.61272 -0.430586 4.194 0.427619 4.23826 0.410413 -5.35823 -1.86227 -2.74431 -6.56001 -5.33346 3.84665 -1.63752 -2.32966 1.44417 1.93533 -10.2562 -4.22068 -4.8281 -15.2679 0.631794 -2.79066 -8.10604 -0.89404 0.329966 0.0768761 0.693689 0.0177822 -2.02102 1.13137 -5.58511 6.41463 -3.88443 -2.67272 -4.35618 0.861965 -0.956034 0.793124 8.74851 3.60132 1.81237 -1.12467 4.29832 -3.24592 -2.97323 -3.01852 -3.92419 1.44796 0.720817 -2.45898 -2.94548 -0.659967 -5.90928 -0.46296 1.38119 1.07322 -5.42851 -2.87853 -6.86687 -0.676046 -0.497496 4.33847 -5.07581 -15.2586 0.0163423 -2.53325 3.59155 -11.849 -0.22425 -2.14473 8.78746 -5.01532 6.45221 -0.302934 1.0883 5.99033 -11.9819 -0.370067 -0.474618 -3.22924 -4.58509 -8.37128 -2.29339 0.868038 0.561174 4.49172 1.16061 -0.986724 0.1789 -10.7198 -0.186036 0.254311 -2.44442 -1.54135 1.02437 -5.51241 2.92812 -6.47822 -2.66424 -0.91171 3.24466 3.74651 -3.68858 0.969483 -0.0722726 -2.20892 -0.450817 -9.23326 6.27947 1.84805 -1.66314 -0.772942 2.93341 -1.85381 -2.01447 -11.7401 -25.1647 1.0401 -4.62719 -0.326701 -0.338633 -2.43849 -1.07515 -2.98053 0.514079 -2.71117 -0.446355 -0.425825 -1.39502 -7.04473 -2.17853 -0.364879 0.995594 7.3164 3.57153 -3.16087 -0.777862 -1.13245 -3.0024 3.05453 6.33939 -2.36548 -0.192175 -0.433397 -2.29968 5.38675 0.496098 0.159703 4.9884 -0.907622 0.400095 2.9392 5.66934 1.44599 -6.91914 -5.774 -1.78019 6.40429 -1.15541 -0.635766 8.13595 -6.75597 -4.72332 -5.63478 4.71729 2.57455 -3.49905 4.69898 -6.61787 0.690909 -12.464 -3.11997 -17.0826 -7.20433 -21.6396 -1.17994 -0.847804 1.358 1.32124 -8.63746 -3.01701 0.29603 0.154469 -0.913572 5.02355 0.920291 0.3051 -5.80539 1.54044 0.92761 -5.68117 0.0285348 -1.51384 5.64021 -4.22084 -0.874199 -0.281459 -2.30614 4.71728 7.22027 2.95516 -0.530746 -10.4505 -4.15109 3.34208 1.73184 3.05536 0.660212 -6.85819 -2.35622 -11.2326 3.85555 -0.339092 9.07983 0.656392 3.8378 -0.348227 -10.366 -17.0742 6.99417 0.231086 -1.42197 10.5415 0.972707 4.51653 -2.24824 -0.618519 4.6668 -7.20007 -2.05625 -2.82096 2.60182 -5.50815 12.5272 -0.859224 4.24968 -7.42223 5.39289 1.53969 -11.3386 -1.69358 1.92961 -0.157028 8.5068 -11.7363 1.0051 0.156535 0.589637 -3.094 -9.71251 5.98334 0.484207 3.50501 2.37719 -9.20706 -1.57289 2.40536 8.58448 0.88229 -5.6265 -0.534562 -0.0652392 0.177526 -1.48724 -1.01554 -0.0474605 -0.247261 3.26243 3.82792 0.564952 -10.5809 2.17492 2.53673 -0.39967 -0.769219 6.54124 -8.26509 -3.61055 -6.36424 -3.73835 0.863852 7.99066 3.515 -1.22822 1.58997 -0.236213 -12.4769 -1.88542 13.803 -6.05185 -2.04498 -1.03463 0.775987 3.5169 -2.1733 5.75219 0.223579 -12.5065 -3.54807 -0.292856 1.05332 -3.87873 3.38469 0.292673 -5.38295 -0.0882595 -7.49872 4.58458 -0.0887715 -0.504182 -0.20188 6.67555 2.55255 -13.1677 0.759958 -1.54773 4.73853 -4.42353 -3.90085 -3.85269 -0.487136 4.74532 0.510082 -0.77337 -6.43353 -2.79115 -3.28617 1.99513 -1.33247 -12.2339 -0.0286264 -3.41337 -2.55864 0.129612 9.33057 -3.29101 -1.38705 -3.64752 10.4013 -6.51286 -2.74531 3.53807 -2.43057 -11.101 2.27344 2.06003 -0.720978 -1.38017 0.42317 -0.146681 -5.39589 -2.44803 -3.82232 0.806543 5.68096 -0.278939 1.65502 -8.97332 -4.54469 8.5914 5.83349 0.239695 2.41133 -1.30821 0.368114 -1.99473 -2.04283 -0.784173 3.4441 -0.00401525 -0.816942 0.280424 7.9133 -6.22241 -7.72177 -2.82811 4.66012 -2.87521 -9.57561 -5.80354 -3.74749 -0.434643 -1.36254 5.36506 -4.46097 -1.65837 3.79786 12.7462 -7.44839 -0.112719 5.372 4.84426 3.06128 1.53315 -0.589831 -2.87795 2.39383 -7.16207 -1.5709 3.05313 -0.945174 6.84143 -5.40322 3.90696 -2.46185 3.65622 -9.05154 7.66026 3.95342 5.12922 -9.9128 3.29474 0.168157 -1.81295 -4.04206 3.99466 0.353435 -0.247383 -3.88667 -0.394958 3.35648 -2.61522 -1.84893 6.32472 -6.87572 0.558428 7.48684 -0.590115 1.18319 4.22375 -0.392938 -6.90633 10.5243 -13.0152 8.59319 7.28876 -1.4153 -9.44656 0.0373236 -0.520799 3.49442 -14.0072 -2.99798 1.9509 -0.939268 -7.44025 -2.00681 -4.32349 -9.92344 2.16823 -3.24192 -0.215546 -0.938753 4.49004 -8.71946 9.0798 -5.3768 -6.07956 -0.924924 -3.18601 -0.13242 -5.77583 -1.30402 -1.63631 -3.66371 -5.93466 10.7383 8.49799 -3.91996 -1.4813 0.806024 -0.460411 -1.93912 3.18273 13.3002 -0.73516 1.81862 -7.83087 -9.05254 -11.9767 4.7959 -5.83292 -1.76413 -2.87156 1.39895 -2.8055 -7.63668 -11.3181 1.22622 -4.41929 -2.49687 0.326792 0.517827 -5.30358 -3.9128 -5.1636 3.69561 -5.04501 5.9306 -0.109745 -3.28067 -11.2081 0.774693 0.429514 -10.3179 -12.4533 -8.7899 -3.42988 12.0909 0.405814 10.9468 -0.565111 1.85696 11.7993 -1.37153 -5.02654 7.68866 0.689444 -12.0059 6.24439 -2.41104 -0.867519 -0.528092 -1.45134 -13.1171 2.66559 0.946348 3.28293 2.65772 -2.25269 5.04194 5.65708 0.514939 -0.938127 5.7006 -9.12684 -11.4421 0.833338 -0.527451 -4.94382 -8.91316 -20.7176 -0.222846 6.10574 4.45355 0.378466 -3.83594 2.92553 -3.74717 0.410199 -0.0791955 -7.89657 -4.5086 0.886166 -7.65179 -0.531114 10.3573 -12.101 -5.71592 -1.86927 0.209906 2.97347 -0.117252 -4.62578 -4.29735 -5.47351 14.4791 6.14352 2.72173 0.615617 -0.553186 -8.17169 -1.89149 -3.13302 2.09238 -1.15631 -14.4412 2.64848 -0.158316 -0.413104 2.00401 13.9775 5.42574 4.05783 7.79576 4.60271 -5.70955 0.941069 -3.22163 -3.21835 7.85624 8.37045 -6.13681 -3.01625 12.3415 -3.31806 -1.52892 -6.13731 -2.31716 -1.4971 0.376907 7.9528 0.799492 -8.37887 -5.48054 -6.49047 -0.17893 5.19185 2.15337 2.20474 2.58668 -0.429314 0.745781 -6.02407 14.9268 -0.902318 -4.11335 7.29859 2.83028 -9.10226 2.33731 -11.8068 -0.264729 -3.31015 -1.80557 0.354503 -17.8961 -6.3883 -6.53687 -4.69133 -4.20601 -0.751854 -0.141575 0.533738 0.873928 -2.15602 2.83951 1.77648 -2.15712 -3.70429 3.11174 -5.76285 -0.867173 0.638295 -6.84776 -3.56823 -2.51611 4.11832 3.83094 -1.91153 -7.5289 0.0495401 -0.0380261 -7.89004 3.99455 -7.34654 -0.925077 -5.79472 -3.0557 -5.19395 -0.831629 -8.51238 3.59757 9.48551 10.3598 4.56931 -6.88963 -2.7713 -0.0939429 -3.29983 -6.79385 -2.77162 -0.370703 -0.542823 -0.548197 9.22675 -0.88403 -4.5323 3.98617 0.299633 -1.3814 -1.25732 -0.494613 -0.584674 -2.91266 -3.07655 -2.2905 -9.08707 4.97831 -1.37832 0.672187 -3.01394 -5.37278 -3.97052 0.661864 -6.04166 -1.6862 -11.5574 -2.38644 -0.031748 -3.42294 0.799432 6.11296 -4.4338 -0.0708329 -4.86543 10.547 -0.365248 3.57603 -7.06015 4.92458 -0.62249 -0.800195 4.09778 -0.387432 2.18092 -0.158757 -10.3898 1.95448 1.4068 0.408823 -0.767418 0.384246 -3.3301 0.503683 -0.72603 0.992889 -2.26406 -7.56615 -3.11274 -9.41961 -2.49173 -0.42825 -3.76577 0.44943 0.715922 -0.972743 5.29359 0.666492 -2.83036 -2.39545 1.80729 -0.246723 0.691763 0.335648 7.30471 5.40633 -5.68821 0.198431 -3.06422 -8.79146 -0.353625 -2.53325 3.44224 3.92348 -4.69942 5.9363 -6.50549 -5.18547 0.673086 -2.74146 0.0099288 6.97039 1.31697 -7.95304 6.15305 -1.46726 -6.21231 -2.47988 5.47626 -6.74041 -5.09978 0.636778 -2.41325 3.98705 0.0719932 4.28742 -6.20291 9.21391 -7.36376 -0.826857 8.03347 0.189978 2.39695 -1.95806 -0.313566 -5.93299 -1.00073 0.842921 4.20254 6.60056 4.40155 -2.58253 3.95154 -0.081576 0.45732 2.97615 1.48939 -3.20873 -3.21687 -6.19478 6.67086 -1.71361 5.17339 4.25843 2.54855 -3.49045 0.979186 -5.95077 -0.475531 2.60362 -6.5832 0.125341 2.97475 -0.914457 3.90104 6.19236 0.453472 0.357964 -0.274819 6.70396 0.306736 -7.77277 -8.45023 2.72266 -2.83873 -0.552361 -7.39563 -0.629669 -0.921567 1.48919 -1.97584 2.33698 0.872928 5.75132 -2.6446 -2.34492 3.29225 -5.48889 4.28528 4.83568 1.08069 0.802323 1.86386 2.94779 2.98938 -6.48105 3.33449 -5.46957 -1.46321 -2.70903 -8.64474 -11.8951 -0.190161 3.15581 7.51781 -5.3042 -1.5047 4.35163 0.98602 -1.44397 -5.34916 0.812158 0.112089 -4.73116 0.894445 -0.738334 -3.49185 -1.19866 -7.72265 -6.96452 -0.603445 -3.17277 1.31916 -9.00153 0.0122859 0.5656 0.240455 2.43866 -3.42081 3.495 -0.663045 0.140385 -5.61477 1.57192 -0.5862 1.20199 -0.123168 -16.3093 -2.29206 -14.3062 -1.92535 -3.58082 -0.460289 -1.97684 -1.81125 -8.04453 0.881954 -0.872719 -7.66157 4.60057 1.84399 -3.51441 -0.0421273 3.12299 0.605518 7.26508 -0.790801 -0.0301473 4.00705 -7.32427 -0.407207 -0.584549 -0.395795 -0.824641 -10.5684 -2.4081 -3.47041 -0.0778538 -3.4583 -1.86514 0.398572 -4.51693 1.27588 -2.14891 -0.83697 -16.6121 -5.86395 5.67925 1.24666 -5.28156 -19.2399 5.41418 -2.12291 4.14723 2.16546 0.0952483 -0.670051 3.97322 6.19929 -1.39989 -0.112888 -2.68549 1.00603 -8.13209 -4.81482 1.44628 -5.49378 3.89624 -3.26502 2.59585 -11.8462 -5.22244 0.758782 -6.81685 4.46966 2.28296 -6.58657 0.689138 -4.71238 3.75781 3.89526 1.12302 -1.09566 0.991016 -0.87695 2.21243 -3.08161 -3.86991 -7.21785 0.764183 2.19671 -1.33936 9.34466 6.71803 0.617201 -4.59778 -0.0168462 0.0786312 -7.17837 -0.59455 -2.17533 -1.15949 -0.0141911 -0.41407 3.53558 -7.62623 -2.8139 7.57496 0.117949 5.7602 0.190563 -4.45964 -2.71433 -1.90099 -7.38438 -2.51968 -9.55102 -2.3392 2.06672 -6.29514 10.9693 -0.830032 -2.08063 -19.4009 2.31917 4.03487 -1.43388 0.958953 0.225508 -0.0166335 -2.32692 4.82393 -4.47804 0.544328 2.22904 -3.83728 -4.21546 8.09689 1.5221 -7.98667 6.59638 -0.337994 -3.45792 -6.40756 -4.2066 -0.767263 -2.74985 9.6937 -10.2342 2.8227 -4.38218 -6.93069 1.84845 -0.300974 -12.1968 -0.408433 2.19397 -4.51328 -3.07208 -0.389996 0.384375 -4.62712 3.97433 7.3094 0.316965 -1.05613 4.39432 -2.71373 -4.26645 -5.50541 6.53511 0.756523 -0.151403 -0.947386 -0.480026 -2.67326 -3.71463 -1.06671 -2.67616 -0.143895 -0.369065 -3.5039 -4.47596 -0.121763 -1.29652 -4.97275 -0.170537 -4.55574 0.503418 4.41059 -6.44059 3.22994 -13.5568 -1.73303 0.42104 -6.58358 -1.47168 2.07705 -0.518571 -3.28416 10.1254 4.15927 -0.603748 -2.97991 1.17568 -0.907315 10.2845 2.40117 1.50285 -0.680288 6.67584 0.43516 -0.894925 0.0780049 -2.71797 7.89894 -0.227542 -7.61015 0.799158 -3.4951 -4.78319 -2.68873 -0.264654 0.998108 -1.3704 3.09766 4.50711 -3.88301 0.812128 -4.91329 1.72377 -1.61774 1.97443 -0.202612 -4.35097 -0.850978 -0.0618915 -2.31267 -1.19649 0.200845 -4.58984 8.19944 -11.8397 0.0167547 -4.55622 -0.285624 -0.000427259 3.40961 0.44651 0.720668 2.08992 4.42694 7.7321 1.06077 5.44015 0.784054 7.58593 -9.2698 -2.31135 -4.85722 2.52318 -1.54038 -6.42932 -5.18488 -0.0628706 6.85546 -0.797266 -1.99611 0.964537 -8.96976 10.9957 3.30919 -9.12181 -5.39128 -2.83082 -1.30396 -0.984327 0.0968963 -0.54731 -11.0183 -0.318155 -2.40621 -1.20791 -0.386425 4.15135 1.1276 0.075053 -15.3119 -4.2267 -5.61437 12.1205 -3.21419 2.17891 -3.57972 1.86988 -6.94083 4.56739 -2.73269 -7.31631 -5.8708 -2.45723 -4.2091 -0.698532 -0.714477 3.2928 3.60107 5.74683 0.962218 0.768419 3.04204 -5.42572 -1.39462 4.74972 -1.3504 2.73322 -2.747 5.1839 6.62104 -1.07222 -9.72146 2.07223 0.62258 2.44821 2.72344 2.18835 -6.76302 -8.83818 6.97786 0.343941 -0.724385 -1.41874 -1.04667 7.24737 -3.59055 -2.50267 0.371775 -3.40314 -3.3927 -0.778893 -10.1597 -0.940367 -1.84229 -9.16198 -4.6374 8.01583 -8.84114 2.37132 -9.02504 -0.949253 1.61494 -1.21389 0.270262 0.640321 -3.05052 -12.6392 -1.88258 7.4697 -0.978301 2.81327 -6.2161 4.11866 1.68128 -3.42153 -0.48973 -6.41752 5.48156 -0.707021 1.58406 3.47661 -3.33783 2.28373 -0.114994 -0.532357 -0.945799 -1.49273 0.646435 0.723533 14.1276 2.29353 -4.48431 13.6381 -3.02331 -2.99774 -0.494644 8.96727 4.06222 2.49793 -6.0153 0.175695 7.74084 6.65821 -4.17305 -1.56833 -0.46434 0.623498 4.88765 2.41756 -0.116552 7.3554 -17.1032 -7.57823 -2.96133 -0.667695 0.0898612 -0.628162 0.579119 -4.53037 -0.183454 -4.63417 0.169415 -1.79878 -4.06232 -0.007416 -1.68861 -6.94981 5.61673 1.93765 -11.6863 -1.09034 -3.58747 -5.68001 -12.0078 -1.1035 0.349346 0.787988 0.955415 -3.99066 -2.0485 -0.58442 -4.33074 -0.206793 -10.4133 2.13654 -10.1325 0.377575 0.109897 -5.53979 -0.729424 -5.99637 -0.771996 -6.16229 1.2408 -1.43951 -9.57535 -0.153012 -0.312754 0.359661 7.87607 1.74974 5.97123 0.546802 -0.795801 1.1129 9.38433 -3.14209 0.568438 3.09652 2.51801 -9.2594 -4.63943 0.03186 -2.50635 -0.871029 -0.335246 15.0474 0.189557 0.3502 3.80971 -3.79095 2.27499 -4.14573 -0.349535 -3.65502 -0.598041 -0.223913 0.931547 -0.543273 -0.431914 -3.09585 1.34908 -7.88211 4.6803 3.78104 -1.02045 -1.98235 -0.787322 2.03201 -3.97734 0.217753 2.86259 3.12095 3.31632 -2.02007 1.49716 -0.347628 2.91248 -0.207642 -6.13008 -1.65864 0.0809737 -1.46001 -0.683981 -1.54572 3.6154 2.28312 8.93033 -3.35183 2.45523 -14.2997 0.557591 3.17733 -4.89019 0.7973 -1.44382 0.265101 4.54413 -4.52382 -2.24069 0.96323 0.601337 5.4168 0.127587 -5.42129 -4.14258 0.706137 0.763329 -1.3057 1.82147 -6.14583 1.22675 0.323718 -0.550218 -5.23947 6.72813 -5.19146 -3.28341 -0.929899 -2.70404 0.65624 -7.75432 3.02508 1.82295 -1.34867 -0.413967 -0.410871 0.226936 -0.169652 1.53141 -10.6847 2.47057 -16.126 -6.43903 0.602696 -4.04086 7.36492 3.54234 5.80096 -5.97199 -10.5401 -1.80079 -9.49057 0.458113 -12.0929 3.47424 -11.0435 -0.945982 0.735578 -0.507639 1.47142 0.85165 -0.869955 -1.90903 